,Generations,CCEA Fitness Values,Best_Sol,time
0,0,0.51354363320552,"[[1.9169746580990146, 1, -0.5], [19.055030465653743, 0.9254591282628918, -0.12033176187269523], [5.354122736107671, 1, -0.4222069585274801], [4.367853759748858, 0.5435490044625155, 0.43318263792876643], [2.040143768417085, 0.7333739383177463, -0.40522772433771803], [6.275396674687137, 0.3996754704583362, -0.15918524897796954], [5.5131758756012745, 0.5488020635200687, -0.5], [11.837190550650977, 0.5520417446437743, -0.22690580422420792], [3.4032327881276583, 0.9262025711313868, -0.21054872062884145], [13.429551442311054, 0.4494113387338631, 0.049071402192534974]]",1.0501829075813294
1,1,0.5440394895527256,"[[0.5924239483843792, 0.5031692601417164, -0.008748269650685148], [19.055030465653743, 0.9254591282628918, -0.12033176187269523], [0, 0.4722119637437151, -0.026006044844914283], [2.6958145667055056, 1, 0.197847136700528], [7.637114497990131, 0.20437344436110272, -0.28690765786034056], [1.009954196725773, 0.8996016168103304, -0.5], [0, 0.5454010862700482, -0.5], [12.839415770783486, 0.4600599232480428, -0.2313446288387357], [7.483016334201014, 0.6776044841189683, 0.5], [19.81755479809104, 0.37430638910296243, -0.08901103172155911]]",2.1003658151626587
2,2,0.5647819516866829,"[[0, 1, 0.5], [5.102082998127855, 0.12084414103751706, -0.5], [8.46508846414105, 0.0529078163537362, -0.26238106901051905], [8.624014049134834, 0.9810793503142671, -0.5], [5.004658870786296, 0.5737275744241355, 0.30389450991616307], [1.009954196725773, 0.8996016168103304, -0.5], [7.177021442279349, 0.678323196290607, -0.5], [3.8370449367973474, 0.694433638261368, -0.1963278043652832], [12.262517452554366, 0.14181088446425427, 0.45769193624995286], [0, 0.6648456408957283, -0.4717438777236899]]",3.150548722743988
3,3,0.5815175023710731,"[[1.9169746580990146, 1, -0.5], [8.752561870315812, 0.3520978476454786, -0.23517520592793115], [19.44007684094794, 0.04223167610304068, 0.4428371195074723], [0, 0.9668032328585077, -0.2516691589934268], [15.821417646352726, 0.29192995943411504, -0.30160878629760035], [1.5089909585212595, 0.738964837719742, -0.28265459174374497], [0, 0.2942155838029404, -0.3378611726254252], [12.839415770783486, 0.4600599232480428, -0.2313446288387357], [7.659835301397898, 0.6210702075525061, -0.32731895067492817], [15.384429878312558, 0.8479326142864376, -0.5]]",4.2007316303253175
4,4,0.5815175023710731,"[[1.9169746580990146, 1, -0.5], [8.752561870315812, 0.3520978476454786, -0.23517520592793115], [19.44007684094794, 0.04223167610304068, 0.4428371195074723], [0, 0.9668032328585077, -0.2516691589934268], [15.821417646352726, 0.29192995943411504, -0.30160878629760035], [1.5089909585212595, 0.738964837719742, -0.28265459174374497], [0, 0.2942155838029404, -0.3378611726254252], [12.839415770783486, 0.4600599232480428, -0.2313446288387357], [7.659835301397898, 0.6210702075525061, -0.32731895067492817], [15.384429878312558, 0.8479326142864376, -0.5]]",5.250914537906647
5,5,0.6033063979966732,"[[3.0936001581392034, 0.982160277692039, -0.5], [19.055030465653743, 0.9254591282628918, -0.49109925497489554], [0, 1, -0.15160047902918067], [0, 0, 0.14884945663224036], [2.278430780953233, 0.8497069874794215, -0.42294004128514806], [0, 1, -0.11536591978464565], [0, 0.929885311248587, -0.5], [0, 0.8253898194415366, -0.5], [0, 0.933824961955744, -0.4906561397279232], [5.075319142721605, 1, -0.48928724902555776]]",6.301097445487976
6,6,0.6142688776864448,"[[1.9169746580990146, 1, -0.5], [6.648081376963238, 0.772410106038676, -0.5], [1.7621327656317143, 1, -0.4246963934671977], [1.0334251951462403, 0.20689833863301885, -0.5], [5.254597958240031, 1, -0.39740008047116754], [0, 1, -0.11536591978464565], [3.0524373811160266, 0.7737918927804942, -0.5], [4.038409429764766, 0.1020325950087818, -0.5], [0, 0.933824961955744, -0.4906561397279232], [0, 0.8598902882025796, -0.2942254768412126]]",7.351280353069305
7,7,0.6142688776864448,"[[1.9169746580990146, 1, -0.5], [6.648081376963238, 0.772410106038676, -0.5], [1.7621327656317143, 1, -0.4246963934671977], [1.0334251951462403, 0.20689833863301885, -0.5], [5.254597958240031, 1, -0.39740008047116754], [0, 1, -0.11536591978464565], [3.0524373811160266, 0.7737918927804942, -0.5], [4.038409429764766, 0.1020325950087818, -0.5], [0, 0.933824961955744, -0.4906561397279232], [0, 0.8598902882025796, -0.2942254768412126]]",8.401463260650635
8,8,0.6271951097183837,"[[1.5213914656980974, 0.19501031121264367, 0.25196546330065767], [0, 1, 0.15920700135468724], [0, 1, -0.5], [7.828718637128558, 1, -0.21000327750227396], [5.254597958240031, 1, -0.39740008047116754], [3.6421343100595385, 1, -0.5], [0, 0.28745839317992183, -0.5], [4.038409429764766, 0.4587712135199252, -0.5], [0, 0.9941229763916895, -0.376505938045873], [15.384429878312558, 0.8479326142864376, -0.5]]",9.451646168231964
9,9,0.6289766517381047,"[[0, 0.4086299285853663, -0.2667199127450137], [0, 1, -0.5], [0, 1, -0.5], [2.982856543339814, 1, -0.5], [0.4407524373645595, 0.8065542227333876, 0.5], [2.5345945021513208, 1, -0.5], [0, 0.28745839317992183, -0.5], [4.038409429764766, 0.4587712135199252, -0.5], [4.048460401522307, 0.9343154474372113, -0.4121919405009612], [5.075319142721605, 1, -0.48928724902555776]]",10.501829075813294
10,10,0.6332817210776835,"[[4.708373125690974, 0.6539902462696777, 0.5], [9.767381422498923, 0.9502546689209036, 0.3661532676754159], [0, 0.8824273336327424, -0.5], [0, 1, -0.39744919578825477], [0.4407524373645595, 0.10372243455456678, -0.21773709586593099], [2.017336269737859, 1, -0.5], [0, 0.28745839317992183, -0.5], [6.426487670753279, 0.8561281691141964, -0.5], [0, 0.7247484090501215, -0.5], [0.9340522870895193, 0.7383692350239826, -0.2562274847576438]]",11.552011983394623
11,11,0.6347245000839157,"[[0, 1, -0.5], [19.055030465653743, 0.9254591282628918, -0.49109925497489554], [0, 0.7833852206129475, -0.3867694889158158], [2.0214709433638136, 0.9670337842351913, -0.5], [0.4407524373645595, 0.8065542227333876, 0.5], [2.6301644435143485, 1, -0.5], [3.0524373811160266, 0.7737918927804942, -0.5], [0, 0.48777744493474473, -0.5], [7.749131358255213, 0.4942291031217501, -0.5], [0, 1, 0.23506142131051322]]",12.602194890975952
12,12,0.6533985411499552,"[[2.324411314963571, 0.8706282412028082, -0.30291566901834377], [0.6897890416522214, 1, -0.25008850807696636], [5.394015827627409, 0.8810118572996873, 0.5], [6.3798221721319655, 0.9225942894673398, -0.3591282915485793], [1.490594550179189, 1, -0.5], [0, 1, -0.5], [3.0524373811160266, 0.7737918927804942, -0.5], [2.3813330765538723, 0.9686862103610898, -0.5], [0, 1, -0.5], [2.8792077563036917, 0.9043820831954306, -0.5]]",13.652377798557282
13,13,0.6533985411499552,"[[2.324411314963571, 0.8706282412028082, -0.30291566901834377], [0.6897890416522214, 1, -0.25008850807696636], [5.394015827627409, 0.8810118572996873, 0.5], [6.3798221721319655, 0.9225942894673398, -0.3591282915485793], [1.490594550179189, 1, -0.5], [0, 1, -0.5], [3.0524373811160266, 0.7737918927804942, -0.5], [2.3813330765538723, 0.9686862103610898, -0.5], [0, 1, -0.5], [2.8792077563036917, 0.9043820831954306, -0.5]]",14.70256070613861
14,14,0.6573187061975438,"[[0, 1, -0.5], [0, 1, -0.4586593698036106], [19.44007684094794, 0.04223167610304068, 0.4428371195074723], [0, 1, -0.28634254890747396], [2.278430780953233, 0.8497069874794215, -0.42294004128514806], [0, 1, -0.5], [0, 0.28745839317992183, -0.5], [0, 1, -0.5], [4.048460401522307, 1, -0.5], [15.384429878312558, 0.8479326142864376, -0.5]]",15.75274361371994
15,15,0.6627229119141275,"[[5.742071010095785, 0.9995072019047114, -0.5], [5.082109575938396, 0.8830258186852064, -0.20619458843709126], [0, 0.7833852206129475, -0.3867694889158158], [0, 1, -0.39744919578825477], [3.603854866011369, 1, -0.5], [2.6301644435143485, 1, -0.5], [0, 0.9165018417286066, -0.30587075113442236], [6.028883373512336, 0.7122366938190928, 0.5], [0, 0.9480023536258151, -0.5], [0, 0.5299555628794141, -0.5]]",16.80292652130127
16,16,0.6672054697775373,"[[1.2979026814901986, 1, -0.387446072521967], [0.6897890416522214, 1, -0.25008850807696636], [1.3998181598404598, 1, 0.18374689916932477], [2.982856543339814, 0.9670337842351913, -0.5], [4.110053116521061, 0.8482043158155765, 0.5], [0, 1, -0.5], [0, 1, -0.5], [6.028883373512336, 0.7122366938190928, 0.5], [1.873556298476347, 1, -0.5], [0, 1, -0.5]]",17.8531094288826
17,17,0.6761401063683425,"[[0, 1, -0.5], [12.031071964404829, 0.7046221097828476, 0.32556193480577383], [2.5823758685751734, 1, -0.5], [0, 1, -0.5], [3.603854866011369, 1, -0.5], [2.017336269737859, 1, -0.5], [0, 1, -0.5], [0, 1, -0.4608198874441518], [0, 1, -0.5], [0.7356605561169758, 0.9928764027802498, -0.2092335073512882]]",18.903292336463927
18,18,0.6809936722902926,"[[0, 1, -0.09586571360274282], [1.6583679280961783, 0.9822403931553656, -0.5], [0, 1, 0.04209836572511666], [2.982856543339814, 1, -0.5], [1.490594550179189, 1, -0.5], [2.6301644435143485, 1, -0.5], [0, 1, -0.5], [1.9164098555574407, 1, -0.5], [4.098709508698183, 1, -0.5], [1.0681021831596895, 1, -0.439866142748887]]",19.953475244045258
19,19,0.6846087929275533,"[[1.9463290688293693, 0.982160277692039, -0.5], [2.53277602257719, 1, -0.40739529029405575], [5.859786836202429, 0.7454580014518161, 0.28309038694394634], [0, 1, -0.5], [0, 1, -0.5], [2.6301644435143485, 1, -0.5], [0, 0.28745839317992183, -0.5], [4.038409429764766, 1, -0.5], [1.873556298476347, 1, -0.5], [1.9658941435906812, 1, -0.5]]",21.00365815162659
20,20,0.6846087929275533,"[[1.9463290688293693, 0.982160277692039, -0.5], [2.53277602257719, 1, -0.40739529029405575], [5.859786836202429, 0.7454580014518161, 0.28309038694394634], [0, 1, -0.5], [0, 1, -0.5], [2.6301644435143485, 1, -0.5], [0, 0.28745839317992183, -0.5], [4.038409429764766, 1, -0.5], [1.873556298476347, 1, -0.5], [1.9658941435906812, 1, -0.5]]",22.053841059207915
21,21,0.6846087929275533,"[[1.9463290688293693, 0.982160277692039, -0.5], [2.53277602257719, 1, -0.40739529029405575], [5.859786836202429, 0.7454580014518161, 0.28309038694394634], [0, 1, -0.5], [0, 1, -0.5], [2.6301644435143485, 1, -0.5], [0, 0.28745839317992183, -0.5], [4.038409429764766, 1, -0.5], [1.873556298476347, 1, -0.5], [1.9658941435906812, 1, -0.5]]",23.104023966789246
22,22,0.6846087929275533,"[[1.9463290688293693, 0.982160277692039, -0.5], [2.53277602257719, 1, -0.40739529029405575], [5.859786836202429, 0.7454580014518161, 0.28309038694394634], [0, 1, -0.5], [0, 1, -0.5], [2.6301644435143485, 1, -0.5], [0, 0.28745839317992183, -0.5], [4.038409429764766, 1, -0.5], [1.873556298476347, 1, -0.5], [1.9658941435906812, 1, -0.5]]",24.154206874370576
23,23,0.6846087929275533,"[[1.9463290688293693, 0.982160277692039, -0.5], [2.53277602257719, 1, -0.40739529029405575], [5.859786836202429, 0.7454580014518161, 0.28309038694394634], [0, 1, -0.5], [0, 1, -0.5], [2.6301644435143485, 1, -0.5], [0, 0.28745839317992183, -0.5], [4.038409429764766, 1, -0.5], [1.873556298476347, 1, -0.5], [1.9658941435906812, 1, -0.5]]",25.204389781951903
24,24,0.6846087929275533,"[[1.9463290688293693, 0.982160277692039, -0.5], [2.53277602257719, 1, -0.40739529029405575], [5.859786836202429, 0.7454580014518161, 0.28309038694394634], [0, 1, -0.5], [0, 1, -0.5], [2.6301644435143485, 1, -0.5], [0, 0.28745839317992183, -0.5], [4.038409429764766, 1, -0.5], [1.873556298476347, 1, -0.5], [1.9658941435906812, 1, -0.5]]",26.254572689533234
25,25,0.6870701794233972,"[[0, 0.9793198198146299, -0.5], [0, 1, 0.1291443743577817], [2.5823758685751734, 1, -0.5], [2.982856543339814, 1, -0.5], [1.490594550179189, 1, -0.5], [2.6301644435143485, 1, -0.5], [0, 1, -0.5], [1.4882570923118834, 1, -0.5], [0, 1, -0.35340715561715574], [0, 0.5299555628794141, -0.5]]",27.304755597114564
26,26,0.6870701794233972,"[[0, 0.9793198198146299, -0.5], [0, 1, 0.1291443743577817], [2.5823758685751734, 1, -0.5], [2.982856543339814, 1, -0.5], [1.490594550179189, 1, -0.5], [2.6301644435143485, 1, -0.5], [0, 1, -0.5], [1.4882570923118834, 1, -0.5], [0, 1, -0.35340715561715574], [0, 0.5299555628794141, -0.5]]",28.35493850469589
27,27,0.6870701794233972,"[[0, 0.9793198198146299, -0.5], [0, 1, 0.1291443743577817], [2.5823758685751734, 1, -0.5], [2.982856543339814, 1, -0.5], [1.490594550179189, 1, -0.5], [2.6301644435143485, 1, -0.5], [0, 1, -0.5], [1.4882570923118834, 1, -0.5], [0, 1, -0.35340715561715574], [0, 0.5299555628794141, -0.5]]",29.40512141227722
28,28,0.6927082519701492,"[[2.7821052649540867, 1, -0.5], [0, 0.8594904920140358, -0.49118532846528573], [0, 1, -0.4953624000197858], [0, 0.9655191359567105, -0.44118855165569787], [2.904097228922054, 1, 0.5], [6.364656277409717, 1, -0.5], [0, 1, -0.5], [6.028883373512336, 1, -0.5], [4.048460401522307, 1, -0.5], [5.453685254318481, 1, -0.023844074515003283]]",30.455304319858552
29,29,0.7084297513878784,"[[0, 0.9052453383857725, -0.5], [0, 0.8594904920140358, -0.49118532846528573], [0, 1, 0.04209836572511666], [0, 1, -0.308352821168858], [0, 0.7189217998974691, -0.5], [2.6301644435143485, 1, -0.5], [0, 0.28745839317992183, -0.5], [7.384762502310858, 1, -0.4350506815762141], [4.048460401522307, 1, -0.5], [5.453685254318481, 1, -0.023844074515003283]]",31.50548722743988
30,30,0.7084297513878784,"[[0, 0.9052453383857725, -0.5], [0, 0.8594904920140358, -0.49118532846528573], [0, 1, 0.04209836572511666], [0, 1, -0.308352821168858], [0, 0.7189217998974691, -0.5], [2.6301644435143485, 1, -0.5], [0, 0.28745839317992183, -0.5], [7.384762502310858, 1, -0.4350506815762141], [4.048460401522307, 1, -0.5], [5.453685254318481, 1, -0.023844074515003283]]",32.55567013502121
31,31,0.7084297513878784,"[[0, 0.9052453383857725, -0.5], [0, 0.8594904920140358, -0.49118532846528573], [0, 1, 0.04209836572511666], [0, 1, -0.308352821168858], [0, 0.7189217998974691, -0.5], [2.6301644435143485, 1, -0.5], [0, 0.28745839317992183, -0.5], [7.384762502310858, 1, -0.4350506815762141], [4.048460401522307, 1, -0.5], [5.453685254318481, 1, -0.023844074515003283]]",33.60585304260254
32,32,0.7084297513878784,"[[0, 0.9052453383857725, -0.5], [0, 0.8594904920140358, -0.49118532846528573], [0, 1, 0.04209836572511666], [0, 1, -0.308352821168858], [0, 0.7189217998974691, -0.5], [2.6301644435143485, 1, -0.5], [0, 0.28745839317992183, -0.5], [7.384762502310858, 1, -0.4350506815762141], [4.048460401522307, 1, -0.5], [5.453685254318481, 1, -0.023844074515003283]]",34.65603595018387
33,33,0.7084297513878784,"[[0, 0.9052453383857725, -0.5], [0, 0.8594904920140358, -0.49118532846528573], [0, 1, 0.04209836572511666], [0, 1, -0.308352821168858], [0, 0.7189217998974691, -0.5], [2.6301644435143485, 1, -0.5], [0, 0.28745839317992183, -0.5], [7.384762502310858, 1, -0.4350506815762141], [4.048460401522307, 1, -0.5], [5.453685254318481, 1, -0.023844074515003283]]",35.7062188577652
34,34,0.7084297513878784,"[[0, 0.9052453383857725, -0.5], [0, 0.8594904920140358, -0.49118532846528573], [0, 1, 0.04209836572511666], [0, 1, -0.308352821168858], [0, 0.7189217998974691, -0.5], [2.6301644435143485, 1, -0.5], [0, 0.28745839317992183, -0.5], [7.384762502310858, 1, -0.4350506815762141], [4.048460401522307, 1, -0.5], [5.453685254318481, 1, -0.023844074515003283]]",36.756401765346524
35,35,0.7084297513878784,"[[0, 0.9052453383857725, -0.5], [0, 0.8594904920140358, -0.49118532846528573], [0, 1, 0.04209836572511666], [0, 1, -0.308352821168858], [0, 0.7189217998974691, -0.5], [2.6301644435143485, 1, -0.5], [0, 0.28745839317992183, -0.5], [7.384762502310858, 1, -0.4350506815762141], [4.048460401522307, 1, -0.5], [5.453685254318481, 1, -0.023844074515003283]]",37.806584672927855
36,36,0.7084297513878784,"[[0, 0.9052453383857725, -0.5], [0, 0.8594904920140358, -0.49118532846528573], [0, 1, 0.04209836572511666], [0, 1, -0.308352821168858], [0, 0.7189217998974691, -0.5], [2.6301644435143485, 1, -0.5], [0, 0.28745839317992183, -0.5], [7.384762502310858, 1, -0.4350506815762141], [4.048460401522307, 1, -0.5], [5.453685254318481, 1, -0.023844074515003283]]",38.856767580509185
37,37,0.7084297513878784,"[[0, 0.9052453383857725, -0.5], [0, 0.8594904920140358, -0.49118532846528573], [0, 1, 0.04209836572511666], [0, 1, -0.308352821168858], [0, 0.7189217998974691, -0.5], [2.6301644435143485, 1, -0.5], [0, 0.28745839317992183, -0.5], [7.384762502310858, 1, -0.4350506815762141], [4.048460401522307, 1, -0.5], [5.453685254318481, 1, -0.023844074515003283]]",39.906950488090516
38,38,0.7084297513878784,"[[0, 0.9052453383857725, -0.5], [0, 0.8594904920140358, -0.49118532846528573], [0, 1, 0.04209836572511666], [0, 1, -0.308352821168858], [0, 0.7189217998974691, -0.5], [2.6301644435143485, 1, -0.5], [0, 0.28745839317992183, -0.5], [7.384762502310858, 1, -0.4350506815762141], [4.048460401522307, 1, -0.5], [5.453685254318481, 1, -0.023844074515003283]]",40.957133395671846
39,39,0.7084297513878784,"[[0, 0.9052453383857725, -0.5], [0, 0.8594904920140358, -0.49118532846528573], [0, 1, 0.04209836572511666], [0, 1, -0.308352821168858], [0, 0.7189217998974691, -0.5], [2.6301644435143485, 1, -0.5], [0, 0.28745839317992183, -0.5], [7.384762502310858, 1, -0.4350506815762141], [4.048460401522307, 1, -0.5], [5.453685254318481, 1, -0.023844074515003283]]",42.00731630325318
40,40,0.7084297513878784,"[[0, 0.9052453383857725, -0.5], [0, 0.8594904920140358, -0.49118532846528573], [0, 1, 0.04209836572511666], [0, 1, -0.308352821168858], [0, 0.7189217998974691, -0.5], [2.6301644435143485, 1, -0.5], [0, 0.28745839317992183, -0.5], [7.384762502310858, 1, -0.4350506815762141], [4.048460401522307, 1, -0.5], [5.453685254318481, 1, -0.023844074515003283]]",43.0574992108345
41,41,0.7084297513878784,"[[0, 0.9052453383857725, -0.5], [0, 0.8594904920140358, -0.49118532846528573], [0, 1, 0.04209836572511666], [0, 1, -0.308352821168858], [0, 0.7189217998974691, -0.5], [2.6301644435143485, 1, -0.5], [0, 0.28745839317992183, -0.5], [7.384762502310858, 1, -0.4350506815762141], [4.048460401522307, 1, -0.5], [5.453685254318481, 1, -0.023844074515003283]]",44.10768211841583
42,42,0.7084297513878784,"[[0, 0.9052453383857725, -0.5], [0, 0.8594904920140358, -0.49118532846528573], [0, 1, 0.04209836572511666], [0, 1, -0.308352821168858], [0, 0.7189217998974691, -0.5], [2.6301644435143485, 1, -0.5], [0, 0.28745839317992183, -0.5], [7.384762502310858, 1, -0.4350506815762141], [4.048460401522307, 1, -0.5], [5.453685254318481, 1, -0.023844074515003283]]",45.15786502599716
43,43,0.7084297513878784,"[[0, 0.9052453383857725, -0.5], [0, 0.8594904920140358, -0.49118532846528573], [0, 1, 0.04209836572511666], [0, 1, -0.308352821168858], [0, 0.7189217998974691, -0.5], [2.6301644435143485, 1, -0.5], [0, 0.28745839317992183, -0.5], [7.384762502310858, 1, -0.4350506815762141], [4.048460401522307, 1, -0.5], [5.453685254318481, 1, -0.023844074515003283]]",46.20804793357849
44,44,0.7084297513878784,"[[0, 0.9052453383857725, -0.5], [0, 0.8594904920140358, -0.49118532846528573], [0, 1, 0.04209836572511666], [0, 1, -0.308352821168858], [0, 0.7189217998974691, -0.5], [2.6301644435143485, 1, -0.5], [0, 0.28745839317992183, -0.5], [7.384762502310858, 1, -0.4350506815762141], [4.048460401522307, 1, -0.5], [5.453685254318481, 1, -0.023844074515003283]]",47.25823084115982
45,45,0.7084297513878784,"[[0, 0.9052453383857725, -0.5], [0, 0.8594904920140358, -0.49118532846528573], [0, 1, 0.04209836572511666], [0, 1, -0.308352821168858], [0, 0.7189217998974691, -0.5], [2.6301644435143485, 1, -0.5], [0, 0.28745839317992183, -0.5], [7.384762502310858, 1, -0.4350506815762141], [4.048460401522307, 1, -0.5], [5.453685254318481, 1, -0.023844074515003283]]",48.30841374874115
46,46,0.7084297513878784,"[[0, 0.9052453383857725, -0.5], [0, 0.8594904920140358, -0.49118532846528573], [0, 1, 0.04209836572511666], [0, 1, -0.308352821168858], [0, 0.7189217998974691, -0.5], [2.6301644435143485, 1, -0.5], [0, 0.28745839317992183, -0.5], [7.384762502310858, 1, -0.4350506815762141], [4.048460401522307, 1, -0.5], [5.453685254318481, 1, -0.023844074515003283]]",49.358596656322476
47,47,0.7203644238815546,"[[1.9463290688293693, 0.982160277692039, -0.5], [0, 0.8020580639712477, -0.5], [2.1341330749314453, 1, -0.5], [0, 1, -0.44118855165569787], [1.490594550179189, 1, -0.5], [0, 0.6990403304022981, -0.5], [1.67941876556595, 1, -0.5], [7.384762502310858, 1, -0.4350506815762141], [1.5661244625879087, 1, -0.5], [5.453685254318481, 1, -0.023844074515003283]]",50.408779563903806
48,48,0.7203644238815546,"[[1.9463290688293693, 0.982160277692039, -0.5], [0, 0.8020580639712477, -0.5], [2.1341330749314453, 1, -0.5], [0, 1, -0.44118855165569787], [1.490594550179189, 1, -0.5], [0, 0.6990403304022981, -0.5], [1.67941876556595, 1, -0.5], [7.384762502310858, 1, -0.4350506815762141], [1.5661244625879087, 1, -0.5], [5.453685254318481, 1, -0.023844074515003283]]",51.45896247148514
49,49,0.7203644238815546,"[[1.9463290688293693, 0.982160277692039, -0.5], [0, 0.8020580639712477, -0.5], [2.1341330749314453, 1, -0.5], [0, 1, -0.44118855165569787], [1.490594550179189, 1, -0.5], [0, 0.6990403304022981, -0.5], [1.67941876556595, 1, -0.5], [7.384762502310858, 1, -0.4350506815762141], [1.5661244625879087, 1, -0.5], [5.453685254318481, 1, -0.023844074515003283]]",52.50914537906647
50,50,0.7203644238815546,"[[1.9463290688293693, 0.982160277692039, -0.5], [0, 0.8020580639712477, -0.5], [2.1341330749314453, 1, -0.5], [0, 1, -0.44118855165569787], [1.490594550179189, 1, -0.5], [0, 0.6990403304022981, -0.5], [1.67941876556595, 1, -0.5], [7.384762502310858, 1, -0.4350506815762141], [1.5661244625879087, 1, -0.5], [5.453685254318481, 1, -0.023844074515003283]]",53.5593282866478
51,51,0.7203644238815546,"[[1.9463290688293693, 0.982160277692039, -0.5], [0, 0.8020580639712477, -0.5], [2.1341330749314453, 1, -0.5], [0, 1, -0.44118855165569787], [1.490594550179189, 1, -0.5], [0, 0.6990403304022981, -0.5], [1.67941876556595, 1, -0.5], [7.384762502310858, 1, -0.4350506815762141], [1.5661244625879087, 1, -0.5], [5.453685254318481, 1, -0.023844074515003283]]",54.60951119422913
52,52,0.7203644238815546,"[[1.9463290688293693, 0.982160277692039, -0.5], [0, 0.8020580639712477, -0.5], [2.1341330749314453, 1, -0.5], [0, 1, -0.44118855165569787], [1.490594550179189, 1, -0.5], [0, 0.6990403304022981, -0.5], [1.67941876556595, 1, -0.5], [7.384762502310858, 1, -0.4350506815762141], [1.5661244625879087, 1, -0.5], [5.453685254318481, 1, -0.023844074515003283]]",55.65969410181046
53,53,0.7203644238815546,"[[1.9463290688293693, 0.982160277692039, -0.5], [0, 0.8020580639712477, -0.5], [2.1341330749314453, 1, -0.5], [0, 1, -0.44118855165569787], [1.490594550179189, 1, -0.5], [0, 0.6990403304022981, -0.5], [1.67941876556595, 1, -0.5], [7.384762502310858, 1, -0.4350506815762141], [1.5661244625879087, 1, -0.5], [5.453685254318481, 1, -0.023844074515003283]]",56.70987700939178
54,54,0.7203644238815546,"[[1.9463290688293693, 0.982160277692039, -0.5], [0, 0.8020580639712477, -0.5], [2.1341330749314453, 1, -0.5], [0, 1, -0.44118855165569787], [1.490594550179189, 1, -0.5], [0, 0.6990403304022981, -0.5], [1.67941876556595, 1, -0.5], [7.384762502310858, 1, -0.4350506815762141], [1.5661244625879087, 1, -0.5], [5.453685254318481, 1, -0.023844074515003283]]",57.76005991697311
55,55,0.7203644238815546,"[[1.9463290688293693, 0.982160277692039, -0.5], [0, 0.8020580639712477, -0.5], [2.1341330749314453, 1, -0.5], [0, 1, -0.44118855165569787], [1.490594550179189, 1, -0.5], [0, 0.6990403304022981, -0.5], [1.67941876556595, 1, -0.5], [7.384762502310858, 1, -0.4350506815762141], [1.5661244625879087, 1, -0.5], [5.453685254318481, 1, -0.023844074515003283]]",58.81024282455444
56,56,0.7203644238815546,"[[1.9463290688293693, 0.982160277692039, -0.5], [0, 0.8020580639712477, -0.5], [2.1341330749314453, 1, -0.5], [0, 1, -0.44118855165569787], [1.490594550179189, 1, -0.5], [0, 0.6990403304022981, -0.5], [1.67941876556595, 1, -0.5], [7.384762502310858, 1, -0.4350506815762141], [1.5661244625879087, 1, -0.5], [5.453685254318481, 1, -0.023844074515003283]]",59.860425732135774
57,57,0.7203644238815546,"[[1.9463290688293693, 0.982160277692039, -0.5], [0, 0.8020580639712477, -0.5], [2.1341330749314453, 1, -0.5], [0, 1, -0.44118855165569787], [1.490594550179189, 1, -0.5], [0, 0.6990403304022981, -0.5], [1.67941876556595, 1, -0.5], [7.384762502310858, 1, -0.4350506815762141], [1.5661244625879087, 1, -0.5], [5.453685254318481, 1, -0.023844074515003283]]",60.910608639717104
58,58,0.7203644238815546,"[[1.9463290688293693, 0.982160277692039, -0.5], [0, 0.8020580639712477, -0.5], [2.1341330749314453, 1, -0.5], [0, 1, -0.44118855165569787], [1.490594550179189, 1, -0.5], [0, 0.6990403304022981, -0.5], [1.67941876556595, 1, -0.5], [7.384762502310858, 1, -0.4350506815762141], [1.5661244625879087, 1, -0.5], [5.453685254318481, 1, -0.023844074515003283]]",61.960791547298435
59,59,0.7203644238815546,"[[1.9463290688293693, 0.982160277692039, -0.5], [0, 0.8020580639712477, -0.5], [2.1341330749314453, 1, -0.5], [0, 1, -0.44118855165569787], [1.490594550179189, 1, -0.5], [0, 0.6990403304022981, -0.5], [1.67941876556595, 1, -0.5], [7.384762502310858, 1, -0.4350506815762141], [1.5661244625879087, 1, -0.5], [5.453685254318481, 1, -0.023844074515003283]]",63.01097445487976
60,60,0.7203644238815546,"[[1.9463290688293693, 0.982160277692039, -0.5], [0, 0.8020580639712477, -0.5], [2.1341330749314453, 1, -0.5], [0, 1, -0.44118855165569787], [1.490594550179189, 1, -0.5], [0, 0.6990403304022981, -0.5], [1.67941876556595, 1, -0.5], [7.384762502310858, 1, -0.4350506815762141], [1.5661244625879087, 1, -0.5], [5.453685254318481, 1, -0.023844074515003283]]",64.06115736246109
61,61,0.7203644238815546,"[[1.9463290688293693, 0.982160277692039, -0.5], [0, 0.8020580639712477, -0.5], [2.1341330749314453, 1, -0.5], [0, 1, -0.44118855165569787], [1.490594550179189, 1, -0.5], [0, 0.6990403304022981, -0.5], [1.67941876556595, 1, -0.5], [7.384762502310858, 1, -0.4350506815762141], [1.5661244625879087, 1, -0.5], [5.453685254318481, 1, -0.023844074515003283]]",65.11134027004242
62,62,0.7203644238815546,"[[1.9463290688293693, 0.982160277692039, -0.5], [0, 0.8020580639712477, -0.5], [2.1341330749314453, 1, -0.5], [0, 1, -0.44118855165569787], [1.490594550179189, 1, -0.5], [0, 0.6990403304022981, -0.5], [1.67941876556595, 1, -0.5], [7.384762502310858, 1, -0.4350506815762141], [1.5661244625879087, 1, -0.5], [5.453685254318481, 1, -0.023844074515003283]]",66.16152317762375
63,63,0.7203644238815546,"[[1.9463290688293693, 0.982160277692039, -0.5], [0, 0.8020580639712477, -0.5], [2.1341330749314453, 1, -0.5], [0, 1, -0.44118855165569787], [1.490594550179189, 1, -0.5], [0, 0.6990403304022981, -0.5], [1.67941876556595, 1, -0.5], [7.384762502310858, 1, -0.4350506815762141], [1.5661244625879087, 1, -0.5], [5.453685254318481, 1, -0.023844074515003283]]",67.21170608520508
64,64,0.7203644238815546,"[[1.9463290688293693, 0.982160277692039, -0.5], [0, 0.8020580639712477, -0.5], [2.1341330749314453, 1, -0.5], [0, 1, -0.44118855165569787], [1.490594550179189, 1, -0.5], [0, 0.6990403304022981, -0.5], [1.67941876556595, 1, -0.5], [7.384762502310858, 1, -0.4350506815762141], [1.5661244625879087, 1, -0.5], [5.453685254318481, 1, -0.023844074515003283]]",68.26188899278641
65,65,0.7203644238815546,"[[1.9463290688293693, 0.982160277692039, -0.5], [0, 0.8020580639712477, -0.5], [2.1341330749314453, 1, -0.5], [0, 1, -0.44118855165569787], [1.490594550179189, 1, -0.5], [0, 0.6990403304022981, -0.5], [1.67941876556595, 1, -0.5], [7.384762502310858, 1, -0.4350506815762141], [1.5661244625879087, 1, -0.5], [5.453685254318481, 1, -0.023844074515003283]]",69.31207190036774
66,66,0.7203644238815546,"[[1.9463290688293693, 0.982160277692039, -0.5], [0, 0.8020580639712477, -0.5], [2.1341330749314453, 1, -0.5], [0, 1, -0.44118855165569787], [1.490594550179189, 1, -0.5], [0, 0.6990403304022981, -0.5], [1.67941876556595, 1, -0.5], [7.384762502310858, 1, -0.4350506815762141], [1.5661244625879087, 1, -0.5], [5.453685254318481, 1, -0.023844074515003283]]",70.36225480794907
67,67,0.7203644238815546,"[[1.9463290688293693, 0.982160277692039, -0.5], [0, 0.8020580639712477, -0.5], [2.1341330749314453, 1, -0.5], [0, 1, -0.44118855165569787], [1.490594550179189, 1, -0.5], [0, 0.6990403304022981, -0.5], [1.67941876556595, 1, -0.5], [7.384762502310858, 1, -0.4350506815762141], [1.5661244625879087, 1, -0.5], [5.453685254318481, 1, -0.023844074515003283]]",71.4124377155304
68,68,0.7203644238815546,"[[1.9463290688293693, 0.982160277692039, -0.5], [0, 0.8020580639712477, -0.5], [2.1341330749314453, 1, -0.5], [0, 1, -0.44118855165569787], [1.490594550179189, 1, -0.5], [0, 0.6990403304022981, -0.5], [1.67941876556595, 1, -0.5], [7.384762502310858, 1, -0.4350506815762141], [1.5661244625879087, 1, -0.5], [5.453685254318481, 1, -0.023844074515003283]]",72.46262062311172
69,69,0.7203644238815546,"[[1.9463290688293693, 0.982160277692039, -0.5], [0, 0.8020580639712477, -0.5], [2.1341330749314453, 1, -0.5], [0, 1, -0.44118855165569787], [1.490594550179189, 1, -0.5], [0, 0.6990403304022981, -0.5], [1.67941876556595, 1, -0.5], [7.384762502310858, 1, -0.4350506815762141], [1.5661244625879087, 1, -0.5], [5.453685254318481, 1, -0.023844074515003283]]",73.51280353069305
70,70,0.7203644238815546,"[[1.9463290688293693, 0.982160277692039, -0.5], [0, 0.8020580639712477, -0.5], [2.1341330749314453, 1, -0.5], [0, 1, -0.44118855165569787], [1.490594550179189, 1, -0.5], [0, 0.6990403304022981, -0.5], [1.67941876556595, 1, -0.5], [7.384762502310858, 1, -0.4350506815762141], [1.5661244625879087, 1, -0.5], [5.453685254318481, 1, -0.023844074515003283]]",74.56298643827438
71,71,0.7203644238815546,"[[1.9463290688293693, 0.982160277692039, -0.5], [0, 0.8020580639712477, -0.5], [2.1341330749314453, 1, -0.5], [0, 1, -0.44118855165569787], [1.490594550179189, 1, -0.5], [0, 0.6990403304022981, -0.5], [1.67941876556595, 1, -0.5], [7.384762502310858, 1, -0.4350506815762141], [1.5661244625879087, 1, -0.5], [5.453685254318481, 1, -0.023844074515003283]]",75.61316934585571
72,72,0.7203644238815546,"[[1.9463290688293693, 0.982160277692039, -0.5], [0, 0.8020580639712477, -0.5], [2.1341330749314453, 1, -0.5], [0, 1, -0.44118855165569787], [1.490594550179189, 1, -0.5], [0, 0.6990403304022981, -0.5], [1.67941876556595, 1, -0.5], [7.384762502310858, 1, -0.4350506815762141], [1.5661244625879087, 1, -0.5], [5.453685254318481, 1, -0.023844074515003283]]",76.66335225343704
73,73,0.7203644238815546,"[[1.9463290688293693, 0.982160277692039, -0.5], [0, 0.8020580639712477, -0.5], [2.1341330749314453, 1, -0.5], [0, 1, -0.44118855165569787], [1.490594550179189, 1, -0.5], [0, 0.6990403304022981, -0.5], [1.67941876556595, 1, -0.5], [7.384762502310858, 1, -0.4350506815762141], [1.5661244625879087, 1, -0.5], [5.453685254318481, 1, -0.023844074515003283]]",77.71353516101837
74,74,0.7203644238815546,"[[1.9463290688293693, 0.982160277692039, -0.5], [0, 0.8020580639712477, -0.5], [2.1341330749314453, 1, -0.5], [0, 1, -0.44118855165569787], [1.490594550179189, 1, -0.5], [0, 0.6990403304022981, -0.5], [1.67941876556595, 1, -0.5], [7.384762502310858, 1, -0.4350506815762141], [1.5661244625879087, 1, -0.5], [5.453685254318481, 1, -0.023844074515003283]]",78.7637180685997
75,75,0.7203644238815546,"[[1.9463290688293693, 0.982160277692039, -0.5], [0, 0.8020580639712477, -0.5], [2.1341330749314453, 1, -0.5], [0, 1, -0.44118855165569787], [1.490594550179189, 1, -0.5], [0, 0.6990403304022981, -0.5], [1.67941876556595, 1, -0.5], [7.384762502310858, 1, -0.4350506815762141], [1.5661244625879087, 1, -0.5], [5.453685254318481, 1, -0.023844074515003283]]",79.81390097618103
76,76,0.7203644238815546,"[[1.9463290688293693, 0.982160277692039, -0.5], [0, 0.8020580639712477, -0.5], [2.1341330749314453, 1, -0.5], [0, 1, -0.44118855165569787], [1.490594550179189, 1, -0.5], [0, 0.6990403304022981, -0.5], [1.67941876556595, 1, -0.5], [7.384762502310858, 1, -0.4350506815762141], [1.5661244625879087, 1, -0.5], [5.453685254318481, 1, -0.023844074515003283]]",80.86408388376236
77,77,0.7203644238815546,"[[1.9463290688293693, 0.982160277692039, -0.5], [0, 0.8020580639712477, -0.5], [2.1341330749314453, 1, -0.5], [0, 1, -0.44118855165569787], [1.490594550179189, 1, -0.5], [0, 0.6990403304022981, -0.5], [1.67941876556595, 1, -0.5], [7.384762502310858, 1, -0.4350506815762141], [1.5661244625879087, 1, -0.5], [5.453685254318481, 1, -0.023844074515003283]]",81.91426679134369
78,78,0.7203644238815546,"[[1.9463290688293693, 0.982160277692039, -0.5], [0, 0.8020580639712477, -0.5], [2.1341330749314453, 1, -0.5], [0, 1, -0.44118855165569787], [1.490594550179189, 1, -0.5], [0, 0.6990403304022981, -0.5], [1.67941876556595, 1, -0.5], [7.384762502310858, 1, -0.4350506815762141], [1.5661244625879087, 1, -0.5], [5.453685254318481, 1, -0.023844074515003283]]",82.96444969892502
79,79,0.7203644238815546,"[[1.9463290688293693, 0.982160277692039, -0.5], [0, 0.8020580639712477, -0.5], [2.1341330749314453, 1, -0.5], [0, 1, -0.44118855165569787], [1.490594550179189, 1, -0.5], [0, 0.6990403304022981, -0.5], [1.67941876556595, 1, -0.5], [7.384762502310858, 1, -0.4350506815762141], [1.5661244625879087, 1, -0.5], [5.453685254318481, 1, -0.023844074515003283]]",84.01463260650635
80,80,0.7203644238815546,"[[1.9463290688293693, 0.982160277692039, -0.5], [0, 0.8020580639712477, -0.5], [2.1341330749314453, 1, -0.5], [0, 1, -0.44118855165569787], [1.490594550179189, 1, -0.5], [0, 0.6990403304022981, -0.5], [1.67941876556595, 1, -0.5], [7.384762502310858, 1, -0.4350506815762141], [1.5661244625879087, 1, -0.5], [5.453685254318481, 1, -0.023844074515003283]]",85.06481551408768
81,81,0.7203644238815546,"[[1.9463290688293693, 0.982160277692039, -0.5], [0, 0.8020580639712477, -0.5], [2.1341330749314453, 1, -0.5], [0, 1, -0.44118855165569787], [1.490594550179189, 1, -0.5], [0, 0.6990403304022981, -0.5], [1.67941876556595, 1, -0.5], [7.384762502310858, 1, -0.4350506815762141], [1.5661244625879087, 1, -0.5], [5.453685254318481, 1, -0.023844074515003283]]",86.114998421669
82,82,0.7203644238815546,"[[1.9463290688293693, 0.982160277692039, -0.5], [0, 0.8020580639712477, -0.5], [2.1341330749314453, 1, -0.5], [0, 1, -0.44118855165569787], [1.490594550179189, 1, -0.5], [0, 0.6990403304022981, -0.5], [1.67941876556595, 1, -0.5], [7.384762502310858, 1, -0.4350506815762141], [1.5661244625879087, 1, -0.5], [5.453685254318481, 1, -0.023844074515003283]]",87.16518132925033
83,83,0.7203644238815546,"[[1.9463290688293693, 0.982160277692039, -0.5], [0, 0.8020580639712477, -0.5], [2.1341330749314453, 1, -0.5], [0, 1, -0.44118855165569787], [1.490594550179189, 1, -0.5], [0, 0.6990403304022981, -0.5], [1.67941876556595, 1, -0.5], [7.384762502310858, 1, -0.4350506815762141], [1.5661244625879087, 1, -0.5], [5.453685254318481, 1, -0.023844074515003283]]",88.21536423683166
84,84,0.7203644238815546,"[[1.9463290688293693, 0.982160277692039, -0.5], [0, 0.8020580639712477, -0.5], [2.1341330749314453, 1, -0.5], [0, 1, -0.44118855165569787], [1.490594550179189, 1, -0.5], [0, 0.6990403304022981, -0.5], [1.67941876556595, 1, -0.5], [7.384762502310858, 1, -0.4350506815762141], [1.5661244625879087, 1, -0.5], [5.453685254318481, 1, -0.023844074515003283]]",89.26554714441299
85,85,0.7203644238815546,"[[1.9463290688293693, 0.982160277692039, -0.5], [0, 0.8020580639712477, -0.5], [2.1341330749314453, 1, -0.5], [0, 1, -0.44118855165569787], [1.490594550179189, 1, -0.5], [0, 0.6990403304022981, -0.5], [1.67941876556595, 1, -0.5], [7.384762502310858, 1, -0.4350506815762141], [1.5661244625879087, 1, -0.5], [5.453685254318481, 1, -0.023844074515003283]]",90.31573005199432
86,86,0.7203644238815546,"[[1.9463290688293693, 0.982160277692039, -0.5], [0, 0.8020580639712477, -0.5], [2.1341330749314453, 1, -0.5], [0, 1, -0.44118855165569787], [1.490594550179189, 1, -0.5], [0, 0.6990403304022981, -0.5], [1.67941876556595, 1, -0.5], [7.384762502310858, 1, -0.4350506815762141], [1.5661244625879087, 1, -0.5], [5.453685254318481, 1, -0.023844074515003283]]",91.36591295957565
87,87,0.7203644238815546,"[[1.9463290688293693, 0.982160277692039, -0.5], [0, 0.8020580639712477, -0.5], [2.1341330749314453, 1, -0.5], [0, 1, -0.44118855165569787], [1.490594550179189, 1, -0.5], [0, 0.6990403304022981, -0.5], [1.67941876556595, 1, -0.5], [7.384762502310858, 1, -0.4350506815762141], [1.5661244625879087, 1, -0.5], [5.453685254318481, 1, -0.023844074515003283]]",92.41609586715698
88,88,0.7203644238815546,"[[1.9463290688293693, 0.982160277692039, -0.5], [0, 0.8020580639712477, -0.5], [2.1341330749314453, 1, -0.5], [0, 1, -0.44118855165569787], [1.490594550179189, 1, -0.5], [0, 0.6990403304022981, -0.5], [1.67941876556595, 1, -0.5], [7.384762502310858, 1, -0.4350506815762141], [1.5661244625879087, 1, -0.5], [5.453685254318481, 1, -0.023844074515003283]]",93.46627877473831
89,89,0.7203644238815546,"[[1.9463290688293693, 0.982160277692039, -0.5], [0, 0.8020580639712477, -0.5], [2.1341330749314453, 1, -0.5], [0, 1, -0.44118855165569787], [1.490594550179189, 1, -0.5], [0, 0.6990403304022981, -0.5], [1.67941876556595, 1, -0.5], [7.384762502310858, 1, -0.4350506815762141], [1.5661244625879087, 1, -0.5], [5.453685254318481, 1, -0.023844074515003283]]",94.51646168231964
90,90,0.7203644238815546,"[[1.9463290688293693, 0.982160277692039, -0.5], [0, 0.8020580639712477, -0.5], [2.1341330749314453, 1, -0.5], [0, 1, -0.44118855165569787], [1.490594550179189, 1, -0.5], [0, 0.6990403304022981, -0.5], [1.67941876556595, 1, -0.5], [7.384762502310858, 1, -0.4350506815762141], [1.5661244625879087, 1, -0.5], [5.453685254318481, 1, -0.023844074515003283]]",95.56664458990097
91,91,0.7203644238815546,"[[1.9463290688293693, 0.982160277692039, -0.5], [0, 0.8020580639712477, -0.5], [2.1341330749314453, 1, -0.5], [0, 1, -0.44118855165569787], [1.490594550179189, 1, -0.5], [0, 0.6990403304022981, -0.5], [1.67941876556595, 1, -0.5], [7.384762502310858, 1, -0.4350506815762141], [1.5661244625879087, 1, -0.5], [5.453685254318481, 1, -0.023844074515003283]]",96.6168274974823
92,92,0.7203644238815546,"[[1.9463290688293693, 0.982160277692039, -0.5], [0, 0.8020580639712477, -0.5], [2.1341330749314453, 1, -0.5], [0, 1, -0.44118855165569787], [1.490594550179189, 1, -0.5], [0, 0.6990403304022981, -0.5], [1.67941876556595, 1, -0.5], [7.384762502310858, 1, -0.4350506815762141], [1.5661244625879087, 1, -0.5], [5.453685254318481, 1, -0.023844074515003283]]",97.66701040506364
93,93,0.7203644238815546,"[[1.9463290688293693, 0.982160277692039, -0.5], [0, 0.8020580639712477, -0.5], [2.1341330749314453, 1, -0.5], [0, 1, -0.44118855165569787], [1.490594550179189, 1, -0.5], [0, 0.6990403304022981, -0.5], [1.67941876556595, 1, -0.5], [7.384762502310858, 1, -0.4350506815762141], [1.5661244625879087, 1, -0.5], [5.453685254318481, 1, -0.023844074515003283]]",98.71719331264495
94,94,0.7203644238815546,"[[1.9463290688293693, 0.982160277692039, -0.5], [0, 0.8020580639712477, -0.5], [2.1341330749314453, 1, -0.5], [0, 1, -0.44118855165569787], [1.490594550179189, 1, -0.5], [0, 0.6990403304022981, -0.5], [1.67941876556595, 1, -0.5], [7.384762502310858, 1, -0.4350506815762141], [1.5661244625879087, 1, -0.5], [5.453685254318481, 1, -0.023844074515003283]]",99.76737622022628
95,95,0.7203644238815546,"[[1.9463290688293693, 0.982160277692039, -0.5], [0, 0.8020580639712477, -0.5], [2.1341330749314453, 1, -0.5], [0, 1, -0.44118855165569787], [1.490594550179189, 1, -0.5], [0, 0.6990403304022981, -0.5], [1.67941876556595, 1, -0.5], [7.384762502310858, 1, -0.4350506815762141], [1.5661244625879087, 1, -0.5], [5.453685254318481, 1, -0.023844074515003283]]",100.81755912780761
96,96,0.7203644238815546,"[[1.9463290688293693, 0.982160277692039, -0.5], [0, 0.8020580639712477, -0.5], [2.1341330749314453, 1, -0.5], [0, 1, -0.44118855165569787], [1.490594550179189, 1, -0.5], [0, 0.6990403304022981, -0.5], [1.67941876556595, 1, -0.5], [7.384762502310858, 1, -0.4350506815762141], [1.5661244625879087, 1, -0.5], [5.453685254318481, 1, -0.023844074515003283]]",101.86774203538894
97,97,0.7203644238815546,"[[1.9463290688293693, 0.982160277692039, -0.5], [0, 0.8020580639712477, -0.5], [2.1341330749314453, 1, -0.5], [0, 1, -0.44118855165569787], [1.490594550179189, 1, -0.5], [0, 0.6990403304022981, -0.5], [1.67941876556595, 1, -0.5], [7.384762502310858, 1, -0.4350506815762141], [1.5661244625879087, 1, -0.5], [5.453685254318481, 1, -0.023844074515003283]]",102.91792494297027
98,98,0.7203644238815546,"[[1.9463290688293693, 0.982160277692039, -0.5], [0, 0.8020580639712477, -0.5], [2.1341330749314453, 1, -0.5], [0, 1, -0.44118855165569787], [1.490594550179189, 1, -0.5], [0, 0.6990403304022981, -0.5], [1.67941876556595, 1, -0.5], [7.384762502310858, 1, -0.4350506815762141], [1.5661244625879087, 1, -0.5], [5.453685254318481, 1, -0.023844074515003283]]",103.9681078505516
99,99,0.7203644238815546,"[[1.9463290688293693, 0.982160277692039, -0.5], [0, 0.8020580639712477, -0.5], [2.1341330749314453, 1, -0.5], [0, 1, -0.44118855165569787], [1.490594550179189, 1, -0.5], [0, 0.6990403304022981, -0.5], [1.67941876556595, 1, -0.5], [7.384762502310858, 1, -0.4350506815762141], [1.5661244625879087, 1, -0.5], [5.453685254318481, 1, -0.023844074515003283]]",105.01829075813293
