,Generations,CCEA Fitness Values,Best_Sol,time
0,0,20.123309958827758,"[[2.512572884294988, 0.05173369404572392, 0.9295626172866138], [5.504850113609014, 0.49189296870401467, 0.4918010327673248], [1, -0.40415863031307486, 0.29526081333741744], [19.100624767459777, -0.22481119652434786, 0.26603026369800736], [13.768357300918016, -0.3217604658095944, 0.17938142862943685], [11.64896964455109, -0.08322213914910259, 0.29310306310089257], [18.89758695913865, 0.19888290507855422, 0.36564613731471124], [11.695091557821385, -0.31350902846408846, 0.040526596021782546], [4.812157406600705, 0.2690947634485833, 0], [4.081538382554334, 0.21313910717044326, 0]]",1.4020978307724
1,1,21.09522973525895,"[[2.512572884294988, 0.05173369404572392, 0.9295626172866138], [5.504850113609014, 0.49189296870401467, 0.4918010327673248], [11.785781517045422, 0.044807414264442014, 0.4388779315028924], [7.397642973795869, 0.45648574724274127, 0.4035301482874954], [1, 0.22418002149536354, 0], [1.5463263062643433, -0.06618106637096755, 0.7181986666926276], [1, 0.17283043571722598, 1], [11.034722062213842, -0.201025510698557, 0.22348315538073318], [13.589306176953489, 0.21564928659366922, 0.7683580362813143], [4.081538382554334, 0.21313910717044326, 0]]",2.8041956615448
2,2,21.09522973525895,"[[2.512572884294988, 0.05173369404572392, 0.9295626172866138], [5.504850113609014, 0.49189296870401467, 0.4918010327673248], [11.785781517045422, 0.044807414264442014, 0.4388779315028924], [7.397642973795869, 0.45648574724274127, 0.4035301482874954], [1, 0.22418002149536354, 0], [1.5463263062643433, -0.06618106637096755, 0.7181986666926276], [1, 0.17283043571722598, 1], [11.034722062213842, -0.201025510698557, 0.22348315538073318], [13.589306176953489, 0.21564928659366922, 0.7683580362813143], [4.081538382554334, 0.21313910717044326, 0]]",4.2062934923172
3,3,25.58854554768151,"[[4.006739289449088, -0.008789182444013242, 0.7049785250221597], [13.87085683246319, -0.5, 0.34285902897437587], [12.607237098855075, -0.19136245528741008, 1], [7.41972457611335, 0.1272300534201041, 0.2857473262574658], [4.52210767521904, 0.1480961937462169, 0.18666269112128345], [8.44454530371386, -0.1477499754723784, 0.1873042467968204], [18.89758695913865, 0.19888290507855422, 0.36564613731471124], [1, -0.18109835380725386, 0.20397647189137075], [7.586304310052966, -0.406630625579096, 0.6377642246327515], [19.66494770980062, -0.5, 0.3845564383525399]]",5.6083913230896
4,4,27.813757817944314,"[[4.006739289449088, -0.008789182444013242, 0.7049785250221597], [7.947136909729356, 0.32660674400535183, 0.2725973303885846], [1, -0.045908083785729914, 0.9595196661345862], [5.873847254540982, 0.15535707135989515, 1], [13.629491457637037, 0.38181028133972134, 0.33462811939852344], [7.727332081148866, 0.14070046848578643, 0.18859313530060715], [4.6157959660618015, 0.5, 0.5210839845496896], [4.14685834724772, -0.023668608978955712, 0.15142840385496742], [11.786035222341983, -0.3624601947102982, 0.47332963100015385], [1, -0.04199636565814381, 0.38737006297773235]]",7.010489153861999
5,5,27.813757817944314,"[[4.006739289449088, -0.008789182444013242, 0.7049785250221597], [7.947136909729356, 0.32660674400535183, 0.2725973303885846], [1, -0.045908083785729914, 0.9595196661345862], [5.873847254540982, 0.15535707135989515, 1], [13.629491457637037, 0.38181028133972134, 0.33462811939852344], [7.727332081148866, 0.14070046848578643, 0.18859313530060715], [4.6157959660618015, 0.5, 0.5210839845496896], [4.14685834724772, -0.023668608978955712, 0.15142840385496742], [11.786035222341983, -0.3624601947102982, 0.47332963100015385], [1, -0.04199636565814381, 0.38737006297773235]]",8.4125869846344
6,6,27.813757817944314,"[[4.006739289449088, -0.008789182444013242, 0.7049785250221597], [7.947136909729356, 0.32660674400535183, 0.2725973303885846], [1, -0.045908083785729914, 0.9595196661345862], [5.873847254540982, 0.15535707135989515, 1], [13.629491457637037, 0.38181028133972134, 0.33462811939852344], [7.727332081148866, 0.14070046848578643, 0.18859313530060715], [4.6157959660618015, 0.5, 0.5210839845496896], [4.14685834724772, -0.023668608978955712, 0.15142840385496742], [11.786035222341983, -0.3624601947102982, 0.47332963100015385], [1, -0.04199636565814381, 0.38737006297773235]]",9.8146848154068
7,7,27.813757817944314,"[[4.006739289449088, -0.008789182444013242, 0.7049785250221597], [7.947136909729356, 0.32660674400535183, 0.2725973303885846], [1, -0.045908083785729914, 0.9595196661345862], [5.873847254540982, 0.15535707135989515, 1], [13.629491457637037, 0.38181028133972134, 0.33462811939852344], [7.727332081148866, 0.14070046848578643, 0.18859313530060715], [4.6157959660618015, 0.5, 0.5210839845496896], [4.14685834724772, -0.023668608978955712, 0.15142840385496742], [11.786035222341983, -0.3624601947102982, 0.47332963100015385], [1, -0.04199636565814381, 0.38737006297773235]]",11.2167826461792
8,8,27.813757817944314,"[[4.006739289449088, -0.008789182444013242, 0.7049785250221597], [7.947136909729356, 0.32660674400535183, 0.2725973303885846], [1, -0.045908083785729914, 0.9595196661345862], [5.873847254540982, 0.15535707135989515, 1], [13.629491457637037, 0.38181028133972134, 0.33462811939852344], [7.727332081148866, 0.14070046848578643, 0.18859313530060715], [4.6157959660618015, 0.5, 0.5210839845496896], [4.14685834724772, -0.023668608978955712, 0.15142840385496742], [11.786035222341983, -0.3624601947102982, 0.47332963100015385], [1, -0.04199636565814381, 0.38737006297773235]]",12.618880476951599
9,9,27.813757817944314,"[[4.006739289449088, -0.008789182444013242, 0.7049785250221597], [7.947136909729356, 0.32660674400535183, 0.2725973303885846], [1, -0.045908083785729914, 0.9595196661345862], [5.873847254540982, 0.15535707135989515, 1], [13.629491457637037, 0.38181028133972134, 0.33462811939852344], [7.727332081148866, 0.14070046848578643, 0.18859313530060715], [4.6157959660618015, 0.5, 0.5210839845496896], [4.14685834724772, -0.023668608978955712, 0.15142840385496742], [11.786035222341983, -0.3624601947102982, 0.47332963100015385], [1, -0.04199636565814381, 0.38737006297773235]]",14.020978307723999
10,10,27.813757817944314,"[[4.006739289449088, -0.008789182444013242, 0.7049785250221597], [7.947136909729356, 0.32660674400535183, 0.2725973303885846], [1, -0.045908083785729914, 0.9595196661345862], [5.873847254540982, 0.15535707135989515, 1], [13.629491457637037, 0.38181028133972134, 0.33462811939852344], [7.727332081148866, 0.14070046848578643, 0.18859313530060715], [4.6157959660618015, 0.5, 0.5210839845496896], [4.14685834724772, -0.023668608978955712, 0.15142840385496742], [11.786035222341983, -0.3624601947102982, 0.47332963100015385], [1, -0.04199636565814381, 0.38737006297773235]]",15.423076138496398
11,11,27.813757817944314,"[[4.006739289449088, -0.008789182444013242, 0.7049785250221597], [7.947136909729356, 0.32660674400535183, 0.2725973303885846], [1, -0.045908083785729914, 0.9595196661345862], [5.873847254540982, 0.15535707135989515, 1], [13.629491457637037, 0.38181028133972134, 0.33462811939852344], [7.727332081148866, 0.14070046848578643, 0.18859313530060715], [4.6157959660618015, 0.5, 0.5210839845496896], [4.14685834724772, -0.023668608978955712, 0.15142840385496742], [11.786035222341983, -0.3624601947102982, 0.47332963100015385], [1, -0.04199636565814381, 0.38737006297773235]]",16.8251739692688
12,12,28.155627206163846,"[[6.596749616549955, -0.012217453617793944, 1], [5.504850113609014, 0.49189296870401467, 0.4918010327673248], [20, -0.11910362701333113, 0.7537250660875613], [5.873847254540982, 0.5, 0.9766534284020901], [10.92545025209855, 0.4734751910818276, 0.4423581102865787], [19.77736518656411, 0.09489661863606055, 0.04292172053265553], [9.365460697996614, 0.2617565959317151, 0.23641588289208693], [9.501092772709931, -0.37694724388012635, 0], [1, -0.08769372182765345, 0.07348785766952493], [3.2325374131437723, -0.0633193951366043, 0.789238887878664]]",18.227271800041198
13,13,28.155627206163846,"[[6.596749616549955, -0.012217453617793944, 1], [5.504850113609014, 0.49189296870401467, 0.4918010327673248], [20, -0.11910362701333113, 0.7537250660875613], [5.873847254540982, 0.5, 0.9766534284020901], [10.92545025209855, 0.4734751910818276, 0.4423581102865787], [19.77736518656411, 0.09489661863606055, 0.04292172053265553], [9.365460697996614, 0.2617565959317151, 0.23641588289208693], [9.501092772709931, -0.37694724388012635, 0], [1, -0.08769372182765345, 0.07348785766952493], [3.2325374131437723, -0.0633193951366043, 0.789238887878664]]",19.6293696308136
14,14,28.155627206163846,"[[6.596749616549955, -0.012217453617793944, 1], [5.504850113609014, 0.49189296870401467, 0.4918010327673248], [20, -0.11910362701333113, 0.7537250660875613], [5.873847254540982, 0.5, 0.9766534284020901], [10.92545025209855, 0.4734751910818276, 0.4423581102865787], [19.77736518656411, 0.09489661863606055, 0.04292172053265553], [9.365460697996614, 0.2617565959317151, 0.23641588289208693], [9.501092772709931, -0.37694724388012635, 0], [1, -0.08769372182765345, 0.07348785766952493], [3.2325374131437723, -0.0633193951366043, 0.789238887878664]]",21.031467461585997
15,15,30.871001069707564,"[[6.596749616549955, -0.012217453617793944, 1], [8.906891427737465, -0.5, 1], [1, -0.045908083785729914, 0.9595196661345862], [20, 0.22639968223478701, 1], [1, -0.29704479518730464, 0.10591250322285645], [18.994591337458132, -0.3191914086921839, 0.6952264335643494], [4.6157959660618015, 0.5, 0.5210839845496896], [9.692105174070054, -0.41080014704394396, 0], [1, -0.21304980703610082, 0.21847841683872996], [12.344909175385013, 0.1472601588148621, 0.8845230202491748]]",22.4335652923584
16,16,30.871001069707564,"[[6.596749616549955, -0.012217453617793944, 1], [8.906891427737465, -0.5, 1], [1, -0.045908083785729914, 0.9595196661345862], [20, 0.22639968223478701, 1], [1, -0.29704479518730464, 0.10591250322285645], [18.994591337458132, -0.3191914086921839, 0.6952264335643494], [4.6157959660618015, 0.5, 0.5210839845496896], [9.692105174070054, -0.41080014704394396, 0], [1, -0.21304980703610082, 0.21847841683872996], [12.344909175385013, 0.1472601588148621, 0.8845230202491748]]",23.8356631231308
17,17,31.43704977080586,"[[6.596749616549955, -0.012217453617793944, 1], [9.996546460731683, -0.47192185349832283, 0.16160570486065184], [1, -0.045908083785729914, 0.9595196661345862], [20, -0.021135221732053622, 1], [1, 0.38181028133972134, 0.9304053983731129], [3.664616944555793, 0.2933211079885879, 0.457577534021287], [4.6157959660618015, 0.5, 0.5210839845496896], [1, -0.37694724388012635, 0], [6.140629103385633, -0.08940423365836808, 0.33789940429776977], [13.539611406081498, -0.08147272410848733, 0.38461915234687416]]",25.237760953903198
18,18,31.43704977080586,"[[6.596749616549955, -0.012217453617793944, 1], [9.996546460731683, -0.47192185349832283, 0.16160570486065184], [1, -0.045908083785729914, 0.9595196661345862], [20, -0.021135221732053622, 1], [1, 0.38181028133972134, 0.9304053983731129], [3.664616944555793, 0.2933211079885879, 0.457577534021287], [4.6157959660618015, 0.5, 0.5210839845496896], [1, -0.37694724388012635, 0], [6.140629103385633, -0.08940423365836808, 0.33789940429776977], [13.539611406081498, -0.08147272410848733, 0.38461915234687416]]",26.6398587846756
19,19,31.43704977080586,"[[6.596749616549955, -0.012217453617793944, 1], [9.996546460731683, -0.47192185349832283, 0.16160570486065184], [1, -0.045908083785729914, 0.9595196661345862], [20, -0.021135221732053622, 1], [1, 0.38181028133972134, 0.9304053983731129], [3.664616944555793, 0.2933211079885879, 0.457577534021287], [4.6157959660618015, 0.5, 0.5210839845496896], [1, -0.37694724388012635, 0], [6.140629103385633, -0.08940423365836808, 0.33789940429776977], [13.539611406081498, -0.08147272410848733, 0.38461915234687416]]",28.041956615447997
20,20,31.43704977080586,"[[6.596749616549955, -0.012217453617793944, 1], [9.996546460731683, -0.47192185349832283, 0.16160570486065184], [1, -0.045908083785729914, 0.9595196661345862], [20, -0.021135221732053622, 1], [1, 0.38181028133972134, 0.9304053983731129], [3.664616944555793, 0.2933211079885879, 0.457577534021287], [4.6157959660618015, 0.5, 0.5210839845496896], [1, -0.37694724388012635, 0], [6.140629103385633, -0.08940423365836808, 0.33789940429776977], [13.539611406081498, -0.08147272410848733, 0.38461915234687416]]",29.4440544462204
21,21,32.19702004901914,"[[4.702469537496864, -0.030340409244865287, 0.9088905604743772], [16.443448446040993, -0.36887335457873704, 0.549846043766851], [1, 0.16238029956274488, 1], [1, 0.5, 1], [1, -0.17764609292612313, 0], [20, -0.5, 0.24796333902303586], [4.6157959660618015, 0.5, 0.5210839845496896], [9.501092772709931, -0.37694724388012635, 0], [1, -0.08769372182765345, 0.07348785766952493], [3.2325374131437723, -0.0633193951366043, 0.789238887878664]]",30.846152276992797
22,22,32.19702004901914,"[[4.702469537496864, -0.030340409244865287, 0.9088905604743772], [16.443448446040993, -0.36887335457873704, 0.549846043766851], [1, 0.16238029956274488, 1], [1, 0.5, 1], [1, -0.17764609292612313, 0], [20, -0.5, 0.24796333902303586], [4.6157959660618015, 0.5, 0.5210839845496896], [9.501092772709931, -0.37694724388012635, 0], [1, -0.08769372182765345, 0.07348785766952493], [3.2325374131437723, -0.0633193951366043, 0.789238887878664]]",32.248250107765195
23,23,32.19702004901914,"[[4.702469537496864, -0.030340409244865287, 0.9088905604743772], [16.443448446040993, -0.36887335457873704, 0.549846043766851], [1, 0.16238029956274488, 1], [1, 0.5, 1], [1, -0.17764609292612313, 0], [20, -0.5, 0.24796333902303586], [4.6157959660618015, 0.5, 0.5210839845496896], [9.501092772709931, -0.37694724388012635, 0], [1, -0.08769372182765345, 0.07348785766952493], [3.2325374131437723, -0.0633193951366043, 0.789238887878664]]",33.6503479385376
24,24,32.19702004901914,"[[4.702469537496864, -0.030340409244865287, 0.9088905604743772], [16.443448446040993, -0.36887335457873704, 0.549846043766851], [1, 0.16238029956274488, 1], [1, 0.5, 1], [1, -0.17764609292612313, 0], [20, -0.5, 0.24796333902303586], [4.6157959660618015, 0.5, 0.5210839845496896], [9.501092772709931, -0.37694724388012635, 0], [1, -0.08769372182765345, 0.07348785766952493], [3.2325374131437723, -0.0633193951366043, 0.789238887878664]]",35.05244576931
25,25,32.19702004901914,"[[4.702469537496864, -0.030340409244865287, 0.9088905604743772], [16.443448446040993, -0.36887335457873704, 0.549846043766851], [1, 0.16238029956274488, 1], [1, 0.5, 1], [1, -0.17764609292612313, 0], [20, -0.5, 0.24796333902303586], [4.6157959660618015, 0.5, 0.5210839845496896], [9.501092772709931, -0.37694724388012635, 0], [1, -0.08769372182765345, 0.07348785766952493], [3.2325374131437723, -0.0633193951366043, 0.789238887878664]]",36.454543600082395
26,26,32.19702004901914,"[[4.702469537496864, -0.030340409244865287, 0.9088905604743772], [16.443448446040993, -0.36887335457873704, 0.549846043766851], [1, 0.16238029956274488, 1], [1, 0.5, 1], [1, -0.17764609292612313, 0], [20, -0.5, 0.24796333902303586], [4.6157959660618015, 0.5, 0.5210839845496896], [9.501092772709931, -0.37694724388012635, 0], [1, -0.08769372182765345, 0.07348785766952493], [3.2325374131437723, -0.0633193951366043, 0.789238887878664]]",37.8566414308548
27,27,32.19702004901914,"[[4.702469537496864, -0.030340409244865287, 0.9088905604743772], [16.443448446040993, -0.36887335457873704, 0.549846043766851], [1, 0.16238029956274488, 1], [1, 0.5, 1], [1, -0.17764609292612313, 0], [20, -0.5, 0.24796333902303586], [4.6157959660618015, 0.5, 0.5210839845496896], [9.501092772709931, -0.37694724388012635, 0], [1, -0.08769372182765345, 0.07348785766952493], [3.2325374131437723, -0.0633193951366043, 0.789238887878664]]",39.2587392616272
28,28,32.19702004901914,"[[4.702469537496864, -0.030340409244865287, 0.9088905604743772], [16.443448446040993, -0.36887335457873704, 0.549846043766851], [1, 0.16238029956274488, 1], [1, 0.5, 1], [1, -0.17764609292612313, 0], [20, -0.5, 0.24796333902303586], [4.6157959660618015, 0.5, 0.5210839845496896], [9.501092772709931, -0.37694724388012635, 0], [1, -0.08769372182765345, 0.07348785766952493], [3.2325374131437723, -0.0633193951366043, 0.789238887878664]]",40.660837092399596
29,29,32.19702004901914,"[[4.702469537496864, -0.030340409244865287, 0.9088905604743772], [16.443448446040993, -0.36887335457873704, 0.549846043766851], [1, 0.16238029956274488, 1], [1, 0.5, 1], [1, -0.17764609292612313, 0], [20, -0.5, 0.24796333902303586], [4.6157959660618015, 0.5, 0.5210839845496896], [9.501092772709931, -0.37694724388012635, 0], [1, -0.08769372182765345, 0.07348785766952493], [3.2325374131437723, -0.0633193951366043, 0.789238887878664]]",42.062934923171994
30,30,32.19702004901914,"[[4.702469537496864, -0.030340409244865287, 0.9088905604743772], [16.443448446040993, -0.36887335457873704, 0.549846043766851], [1, 0.16238029956274488, 1], [1, 0.5, 1], [1, -0.17764609292612313, 0], [20, -0.5, 0.24796333902303586], [4.6157959660618015, 0.5, 0.5210839845496896], [9.501092772709931, -0.37694724388012635, 0], [1, -0.08769372182765345, 0.07348785766952493], [3.2325374131437723, -0.0633193951366043, 0.789238887878664]]",43.4650327539444
31,31,32.19702004901914,"[[4.702469537496864, -0.030340409244865287, 0.9088905604743772], [16.443448446040993, -0.36887335457873704, 0.549846043766851], [1, 0.16238029956274488, 1], [1, 0.5, 1], [1, -0.17764609292612313, 0], [20, -0.5, 0.24796333902303586], [4.6157959660618015, 0.5, 0.5210839845496896], [9.501092772709931, -0.37694724388012635, 0], [1, -0.08769372182765345, 0.07348785766952493], [3.2325374131437723, -0.0633193951366043, 0.789238887878664]]",44.8671305847168
32,32,32.19702004901914,"[[4.702469537496864, -0.030340409244865287, 0.9088905604743772], [16.443448446040993, -0.36887335457873704, 0.549846043766851], [1, 0.16238029956274488, 1], [1, 0.5, 1], [1, -0.17764609292612313, 0], [20, -0.5, 0.24796333902303586], [4.6157959660618015, 0.5, 0.5210839845496896], [9.501092772709931, -0.37694724388012635, 0], [1, -0.08769372182765345, 0.07348785766952493], [3.2325374131437723, -0.0633193951366043, 0.789238887878664]]",46.269228415489195
33,33,32.19702004901914,"[[4.702469537496864, -0.030340409244865287, 0.9088905604743772], [16.443448446040993, -0.36887335457873704, 0.549846043766851], [1, 0.16238029956274488, 1], [1, 0.5, 1], [1, -0.17764609292612313, 0], [20, -0.5, 0.24796333902303586], [4.6157959660618015, 0.5, 0.5210839845496896], [9.501092772709931, -0.37694724388012635, 0], [1, -0.08769372182765345, 0.07348785766952493], [3.2325374131437723, -0.0633193951366043, 0.789238887878664]]",47.6713262462616
34,34,32.19702004901914,"[[4.702469537496864, -0.030340409244865287, 0.9088905604743772], [16.443448446040993, -0.36887335457873704, 0.549846043766851], [1, 0.16238029956274488, 1], [1, 0.5, 1], [1, -0.17764609292612313, 0], [20, -0.5, 0.24796333902303586], [4.6157959660618015, 0.5, 0.5210839845496896], [9.501092772709931, -0.37694724388012635, 0], [1, -0.08769372182765345, 0.07348785766952493], [3.2325374131437723, -0.0633193951366043, 0.789238887878664]]",49.073424077034
35,35,32.19702004901914,"[[4.702469537496864, -0.030340409244865287, 0.9088905604743772], [16.443448446040993, -0.36887335457873704, 0.549846043766851], [1, 0.16238029956274488, 1], [1, 0.5, 1], [1, -0.17764609292612313, 0], [20, -0.5, 0.24796333902303586], [4.6157959660618015, 0.5, 0.5210839845496896], [9.501092772709931, -0.37694724388012635, 0], [1, -0.08769372182765345, 0.07348785766952493], [3.2325374131437723, -0.0633193951366043, 0.789238887878664]]",50.475521907806396
36,36,32.19702004901914,"[[4.702469537496864, -0.030340409244865287, 0.9088905604743772], [16.443448446040993, -0.36887335457873704, 0.549846043766851], [1, 0.16238029956274488, 1], [1, 0.5, 1], [1, -0.17764609292612313, 0], [20, -0.5, 0.24796333902303586], [4.6157959660618015, 0.5, 0.5210839845496896], [9.501092772709931, -0.37694724388012635, 0], [1, -0.08769372182765345, 0.07348785766952493], [3.2325374131437723, -0.0633193951366043, 0.789238887878664]]",51.877619738578794
37,37,32.19702004901914,"[[4.702469537496864, -0.030340409244865287, 0.9088905604743772], [16.443448446040993, -0.36887335457873704, 0.549846043766851], [1, 0.16238029956274488, 1], [1, 0.5, 1], [1, -0.17764609292612313, 0], [20, -0.5, 0.24796333902303586], [4.6157959660618015, 0.5, 0.5210839845496896], [9.501092772709931, -0.37694724388012635, 0], [1, -0.08769372182765345, 0.07348785766952493], [3.2325374131437723, -0.0633193951366043, 0.789238887878664]]",53.2797175693512
38,38,32.19702004901914,"[[4.702469537496864, -0.030340409244865287, 0.9088905604743772], [16.443448446040993, -0.36887335457873704, 0.549846043766851], [1, 0.16238029956274488, 1], [1, 0.5, 1], [1, -0.17764609292612313, 0], [20, -0.5, 0.24796333902303586], [4.6157959660618015, 0.5, 0.5210839845496896], [9.501092772709931, -0.37694724388012635, 0], [1, -0.08769372182765345, 0.07348785766952493], [3.2325374131437723, -0.0633193951366043, 0.789238887878664]]",54.6818154001236
39,39,32.19702004901914,"[[4.702469537496864, -0.030340409244865287, 0.9088905604743772], [16.443448446040993, -0.36887335457873704, 0.549846043766851], [1, 0.16238029956274488, 1], [1, 0.5, 1], [1, -0.17764609292612313, 0], [20, -0.5, 0.24796333902303586], [4.6157959660618015, 0.5, 0.5210839845496896], [9.501092772709931, -0.37694724388012635, 0], [1, -0.08769372182765345, 0.07348785766952493], [3.2325374131437723, -0.0633193951366043, 0.789238887878664]]",56.083913230895995
40,40,32.19702004901914,"[[4.702469537496864, -0.030340409244865287, 0.9088905604743772], [16.443448446040993, -0.36887335457873704, 0.549846043766851], [1, 0.16238029956274488, 1], [1, 0.5, 1], [1, -0.17764609292612313, 0], [20, -0.5, 0.24796333902303586], [4.6157959660618015, 0.5, 0.5210839845496896], [9.501092772709931, -0.37694724388012635, 0], [1, -0.08769372182765345, 0.07348785766952493], [3.2325374131437723, -0.0633193951366043, 0.789238887878664]]",57.48601106166839
41,41,32.19702004901914,"[[4.702469537496864, -0.030340409244865287, 0.9088905604743772], [16.443448446040993, -0.36887335457873704, 0.549846043766851], [1, 0.16238029956274488, 1], [1, 0.5, 1], [1, -0.17764609292612313, 0], [20, -0.5, 0.24796333902303586], [4.6157959660618015, 0.5, 0.5210839845496896], [9.501092772709931, -0.37694724388012635, 0], [1, -0.08769372182765345, 0.07348785766952493], [3.2325374131437723, -0.0633193951366043, 0.789238887878664]]",58.8881088924408
42,42,33.56794029121437,"[[1, 0.06029900355938826, 0.8301134611293719], [9.646556990256201, -0.47641399210378776, 0.044089448573292944], [5.19407163273665, -0.21209535401321258, 1], [20, -0.021135221732053622, 1], [19.245380392910043, -0.5, 0.18666269112128345], [1, 0.18250602846003278, 0.27591150065351744], [4.6157959660618015, 0.5, 0.5210839845496896], [1, -0.5, 0], [8.826850962657911, -0.26894367012109033, 0.2941076952198301], [8.636018733239993, 0.4349788677585447, 0.39719066229499256]]",60.290206723213196
43,43,33.56794029121437,"[[1, 0.06029900355938826, 0.8301134611293719], [9.646556990256201, -0.47641399210378776, 0.044089448573292944], [5.19407163273665, -0.21209535401321258, 1], [20, -0.021135221732053622, 1], [19.245380392910043, -0.5, 0.18666269112128345], [1, 0.18250602846003278, 0.27591150065351744], [4.6157959660618015, 0.5, 0.5210839845496896], [1, -0.5, 0], [8.826850962657911, -0.26894367012109033, 0.2941076952198301], [8.636018733239993, 0.4349788677585447, 0.39719066229499256]]",61.69230455398559
44,44,33.78745029462388,"[[5.834273956384691, -0.02833062472992258, 1], [1, 0.32249798454750095, 0.5302530588839028], [1, 0.3312152325387995, 1], [20, -0.021135221732053622, 1], [9.49701818189399, 0.5, 0.6704339388614525], [3.664616944555793, 0.2933211079885879, 0.457577534021287], [4.6157959660618015, 0.5, 0.5210839845496896], [1, -0.5, 0], [9.233810644189724, -0.5, 0.6260672363695237], [3.2325374131437723, -0.5, 1]]",63.094402384758
45,45,33.78745029462388,"[[5.834273956384691, -0.02833062472992258, 1], [1, 0.32249798454750095, 0.5302530588839028], [1, 0.3312152325387995, 1], [20, -0.021135221732053622, 1], [9.49701818189399, 0.5, 0.6704339388614525], [3.664616944555793, 0.2933211079885879, 0.457577534021287], [4.6157959660618015, 0.5, 0.5210839845496896], [1, -0.5, 0], [9.233810644189724, -0.5, 0.6260672363695237], [3.2325374131437723, -0.5, 1]]",64.49650021553039
46,46,33.78745029462388,"[[5.834273956384691, -0.02833062472992258, 1], [1, 0.32249798454750095, 0.5302530588839028], [1, 0.3312152325387995, 1], [20, -0.021135221732053622, 1], [9.49701818189399, 0.5, 0.6704339388614525], [3.664616944555793, 0.2933211079885879, 0.457577534021287], [4.6157959660618015, 0.5, 0.5210839845496896], [1, -0.5, 0], [9.233810644189724, -0.5, 0.6260672363695237], [3.2325374131437723, -0.5, 1]]",65.8985980463028
47,47,33.78745029462388,"[[5.834273956384691, -0.02833062472992258, 1], [1, 0.32249798454750095, 0.5302530588839028], [1, 0.3312152325387995, 1], [20, -0.021135221732053622, 1], [9.49701818189399, 0.5, 0.6704339388614525], [3.664616944555793, 0.2933211079885879, 0.457577534021287], [4.6157959660618015, 0.5, 0.5210839845496896], [1, -0.5, 0], [9.233810644189724, -0.5, 0.6260672363695237], [3.2325374131437723, -0.5, 1]]",67.3006958770752
48,48,33.78745029462388,"[[5.834273956384691, -0.02833062472992258, 1], [1, 0.32249798454750095, 0.5302530588839028], [1, 0.3312152325387995, 1], [20, -0.021135221732053622, 1], [9.49701818189399, 0.5, 0.6704339388614525], [3.664616944555793, 0.2933211079885879, 0.457577534021287], [4.6157959660618015, 0.5, 0.5210839845496896], [1, -0.5, 0], [9.233810644189724, -0.5, 0.6260672363695237], [3.2325374131437723, -0.5, 1]]",68.70279370784759
49,49,33.78745029462388,"[[5.834273956384691, -0.02833062472992258, 1], [1, 0.32249798454750095, 0.5302530588839028], [1, 0.3312152325387995, 1], [20, -0.021135221732053622, 1], [9.49701818189399, 0.5, 0.6704339388614525], [3.664616944555793, 0.2933211079885879, 0.457577534021287], [4.6157959660618015, 0.5, 0.5210839845496896], [1, -0.5, 0], [9.233810644189724, -0.5, 0.6260672363695237], [3.2325374131437723, -0.5, 1]]",70.10489153862
50,50,34.51252086694892,"[[5.834273956384691, -0.02833062472992258, 1], [1.7040359693922236, -0.35796946419616593, 0.8206246720108218], [1, 0.3312152325387995, 1], [20, 0.4925442453511992, 1], [6.094890924083016, -0.5, 0.1434284842802575], [7.791712277105461, -0.06665785465997741, 0.48205000635600864], [4.6157959660618015, 0.5, 0.5210839845496896], [11.641257659066484, 0.11036830468802496, 0.6180518241811244], [7.611108597550286, -0.18780424033172735, 0.27026068068060993], [1, 0.16846681105603128, 1]]",71.5069893693924
51,51,34.51252086694892,"[[5.834273956384691, -0.02833062472992258, 1], [1.7040359693922236, -0.35796946419616593, 0.8206246720108218], [1, 0.3312152325387995, 1], [20, 0.4925442453511992, 1], [6.094890924083016, -0.5, 0.1434284842802575], [7.791712277105461, -0.06665785465997741, 0.48205000635600864], [4.6157959660618015, 0.5, 0.5210839845496896], [11.641257659066484, 0.11036830468802496, 0.6180518241811244], [7.611108597550286, -0.18780424033172735, 0.27026068068060993], [1, 0.16846681105603128, 1]]",72.90908720016479
52,52,34.51252086694892,"[[5.834273956384691, -0.02833062472992258, 1], [1.7040359693922236, -0.35796946419616593, 0.8206246720108218], [1, 0.3312152325387995, 1], [20, 0.4925442453511992, 1], [6.094890924083016, -0.5, 0.1434284842802575], [7.791712277105461, -0.06665785465997741, 0.48205000635600864], [4.6157959660618015, 0.5, 0.5210839845496896], [11.641257659066484, 0.11036830468802496, 0.6180518241811244], [7.611108597550286, -0.18780424033172735, 0.27026068068060993], [1, 0.16846681105603128, 1]]",74.3111850309372
53,53,34.51252086694892,"[[5.834273956384691, -0.02833062472992258, 1], [1.7040359693922236, -0.35796946419616593, 0.8206246720108218], [1, 0.3312152325387995, 1], [20, 0.4925442453511992, 1], [6.094890924083016, -0.5, 0.1434284842802575], [7.791712277105461, -0.06665785465997741, 0.48205000635600864], [4.6157959660618015, 0.5, 0.5210839845496896], [11.641257659066484, 0.11036830468802496, 0.6180518241811244], [7.611108597550286, -0.18780424033172735, 0.27026068068060993], [1, 0.16846681105603128, 1]]",75.7132828617096
54,54,34.51252086694892,"[[5.834273956384691, -0.02833062472992258, 1], [1.7040359693922236, -0.35796946419616593, 0.8206246720108218], [1, 0.3312152325387995, 1], [20, 0.4925442453511992, 1], [6.094890924083016, -0.5, 0.1434284842802575], [7.791712277105461, -0.06665785465997741, 0.48205000635600864], [4.6157959660618015, 0.5, 0.5210839845496896], [11.641257659066484, 0.11036830468802496, 0.6180518241811244], [7.611108597550286, -0.18780424033172735, 0.27026068068060993], [1, 0.16846681105603128, 1]]",77.11538069248199
55,55,34.51252086694892,"[[5.834273956384691, -0.02833062472992258, 1], [1.7040359693922236, -0.35796946419616593, 0.8206246720108218], [1, 0.3312152325387995, 1], [20, 0.4925442453511992, 1], [6.094890924083016, -0.5, 0.1434284842802575], [7.791712277105461, -0.06665785465997741, 0.48205000635600864], [4.6157959660618015, 0.5, 0.5210839845496896], [11.641257659066484, 0.11036830468802496, 0.6180518241811244], [7.611108597550286, -0.18780424033172735, 0.27026068068060993], [1, 0.16846681105603128, 1]]",78.5174785232544
56,56,34.51252086694892,"[[5.834273956384691, -0.02833062472992258, 1], [1.7040359693922236, -0.35796946419616593, 0.8206246720108218], [1, 0.3312152325387995, 1], [20, 0.4925442453511992, 1], [6.094890924083016, -0.5, 0.1434284842802575], [7.791712277105461, -0.06665785465997741, 0.48205000635600864], [4.6157959660618015, 0.5, 0.5210839845496896], [11.641257659066484, 0.11036830468802496, 0.6180518241811244], [7.611108597550286, -0.18780424033172735, 0.27026068068060993], [1, 0.16846681105603128, 1]]",79.91957635402679
57,57,34.51252086694892,"[[5.834273956384691, -0.02833062472992258, 1], [1.7040359693922236, -0.35796946419616593, 0.8206246720108218], [1, 0.3312152325387995, 1], [20, 0.4925442453511992, 1], [6.094890924083016, -0.5, 0.1434284842802575], [7.791712277105461, -0.06665785465997741, 0.48205000635600864], [4.6157959660618015, 0.5, 0.5210839845496896], [11.641257659066484, 0.11036830468802496, 0.6180518241811244], [7.611108597550286, -0.18780424033172735, 0.27026068068060993], [1, 0.16846681105603128, 1]]",81.32167418479919
58,58,34.51252086694892,"[[5.834273956384691, -0.02833062472992258, 1], [1.7040359693922236, -0.35796946419616593, 0.8206246720108218], [1, 0.3312152325387995, 1], [20, 0.4925442453511992, 1], [6.094890924083016, -0.5, 0.1434284842802575], [7.791712277105461, -0.06665785465997741, 0.48205000635600864], [4.6157959660618015, 0.5, 0.5210839845496896], [11.641257659066484, 0.11036830468802496, 0.6180518241811244], [7.611108597550286, -0.18780424033172735, 0.27026068068060993], [1, 0.16846681105603128, 1]]",82.7237720155716
59,59,34.51252086694892,"[[5.834273956384691, -0.02833062472992258, 1], [1.7040359693922236, -0.35796946419616593, 0.8206246720108218], [1, 0.3312152325387995, 1], [20, 0.4925442453511992, 1], [6.094890924083016, -0.5, 0.1434284842802575], [7.791712277105461, -0.06665785465997741, 0.48205000635600864], [4.6157959660618015, 0.5, 0.5210839845496896], [11.641257659066484, 0.11036830468802496, 0.6180518241811244], [7.611108597550286, -0.18780424033172735, 0.27026068068060993], [1, 0.16846681105603128, 1]]",84.12586984634399
60,60,34.51252086694892,"[[5.834273956384691, -0.02833062472992258, 1], [1.7040359693922236, -0.35796946419616593, 0.8206246720108218], [1, 0.3312152325387995, 1], [20, 0.4925442453511992, 1], [6.094890924083016, -0.5, 0.1434284842802575], [7.791712277105461, -0.06665785465997741, 0.48205000635600864], [4.6157959660618015, 0.5, 0.5210839845496896], [11.641257659066484, 0.11036830468802496, 0.6180518241811244], [7.611108597550286, -0.18780424033172735, 0.27026068068060993], [1, 0.16846681105603128, 1]]",85.5279676771164
61,61,34.51252086694892,"[[5.834273956384691, -0.02833062472992258, 1], [1.7040359693922236, -0.35796946419616593, 0.8206246720108218], [1, 0.3312152325387995, 1], [20, 0.4925442453511992, 1], [6.094890924083016, -0.5, 0.1434284842802575], [7.791712277105461, -0.06665785465997741, 0.48205000635600864], [4.6157959660618015, 0.5, 0.5210839845496896], [11.641257659066484, 0.11036830468802496, 0.6180518241811244], [7.611108597550286, -0.18780424033172735, 0.27026068068060993], [1, 0.16846681105603128, 1]]",86.9300655078888
62,62,34.51252086694892,"[[5.834273956384691, -0.02833062472992258, 1], [1.7040359693922236, -0.35796946419616593, 0.8206246720108218], [1, 0.3312152325387995, 1], [20, 0.4925442453511992, 1], [6.094890924083016, -0.5, 0.1434284842802575], [7.791712277105461, -0.06665785465997741, 0.48205000635600864], [4.6157959660618015, 0.5, 0.5210839845496896], [11.641257659066484, 0.11036830468802496, 0.6180518241811244], [7.611108597550286, -0.18780424033172735, 0.27026068068060993], [1, 0.16846681105603128, 1]]",88.33216333866119
63,63,35.021049842467775,"[[5.834273956384691, -0.02833062472992258, 1], [9.700655908113387, -0.5, 0.7781772733825937], [1, 0.3312152325387995, 1], [20, 0.17876652076625996, 0.7547241146244057], [1.0700525505943452, -0.0746804317439442, 0.09022696070176325], [8.291051566918895, -0.07703445466350883, 0.6840625642530027], [4.6157959660618015, 0.5, 0.5210839845496896], [9.501092772709931, -0.37694724388012635, 0], [9.844271259144072, -0.44745923593685866, 0.38400214205099403], [3.259429399133577, -0.5, 1]]",89.7342611694336
64,64,35.021049842467775,"[[5.834273956384691, -0.02833062472992258, 1], [9.700655908113387, -0.5, 0.7781772733825937], [1, 0.3312152325387995, 1], [20, 0.17876652076625996, 0.7547241146244057], [1.0700525505943452, -0.0746804317439442, 0.09022696070176325], [8.291051566918895, -0.07703445466350883, 0.6840625642530027], [4.6157959660618015, 0.5, 0.5210839845496896], [9.501092772709931, -0.37694724388012635, 0], [9.844271259144072, -0.44745923593685866, 0.38400214205099403], [3.259429399133577, -0.5, 1]]",91.136359000206
65,65,35.021049842467775,"[[5.834273956384691, -0.02833062472992258, 1], [9.700655908113387, -0.5, 0.7781772733825937], [1, 0.3312152325387995, 1], [20, 0.17876652076625996, 0.7547241146244057], [1.0700525505943452, -0.0746804317439442, 0.09022696070176325], [8.291051566918895, -0.07703445466350883, 0.6840625642530027], [4.6157959660618015, 0.5, 0.5210839845496896], [9.501092772709931, -0.37694724388012635, 0], [9.844271259144072, -0.44745923593685866, 0.38400214205099403], [3.259429399133577, -0.5, 1]]",92.53845683097839
66,66,35.021049842467775,"[[5.834273956384691, -0.02833062472992258, 1], [9.700655908113387, -0.5, 0.7781772733825937], [1, 0.3312152325387995, 1], [20, 0.17876652076625996, 0.7547241146244057], [1.0700525505943452, -0.0746804317439442, 0.09022696070176325], [8.291051566918895, -0.07703445466350883, 0.6840625642530027], [4.6157959660618015, 0.5, 0.5210839845496896], [9.501092772709931, -0.37694724388012635, 0], [9.844271259144072, -0.44745923593685866, 0.38400214205099403], [3.259429399133577, -0.5, 1]]",93.9405546617508
67,67,35.021049842467775,"[[5.834273956384691, -0.02833062472992258, 1], [9.700655908113387, -0.5, 0.7781772733825937], [1, 0.3312152325387995, 1], [20, 0.17876652076625996, 0.7547241146244057], [1.0700525505943452, -0.0746804317439442, 0.09022696070176325], [8.291051566918895, -0.07703445466350883, 0.6840625642530027], [4.6157959660618015, 0.5, 0.5210839845496896], [9.501092772709931, -0.37694724388012635, 0], [9.844271259144072, -0.44745923593685866, 0.38400214205099403], [3.259429399133577, -0.5, 1]]",95.3426524925232
68,68,35.021049842467775,"[[5.834273956384691, -0.02833062472992258, 1], [9.700655908113387, -0.5, 0.7781772733825937], [1, 0.3312152325387995, 1], [20, 0.17876652076625996, 0.7547241146244057], [1.0700525505943452, -0.0746804317439442, 0.09022696070176325], [8.291051566918895, -0.07703445466350883, 0.6840625642530027], [4.6157959660618015, 0.5, 0.5210839845496896], [9.501092772709931, -0.37694724388012635, 0], [9.844271259144072, -0.44745923593685866, 0.38400214205099403], [3.259429399133577, -0.5, 1]]",96.74475032329559
69,69,35.021049842467775,"[[5.834273956384691, -0.02833062472992258, 1], [9.700655908113387, -0.5, 0.7781772733825937], [1, 0.3312152325387995, 1], [20, 0.17876652076625996, 0.7547241146244057], [1.0700525505943452, -0.0746804317439442, 0.09022696070176325], [8.291051566918895, -0.07703445466350883, 0.6840625642530027], [4.6157959660618015, 0.5, 0.5210839845496896], [9.501092772709931, -0.37694724388012635, 0], [9.844271259144072, -0.44745923593685866, 0.38400214205099403], [3.259429399133577, -0.5, 1]]",98.146848154068
70,70,35.021049842467775,"[[5.834273956384691, -0.02833062472992258, 1], [9.700655908113387, -0.5, 0.7781772733825937], [1, 0.3312152325387995, 1], [20, 0.17876652076625996, 0.7547241146244057], [1.0700525505943452, -0.0746804317439442, 0.09022696070176325], [8.291051566918895, -0.07703445466350883, 0.6840625642530027], [4.6157959660618015, 0.5, 0.5210839845496896], [9.501092772709931, -0.37694724388012635, 0], [9.844271259144072, -0.44745923593685866, 0.38400214205099403], [3.259429399133577, -0.5, 1]]",99.54894598484039
71,71,35.021049842467775,"[[5.834273956384691, -0.02833062472992258, 1], [9.700655908113387, -0.5, 0.7781772733825937], [1, 0.3312152325387995, 1], [20, 0.17876652076625996, 0.7547241146244057], [1.0700525505943452, -0.0746804317439442, 0.09022696070176325], [8.291051566918895, -0.07703445466350883, 0.6840625642530027], [4.6157959660618015, 0.5, 0.5210839845496896], [9.501092772709931, -0.37694724388012635, 0], [9.844271259144072, -0.44745923593685866, 0.38400214205099403], [3.259429399133577, -0.5, 1]]",100.95104381561279
72,72,35.021049842467775,"[[5.834273956384691, -0.02833062472992258, 1], [9.700655908113387, -0.5, 0.7781772733825937], [1, 0.3312152325387995, 1], [20, 0.17876652076625996, 0.7547241146244057], [1.0700525505943452, -0.0746804317439442, 0.09022696070176325], [8.291051566918895, -0.07703445466350883, 0.6840625642530027], [4.6157959660618015, 0.5, 0.5210839845496896], [9.501092772709931, -0.37694724388012635, 0], [9.844271259144072, -0.44745923593685866, 0.38400214205099403], [3.259429399133577, -0.5, 1]]",102.3531416463852
73,73,35.021049842467775,"[[5.834273956384691, -0.02833062472992258, 1], [9.700655908113387, -0.5, 0.7781772733825937], [1, 0.3312152325387995, 1], [20, 0.17876652076625996, 0.7547241146244057], [1.0700525505943452, -0.0746804317439442, 0.09022696070176325], [8.291051566918895, -0.07703445466350883, 0.6840625642530027], [4.6157959660618015, 0.5, 0.5210839845496896], [9.501092772709931, -0.37694724388012635, 0], [9.844271259144072, -0.44745923593685866, 0.38400214205099403], [3.259429399133577, -0.5, 1]]",103.75523947715759
74,74,35.021049842467775,"[[5.834273956384691, -0.02833062472992258, 1], [9.700655908113387, -0.5, 0.7781772733825937], [1, 0.3312152325387995, 1], [20, 0.17876652076625996, 0.7547241146244057], [1.0700525505943452, -0.0746804317439442, 0.09022696070176325], [8.291051566918895, -0.07703445466350883, 0.6840625642530027], [4.6157959660618015, 0.5, 0.5210839845496896], [9.501092772709931, -0.37694724388012635, 0], [9.844271259144072, -0.44745923593685866, 0.38400214205099403], [3.259429399133577, -0.5, 1]]",105.15733730792999
75,75,35.021049842467775,"[[5.834273956384691, -0.02833062472992258, 1], [9.700655908113387, -0.5, 0.7781772733825937], [1, 0.3312152325387995, 1], [20, 0.17876652076625996, 0.7547241146244057], [1.0700525505943452, -0.0746804317439442, 0.09022696070176325], [8.291051566918895, -0.07703445466350883, 0.6840625642530027], [4.6157959660618015, 0.5, 0.5210839845496896], [9.501092772709931, -0.37694724388012635, 0], [9.844271259144072, -0.44745923593685866, 0.38400214205099403], [3.259429399133577, -0.5, 1]]",106.5594351387024
76,76,35.021049842467775,"[[5.834273956384691, -0.02833062472992258, 1], [9.700655908113387, -0.5, 0.7781772733825937], [1, 0.3312152325387995, 1], [20, 0.17876652076625996, 0.7547241146244057], [1.0700525505943452, -0.0746804317439442, 0.09022696070176325], [8.291051566918895, -0.07703445466350883, 0.6840625642530027], [4.6157959660618015, 0.5, 0.5210839845496896], [9.501092772709931, -0.37694724388012635, 0], [9.844271259144072, -0.44745923593685866, 0.38400214205099403], [3.259429399133577, -0.5, 1]]",107.96153296947479
77,77,35.021049842467775,"[[5.834273956384691, -0.02833062472992258, 1], [9.700655908113387, -0.5, 0.7781772733825937], [1, 0.3312152325387995, 1], [20, 0.17876652076625996, 0.7547241146244057], [1.0700525505943452, -0.0746804317439442, 0.09022696070176325], [8.291051566918895, -0.07703445466350883, 0.6840625642530027], [4.6157959660618015, 0.5, 0.5210839845496896], [9.501092772709931, -0.37694724388012635, 0], [9.844271259144072, -0.44745923593685866, 0.38400214205099403], [3.259429399133577, -0.5, 1]]",109.3636308002472
78,78,35.021049842467775,"[[5.834273956384691, -0.02833062472992258, 1], [9.700655908113387, -0.5, 0.7781772733825937], [1, 0.3312152325387995, 1], [20, 0.17876652076625996, 0.7547241146244057], [1.0700525505943452, -0.0746804317439442, 0.09022696070176325], [8.291051566918895, -0.07703445466350883, 0.6840625642530027], [4.6157959660618015, 0.5, 0.5210839845496896], [9.501092772709931, -0.37694724388012635, 0], [9.844271259144072, -0.44745923593685866, 0.38400214205099403], [3.259429399133577, -0.5, 1]]",110.7657286310196
79,79,35.021049842467775,"[[5.834273956384691, -0.02833062472992258, 1], [9.700655908113387, -0.5, 0.7781772733825937], [1, 0.3312152325387995, 1], [20, 0.17876652076625996, 0.7547241146244057], [1.0700525505943452, -0.0746804317439442, 0.09022696070176325], [8.291051566918895, -0.07703445466350883, 0.6840625642530027], [4.6157959660618015, 0.5, 0.5210839845496896], [9.501092772709931, -0.37694724388012635, 0], [9.844271259144072, -0.44745923593685866, 0.38400214205099403], [3.259429399133577, -0.5, 1]]",112.16782646179199
80,80,35.021049842467775,"[[5.834273956384691, -0.02833062472992258, 1], [9.700655908113387, -0.5, 0.7781772733825937], [1, 0.3312152325387995, 1], [20, 0.17876652076625996, 0.7547241146244057], [1.0700525505943452, -0.0746804317439442, 0.09022696070176325], [8.291051566918895, -0.07703445466350883, 0.6840625642530027], [4.6157959660618015, 0.5, 0.5210839845496896], [9.501092772709931, -0.37694724388012635, 0], [9.844271259144072, -0.44745923593685866, 0.38400214205099403], [3.259429399133577, -0.5, 1]]",113.5699242925644
81,81,35.021049842467775,"[[5.834273956384691, -0.02833062472992258, 1], [9.700655908113387, -0.5, 0.7781772733825937], [1, 0.3312152325387995, 1], [20, 0.17876652076625996, 0.7547241146244057], [1.0700525505943452, -0.0746804317439442, 0.09022696070176325], [8.291051566918895, -0.07703445466350883, 0.6840625642530027], [4.6157959660618015, 0.5, 0.5210839845496896], [9.501092772709931, -0.37694724388012635, 0], [9.844271259144072, -0.44745923593685866, 0.38400214205099403], [3.259429399133577, -0.5, 1]]",114.97202212333679
82,82,35.021049842467775,"[[5.834273956384691, -0.02833062472992258, 1], [9.700655908113387, -0.5, 0.7781772733825937], [1, 0.3312152325387995, 1], [20, 0.17876652076625996, 0.7547241146244057], [1.0700525505943452, -0.0746804317439442, 0.09022696070176325], [8.291051566918895, -0.07703445466350883, 0.6840625642530027], [4.6157959660618015, 0.5, 0.5210839845496896], [9.501092772709931, -0.37694724388012635, 0], [9.844271259144072, -0.44745923593685866, 0.38400214205099403], [3.259429399133577, -0.5, 1]]",116.37411995410919
83,83,35.021049842467775,"[[5.834273956384691, -0.02833062472992258, 1], [9.700655908113387, -0.5, 0.7781772733825937], [1, 0.3312152325387995, 1], [20, 0.17876652076625996, 0.7547241146244057], [1.0700525505943452, -0.0746804317439442, 0.09022696070176325], [8.291051566918895, -0.07703445466350883, 0.6840625642530027], [4.6157959660618015, 0.5, 0.5210839845496896], [9.501092772709931, -0.37694724388012635, 0], [9.844271259144072, -0.44745923593685866, 0.38400214205099403], [3.259429399133577, -0.5, 1]]",117.7762177848816
84,84,35.021049842467775,"[[5.834273956384691, -0.02833062472992258, 1], [9.700655908113387, -0.5, 0.7781772733825937], [1, 0.3312152325387995, 1], [20, 0.17876652076625996, 0.7547241146244057], [1.0700525505943452, -0.0746804317439442, 0.09022696070176325], [8.291051566918895, -0.07703445466350883, 0.6840625642530027], [4.6157959660618015, 0.5, 0.5210839845496896], [9.501092772709931, -0.37694724388012635, 0], [9.844271259144072, -0.44745923593685866, 0.38400214205099403], [3.259429399133577, -0.5, 1]]",119.17831561565399
85,85,35.021049842467775,"[[5.834273956384691, -0.02833062472992258, 1], [9.700655908113387, -0.5, 0.7781772733825937], [1, 0.3312152325387995, 1], [20, 0.17876652076625996, 0.7547241146244057], [1.0700525505943452, -0.0746804317439442, 0.09022696070176325], [8.291051566918895, -0.07703445466350883, 0.6840625642530027], [4.6157959660618015, 0.5, 0.5210839845496896], [9.501092772709931, -0.37694724388012635, 0], [9.844271259144072, -0.44745923593685866, 0.38400214205099403], [3.259429399133577, -0.5, 1]]",120.58041344642639
86,86,35.021049842467775,"[[5.834273956384691, -0.02833062472992258, 1], [9.700655908113387, -0.5, 0.7781772733825937], [1, 0.3312152325387995, 1], [20, 0.17876652076625996, 0.7547241146244057], [1.0700525505943452, -0.0746804317439442, 0.09022696070176325], [8.291051566918895, -0.07703445466350883, 0.6840625642530027], [4.6157959660618015, 0.5, 0.5210839845496896], [9.501092772709931, -0.37694724388012635, 0], [9.844271259144072, -0.44745923593685866, 0.38400214205099403], [3.259429399133577, -0.5, 1]]",121.9825112771988
87,87,35.021049842467775,"[[5.834273956384691, -0.02833062472992258, 1], [9.700655908113387, -0.5, 0.7781772733825937], [1, 0.3312152325387995, 1], [20, 0.17876652076625996, 0.7547241146244057], [1.0700525505943452, -0.0746804317439442, 0.09022696070176325], [8.291051566918895, -0.07703445466350883, 0.6840625642530027], [4.6157959660618015, 0.5, 0.5210839845496896], [9.501092772709931, -0.37694724388012635, 0], [9.844271259144072, -0.44745923593685866, 0.38400214205099403], [3.259429399133577, -0.5, 1]]",123.38460910797119
88,88,35.021049842467775,"[[5.834273956384691, -0.02833062472992258, 1], [9.700655908113387, -0.5, 0.7781772733825937], [1, 0.3312152325387995, 1], [20, 0.17876652076625996, 0.7547241146244057], [1.0700525505943452, -0.0746804317439442, 0.09022696070176325], [8.291051566918895, -0.07703445466350883, 0.6840625642530027], [4.6157959660618015, 0.5, 0.5210839845496896], [9.501092772709931, -0.37694724388012635, 0], [9.844271259144072, -0.44745923593685866, 0.38400214205099403], [3.259429399133577, -0.5, 1]]",124.78670693874359
89,89,35.021049842467775,"[[5.834273956384691, -0.02833062472992258, 1], [9.700655908113387, -0.5, 0.7781772733825937], [1, 0.3312152325387995, 1], [20, 0.17876652076625996, 0.7547241146244057], [1.0700525505943452, -0.0746804317439442, 0.09022696070176325], [8.291051566918895, -0.07703445466350883, 0.6840625642530027], [4.6157959660618015, 0.5, 0.5210839845496896], [9.501092772709931, -0.37694724388012635, 0], [9.844271259144072, -0.44745923593685866, 0.38400214205099403], [3.259429399133577, -0.5, 1]]",126.188804769516
90,90,35.021049842467775,"[[5.834273956384691, -0.02833062472992258, 1], [9.700655908113387, -0.5, 0.7781772733825937], [1, 0.3312152325387995, 1], [20, 0.17876652076625996, 0.7547241146244057], [1.0700525505943452, -0.0746804317439442, 0.09022696070176325], [8.291051566918895, -0.07703445466350883, 0.6840625642530027], [4.6157959660618015, 0.5, 0.5210839845496896], [9.501092772709931, -0.37694724388012635, 0], [9.844271259144072, -0.44745923593685866, 0.38400214205099403], [3.259429399133577, -0.5, 1]]",127.59090260028839
91,91,35.021049842467775,"[[5.834273956384691, -0.02833062472992258, 1], [9.700655908113387, -0.5, 0.7781772733825937], [1, 0.3312152325387995, 1], [20, 0.17876652076625996, 0.7547241146244057], [1.0700525505943452, -0.0746804317439442, 0.09022696070176325], [8.291051566918895, -0.07703445466350883, 0.6840625642530027], [4.6157959660618015, 0.5, 0.5210839845496896], [9.501092772709931, -0.37694724388012635, 0], [9.844271259144072, -0.44745923593685866, 0.38400214205099403], [3.259429399133577, -0.5, 1]]",128.99300043106078
92,92,35.0303824184896,"[[5.801680121338661, -0.028145441868495047, 1], [9.700655908113387, -0.5, 0.7781772733825937], [1, 0.4542779166686623, 1], [16.853754792203496, -0.32457498656338424, 1], [4.078152908974166, -0.35414622928499384, 0.5852537904089081], [7.797282069844137, 0.5, 0.24432162115615408], [4.6157959660618015, 0.5, 0.5210839845496896], [4.861453456805103, -0.41697929229800984, 0.03502432350716523], [2.244624678296401, -0.39817392128095, 1], [1, -0.17819276811352586, 1]]",130.3950982618332
93,93,35.0303824184896,"[[5.801680121338661, -0.028145441868495047, 1], [9.700655908113387, -0.5, 0.7781772733825937], [1, 0.4542779166686623, 1], [16.853754792203496, -0.32457498656338424, 1], [4.078152908974166, -0.35414622928499384, 0.5852537904089081], [7.797282069844137, 0.5, 0.24432162115615408], [4.6157959660618015, 0.5, 0.5210839845496896], [4.861453456805103, -0.41697929229800984, 0.03502432350716523], [2.244624678296401, -0.39817392128095, 1], [1, -0.17819276811352586, 1]]",131.7971960926056
94,94,35.85229069913634,"[[5.801680121338661, -0.02402237132891699, 0.9882242363914332], [11.476128986513826, -0.22660914162753482, 0.7454158278758781], [20, 0.3019355696063484, 0.9046242362198362], [1, 0.20181639458024983, 0.6411133192725776], [1, 0.11743153560763889, 0], [9.562219276116032, 0.5, 0.9096027893909313], [20, 0.3381004693564692, 0.4417318092869966], [12.360520385825115, -0.07471543420223137, 0.23470768725007363], [11.311974013685557, 0.0011646698740323258, 0.2383764631091276], [1, -0.17819276811352586, 1]]",133.19929392337798
95,95,35.85229069913634,"[[5.801680121338661, -0.02402237132891699, 0.9882242363914332], [11.476128986513826, -0.22660914162753482, 0.7454158278758781], [20, 0.3019355696063484, 0.9046242362198362], [1, 0.20181639458024983, 0.6411133192725776], [1, 0.11743153560763889, 0], [9.562219276116032, 0.5, 0.9096027893909313], [20, 0.3381004693564692, 0.4417318092869966], [12.360520385825115, -0.07471543420223137, 0.23470768725007363], [11.311974013685557, 0.0011646698740323258, 0.2383764631091276], [1, -0.17819276811352586, 1]]",134.6013917541504
96,96,35.85229069913634,"[[5.801680121338661, -0.02402237132891699, 0.9882242363914332], [11.476128986513826, -0.22660914162753482, 0.7454158278758781], [20, 0.3019355696063484, 0.9046242362198362], [1, 0.20181639458024983, 0.6411133192725776], [1, 0.11743153560763889, 0], [9.562219276116032, 0.5, 0.9096027893909313], [20, 0.3381004693564692, 0.4417318092869966], [12.360520385825115, -0.07471543420223137, 0.23470768725007363], [11.311974013685557, 0.0011646698740323258, 0.2383764631091276], [1, -0.17819276811352586, 1]]",136.0034895849228
97,97,35.85229069913634,"[[5.801680121338661, -0.02402237132891699, 0.9882242363914332], [11.476128986513826, -0.22660914162753482, 0.7454158278758781], [20, 0.3019355696063484, 0.9046242362198362], [1, 0.20181639458024983, 0.6411133192725776], [1, 0.11743153560763889, 0], [9.562219276116032, 0.5, 0.9096027893909313], [20, 0.3381004693564692, 0.4417318092869966], [12.360520385825115, -0.07471543420223137, 0.23470768725007363], [11.311974013685557, 0.0011646698740323258, 0.2383764631091276], [1, -0.17819276811352586, 1]]",137.40558741569518
98,98,35.85229069913634,"[[5.801680121338661, -0.02402237132891699, 0.9882242363914332], [11.476128986513826, -0.22660914162753482, 0.7454158278758781], [20, 0.3019355696063484, 0.9046242362198362], [1, 0.20181639458024983, 0.6411133192725776], [1, 0.11743153560763889, 0], [9.562219276116032, 0.5, 0.9096027893909313], [20, 0.3381004693564692, 0.4417318092869966], [12.360520385825115, -0.07471543420223137, 0.23470768725007363], [11.311974013685557, 0.0011646698740323258, 0.2383764631091276], [1, -0.17819276811352586, 1]]",138.8076852464676
99,99,35.85229069913634,"[[5.801680121338661, -0.02402237132891699, 0.9882242363914332], [11.476128986513826, -0.22660914162753482, 0.7454158278758781], [20, 0.3019355696063484, 0.9046242362198362], [1, 0.20181639458024983, 0.6411133192725776], [1, 0.11743153560763889, 0], [9.562219276116032, 0.5, 0.9096027893909313], [20, 0.3381004693564692, 0.4417318092869966], [12.360520385825115, -0.07471543420223137, 0.23470768725007363], [11.311974013685557, 0.0011646698740323258, 0.2383764631091276], [1, -0.17819276811352586, 1]]",140.20978307724
