,Generations,CCEA Fitness Values,Best_Sol,time
0,0,0.7396638842248455,"[[5.862598961182039, -0.46588311535304006, 0.26444474471396107], [8.321059254963606, -0.44922776803250997, 0.6400675254570762], [14.912599677939617, 0.372245891760844, 0.8931339528182806], [5.136247938044838, 0.4208415025152825, 0.6684809695670727], [3.5601384402372873, 0.4149775099026566, 0.6891206393789213], [5.572954462316497, -0.185091950712857, 0.329124827745636], [14.873732471469236, 0.42399999206686134, 0.7759227072351862], [16.96869494679942, -0.1625037143837833, 0.5316015525381639], [1, 0.346695864949239, 1], [6.625100976129945, -0.07746265518026074, 0.41144090942984923]]",1.2404421758651734
1,1,0.7818681092691337,"[[3.5170897612323655, 0.13981567770491365, 0.6410370385306945], [7.780308736471761, -0.5, 0.49878878974371554], [5.384224653672802, 0.38483309181570263, 0.5957098757287647], [5.136247938044838, 0.4208415025152825, 0.6684809695670727], [1, -0.204622373841496, 0.7667825616852448], [18.0703645404412, -0.24383183324053825, 0.952556916844134], [20, -0.14162064389715506, 0.6723280338085834], [1.8181467041564523, 0.5, 0.6695420613074778], [1, -0.3886140573324082, 0.4781812945010424], [7.536915487376584, -0.15498933138262916, 0.553679622640084]]",2.4808843517303467
2,2,0.8245714297355031,"[[8.838862297899817, -0.3846346878936414, 0.6215601555783445], [8.321059254963606, -0.44922776803250997, 0.6400675254570762], [12.241538979325005, -0.47018487214381344, 0.6355119527121028], [1, -0.24711548139501635, 1], [1.2652025161757066, 0.1077752435051329, 0.7433448516029912], [9.890133558346932, 0.23453259132544804, 0.5458579907914178], [5.829362911133948, 0.42399999206686134, 0.7759227072351862], [7.897318810425958, 0.3027884701192411, 1], [1, -0.21177041225274656, 1], [6.799597501949253, -0.3227294445186263, 0.419779626161048]]",3.72132652759552
3,3,0.8524899324487581,"[[1.247070248981546, -0.4883939377655926, 0.2651558962786243], [1, -0.392366706894138, 1], [4.06339074872515, 0.46244290535858684, 0.44472354489761384], [1, -0.2179613671906705, 1], [1, 0.29862917124136307, 1], [6.056211270208445, -0.19898778204830667, 0.6463005172380814], [7.918414555258733, -0.2947563722904714, 1], [6.769046626753915, 0.2974735212101681, 0.6289976755714701], [1, -0.21177041225274656, 1], [3.6360575645447675, -0.35313574839172973, 0.3650305176338936]]",4.961768703460693
4,4,0.8682365643625073,"[[2.9599669890604936, -0.3666320277565955, 0.6754377606290166], [3.3830111000858007, -0.5, 0.6572268116806513], [3.0524719408668526, -0.30271574162899695, 0.4235972021782446], [1.3430502214346394, -0.21335079007405694, 1], [3.137494424374384, 0.1559261379462083, 0.5672515408991672], [1.8231918126041684, -0.4521249330749886, 0.4669400725031058], [3.665488473411468, -0.48454461113729147, 1], [1, 0.5, 0.7266742755789671], [1, 0.346695864949239, 1], [9.28502604253671, -0.2825137333736101, 1]]",6.202210879325866
5,5,0.8932198986198001,"[[3.409235041998239, -0.5, 0.33957551318771223], [7.869686666859272, -0.2746303584659306, 0.5752276884281318], [1, -0.5, 0.7963969542599026], [1, -0.2179613671906705, 1], [1, 0.3268399987814869, 1], [6.093103881991361, -0.495588134472708, 0.7152306248211949], [9.605153366636666, -0.5, 0.8190373398286398], [7.897318810425958, -0.008387264376590264, 1], [7.092787746514283, 0.17142060354653205, 0.30909140868626334], [9.28502604253671, -0.2825137333736101, 1]]",7.44265305519104
6,6,0.9019126843718557,"[[8.838862297899817, -0.3846346878936414, 0.6215601555783445], [5.243010973152564, -0.33438885806683544, 0.5081935941576567], [1, -0.5, 0.7963969542599026], [1, -0.5, 1], [2.6489482834732265, -0.5, 0.9506280206773016], [1, -0.24383183324053825, 1], [1, 0.3292608688356863, 1], [6.769046626753915, 0.4390503446305526, 0.7249796710791798], [6.144259516583597, -0.5, 0.5168647330947143], [5.675386288500427, 0.3494567637469893, 0.7450265317802744]]",8.683095231056214
7,7,0.9019126843718557,"[[8.838862297899817, -0.3846346878936414, 0.6215601555783445], [5.243010973152564, -0.33438885806683544, 0.5081935941576567], [1, -0.5, 0.7963969542599026], [1, -0.5, 1], [2.6489482834732265, -0.5, 0.9506280206773016], [1, -0.24383183324053825, 1], [1, 0.3292608688356863, 1], [6.769046626753915, 0.4390503446305526, 0.7249796710791798], [6.144259516583597, -0.5, 0.5168647330947143], [5.675386288500427, 0.3494567637469893, 0.7450265317802744]]",9.923537406921387
8,8,0.9471667927191008,"[[1, -0.45245123271117044, 0.8040893839238115], [3.3830111000858007, -0.5, 0.6572268116806513], [3.7144609086363016, -0.007271399542581075, 0.623642866430502], [1, -0.48111755626483366, 1], [4.954549676870504, -0.5, 0.656840504483571], [9.954317563149136, -0.4521249330749886, 0.8560647506836193], [7.893737620614859, -0.018025368463924663, 1], [1, 0.22482550883098046, 0.9111048110849396], [7.188131604632641, -0.13151939392612005, 1], [6.056298490251839, -0.02846934066948348, 0.9524568988132435]]",11.16397958278656
9,9,0.9471667927191008,"[[1, -0.45245123271117044, 0.8040893839238115], [3.3830111000858007, -0.5, 0.6572268116806513], [3.7144609086363016, -0.007271399542581075, 0.623642866430502], [1, -0.48111755626483366, 1], [4.954549676870504, -0.5, 0.656840504483571], [9.954317563149136, -0.4521249330749886, 0.8560647506836193], [7.893737620614859, -0.018025368463924663, 1], [1, 0.22482550883098046, 0.9111048110849396], [7.188131604632641, -0.13151939392612005, 1], [6.056298490251839, -0.02846934066948348, 0.9524568988132435]]",12.404421758651733
10,10,0.9471667927191008,"[[1, -0.45245123271117044, 0.8040893839238115], [3.3830111000858007, -0.5, 0.6572268116806513], [3.7144609086363016, -0.007271399542581075, 0.623642866430502], [1, -0.48111755626483366, 1], [4.954549676870504, -0.5, 0.656840504483571], [9.954317563149136, -0.4521249330749886, 0.8560647506836193], [7.893737620614859, -0.018025368463924663, 1], [1, 0.22482550883098046, 0.9111048110849396], [7.188131604632641, -0.13151939392612005, 1], [6.056298490251839, -0.02846934066948348, 0.9524568988132435]]",13.644863934516907
11,11,0.9477462082503314,"[[1.0371389611384079, -0.5, 0.730885045658431], [1, -0.5, 0.8401569542395764], [3.7144609086363016, -0.007271399542581075, 0.623642866430502], [1, -0.48111755626483366, 1], [1, -0.5, 0.5825943217472921], [9.954317563149136, 0.1605607226949254, 0.46877563450507864], [1.786516605288191, 0.5, 1], [7.897318810425958, -0.008387264376590264, 1], [1, -0.18079529821060958, 0.928538268888427], [6.056298490251839, -0.02846934066948348, 0.9524568988132435]]",14.88530611038208
12,12,0.9477462082503314,"[[1.0371389611384079, -0.5, 0.730885045658431], [1, -0.5, 0.8401569542395764], [3.7144609086363016, -0.007271399542581075, 0.623642866430502], [1, -0.48111755626483366, 1], [1, -0.5, 0.5825943217472921], [9.954317563149136, 0.1605607226949254, 0.46877563450507864], [1.786516605288191, 0.5, 1], [7.897318810425958, -0.008387264376590264, 1], [1, -0.18079529821060958, 0.928538268888427], [6.056298490251839, -0.02846934066948348, 0.9524568988132435]]",16.125748286247255
13,13,0.9725915434523646,"[[1.0371389611384079, -0.5, 0.730885045658431], [8.500671327125522, -0.44095985991128017, 0.7365098748391642], [1, 0.2839016851161121, 1], [1, -0.37945594454194903, 1], [3.888241298976355, -0.5, 1], [1.8208132927623852, -0.41255481724607324, 0.8565889640747786], [3.665488473411468, -0.48454461113729147, 1], [1, 0.22482550883098046, 0.9111048110849396], [1, 0.18354456212463136, 1], [6.056298490251839, -0.02846934066948348, 0.9524568988132435]]",17.366190462112428
14,14,0.9725915434523646,"[[1.0371389611384079, -0.5, 0.730885045658431], [8.500671327125522, -0.44095985991128017, 0.7365098748391642], [1, 0.2839016851161121, 1], [1, -0.37945594454194903, 1], [3.888241298976355, -0.5, 1], [1.8208132927623852, -0.41255481724607324, 0.8565889640747786], [3.665488473411468, -0.48454461113729147, 1], [1, 0.22482550883098046, 0.9111048110849396], [1, 0.18354456212463136, 1], [6.056298490251839, -0.02846934066948348, 0.9524568988132435]]",18.6066326379776
15,15,0.9725915434523646,"[[1.0371389611384079, -0.5, 0.730885045658431], [8.500671327125522, -0.44095985991128017, 0.7365098748391642], [1, 0.2839016851161121, 1], [1, -0.37945594454194903, 1], [3.888241298976355, -0.5, 1], [1.8208132927623852, -0.41255481724607324, 0.8565889640747786], [3.665488473411468, -0.48454461113729147, 1], [1, 0.22482550883098046, 0.9111048110849396], [1, 0.18354456212463136, 1], [6.056298490251839, -0.02846934066948348, 0.9524568988132435]]",19.847074813842774
16,16,0.9725915434523646,"[[1.0371389611384079, -0.5, 0.730885045658431], [8.500671327125522, -0.44095985991128017, 0.7365098748391642], [1, 0.2839016851161121, 1], [1, -0.37945594454194903, 1], [3.888241298976355, -0.5, 1], [1.8208132927623852, -0.41255481724607324, 0.8565889640747786], [3.665488473411468, -0.48454461113729147, 1], [1, 0.22482550883098046, 0.9111048110849396], [1, 0.18354456212463136, 1], [6.056298490251839, -0.02846934066948348, 0.9524568988132435]]",21.087516989707947
17,17,0.9836601512196579,"[[3.409235041998239, -0.5, 1], [3.569346650485737, -0.49224736685705606, 1], [3.7144609086363016, -0.007271399542581075, 0.8343824236537427], [1, -0.2179613671906705, 1], [4.954549676870504, -0.5, 0.656840504483571], [9.954317563149136, 0.40749910203034956, 0.5265092408396259], [5.829362911133948, 0.4287186104793489, 0.9530825874041076], [1.1044889333811143, 0.3264122000821441, 0.9612351229630478], [7.188131604632641, -0.007436619628861885, 1], [6.056298490251839, -0.02846934066948348, 0.9524568988132435]]",22.32795916557312
18,18,0.9836601512196579,"[[3.409235041998239, -0.5, 1], [3.569346650485737, -0.49224736685705606, 1], [3.7144609086363016, -0.007271399542581075, 0.8343824236537427], [1, -0.2179613671906705, 1], [4.954549676870504, -0.5, 0.656840504483571], [9.954317563149136, 0.40749910203034956, 0.5265092408396259], [5.829362911133948, 0.4287186104793489, 0.9530825874041076], [1.1044889333811143, 0.3264122000821441, 0.9612351229630478], [7.188131604632641, -0.007436619628861885, 1], [6.056298490251839, -0.02846934066948348, 0.9524568988132435]]",23.568401341438292
19,19,0.9836601512196579,"[[3.409235041998239, -0.5, 1], [3.569346650485737, -0.49224736685705606, 1], [3.7144609086363016, -0.007271399542581075, 0.8343824236537427], [1, -0.2179613671906705, 1], [4.954549676870504, -0.5, 0.656840504483571], [9.954317563149136, 0.40749910203034956, 0.5265092408396259], [5.829362911133948, 0.4287186104793489, 0.9530825874041076], [1.1044889333811143, 0.3264122000821441, 0.9612351229630478], [7.188131604632641, -0.007436619628861885, 1], [6.056298490251839, -0.02846934066948348, 0.9524568988132435]]",24.808843517303465
20,20,0.9836601512196579,"[[3.409235041998239, -0.5, 1], [3.569346650485737, -0.49224736685705606, 1], [3.7144609086363016, -0.007271399542581075, 0.8343824236537427], [1, -0.2179613671906705, 1], [4.954549676870504, -0.5, 0.656840504483571], [9.954317563149136, 0.40749910203034956, 0.5265092408396259], [5.829362911133948, 0.4287186104793489, 0.9530825874041076], [1.1044889333811143, 0.3264122000821441, 0.9612351229630478], [7.188131604632641, -0.007436619628861885, 1], [6.056298490251839, -0.02846934066948348, 0.9524568988132435]]",26.049285693168642
21,21,0.9836601512196579,"[[3.409235041998239, -0.5, 1], [3.569346650485737, -0.49224736685705606, 1], [3.7144609086363016, -0.007271399542581075, 0.8343824236537427], [1, -0.2179613671906705, 1], [4.954549676870504, -0.5, 0.656840504483571], [9.954317563149136, 0.40749910203034956, 0.5265092408396259], [5.829362911133948, 0.4287186104793489, 0.9530825874041076], [1.1044889333811143, 0.3264122000821441, 0.9612351229630478], [7.188131604632641, -0.007436619628861885, 1], [6.056298490251839, -0.02846934066948348, 0.9524568988132435]]",27.289727869033815
22,22,0.9910455845978169,"[[3.409235041998239, -0.5, 0.33957551318771223], [6.645994545918491, -0.29113618948104514, 0.5513865692088675], [1, 0.356335241925027, 0.7478313119929196], [1, -0.5, 1], [1, -0.5, 0.9603731418304976], [9.954317563149136, 0.40749910203034956, 0.5265092408396259], [7.5603368095038235, -0.018025368463924663, 1], [7.238370098318624, -0.044833524254361476, 1], [2.365957923924726, 0.08910111512496147, 1], [6.056298490251839, -0.02846934066948348, 0.9524568988132435]]",28.530170044898988
23,23,0.9910455845978169,"[[3.409235041998239, -0.5, 0.33957551318771223], [6.645994545918491, -0.29113618948104514, 0.5513865692088675], [1, 0.356335241925027, 0.7478313119929196], [1, -0.5, 1], [1, -0.5, 0.9603731418304976], [9.954317563149136, 0.40749910203034956, 0.5265092408396259], [7.5603368095038235, -0.018025368463924663, 1], [7.238370098318624, -0.044833524254361476, 1], [2.365957923924726, 0.08910111512496147, 1], [6.056298490251839, -0.02846934066948348, 0.9524568988132435]]",29.77061222076416
24,24,0.9910455845978169,"[[3.409235041998239, -0.5, 0.33957551318771223], [6.645994545918491, -0.29113618948104514, 0.5513865692088675], [1, 0.356335241925027, 0.7478313119929196], [1, -0.5, 1], [1, -0.5, 0.9603731418304976], [9.954317563149136, 0.40749910203034956, 0.5265092408396259], [7.5603368095038235, -0.018025368463924663, 1], [7.238370098318624, -0.044833524254361476, 1], [2.365957923924726, 0.08910111512496147, 1], [6.056298490251839, -0.02846934066948348, 0.9524568988132435]]",31.011054396629333
25,25,0.9910455845978169,"[[3.409235041998239, -0.5, 0.33957551318771223], [6.645994545918491, -0.29113618948104514, 0.5513865692088675], [1, 0.356335241925027, 0.7478313119929196], [1, -0.5, 1], [1, -0.5, 0.9603731418304976], [9.954317563149136, 0.40749910203034956, 0.5265092408396259], [7.5603368095038235, -0.018025368463924663, 1], [7.238370098318624, -0.044833524254361476, 1], [2.365957923924726, 0.08910111512496147, 1], [6.056298490251839, -0.02846934066948348, 0.9524568988132435]]",32.25149657249451
26,26,0.9910455845978169,"[[3.409235041998239, -0.5, 0.33957551318771223], [6.645994545918491, -0.29113618948104514, 0.5513865692088675], [1, 0.356335241925027, 0.7478313119929196], [1, -0.5, 1], [1, -0.5, 0.9603731418304976], [9.954317563149136, 0.40749910203034956, 0.5265092408396259], [7.5603368095038235, -0.018025368463924663, 1], [7.238370098318624, -0.044833524254361476, 1], [2.365957923924726, 0.08910111512496147, 1], [6.056298490251839, -0.02846934066948348, 0.9524568988132435]]",33.49193874835968
27,27,0.9910455845978169,"[[3.409235041998239, -0.5, 0.33957551318771223], [6.645994545918491, -0.29113618948104514, 0.5513865692088675], [1, 0.356335241925027, 0.7478313119929196], [1, -0.5, 1], [1, -0.5, 0.9603731418304976], [9.954317563149136, 0.40749910203034956, 0.5265092408396259], [7.5603368095038235, -0.018025368463924663, 1], [7.238370098318624, -0.044833524254361476, 1], [2.365957923924726, 0.08910111512496147, 1], [6.056298490251839, -0.02846934066948348, 0.9524568988132435]]",34.732380924224856
28,28,0.9910455845978169,"[[3.409235041998239, -0.5, 0.33957551318771223], [6.645994545918491, -0.29113618948104514, 0.5513865692088675], [1, 0.356335241925027, 0.7478313119929196], [1, -0.5, 1], [1, -0.5, 0.9603731418304976], [9.954317563149136, 0.40749910203034956, 0.5265092408396259], [7.5603368095038235, -0.018025368463924663, 1], [7.238370098318624, -0.044833524254361476, 1], [2.365957923924726, 0.08910111512496147, 1], [6.056298490251839, -0.02846934066948348, 0.9524568988132435]]",35.972823100090025
29,29,0.9910455845978169,"[[3.409235041998239, -0.5, 0.33957551318771223], [6.645994545918491, -0.29113618948104514, 0.5513865692088675], [1, 0.356335241925027, 0.7478313119929196], [1, -0.5, 1], [1, -0.5, 0.9603731418304976], [9.954317563149136, 0.40749910203034956, 0.5265092408396259], [7.5603368095038235, -0.018025368463924663, 1], [7.238370098318624, -0.044833524254361476, 1], [2.365957923924726, 0.08910111512496147, 1], [6.056298490251839, -0.02846934066948348, 0.9524568988132435]]",37.2132652759552
30,30,0.9910455845978169,"[[3.409235041998239, -0.5, 0.33957551318771223], [6.645994545918491, -0.29113618948104514, 0.5513865692088675], [1, 0.356335241925027, 0.7478313119929196], [1, -0.5, 1], [1, -0.5, 0.9603731418304976], [9.954317563149136, 0.40749910203034956, 0.5265092408396259], [7.5603368095038235, -0.018025368463924663, 1], [7.238370098318624, -0.044833524254361476, 1], [2.365957923924726, 0.08910111512496147, 1], [6.056298490251839, -0.02846934066948348, 0.9524568988132435]]",38.45370745182037
31,31,0.9910455845978169,"[[3.409235041998239, -0.5, 0.33957551318771223], [6.645994545918491, -0.29113618948104514, 0.5513865692088675], [1, 0.356335241925027, 0.7478313119929196], [1, -0.5, 1], [1, -0.5, 0.9603731418304976], [9.954317563149136, 0.40749910203034956, 0.5265092408396259], [7.5603368095038235, -0.018025368463924663, 1], [7.238370098318624, -0.044833524254361476, 1], [2.365957923924726, 0.08910111512496147, 1], [6.056298490251839, -0.02846934066948348, 0.9524568988132435]]",39.69414962768555
32,32,0.9910455845978169,"[[3.409235041998239, -0.5, 0.33957551318771223], [6.645994545918491, -0.29113618948104514, 0.5513865692088675], [1, 0.356335241925027, 0.7478313119929196], [1, -0.5, 1], [1, -0.5, 0.9603731418304976], [9.954317563149136, 0.40749910203034956, 0.5265092408396259], [7.5603368095038235, -0.018025368463924663, 1], [7.238370098318624, -0.044833524254361476, 1], [2.365957923924726, 0.08910111512496147, 1], [6.056298490251839, -0.02846934066948348, 0.9524568988132435]]",40.93459180355072
33,33,0.9910455845978169,"[[3.409235041998239, -0.5, 0.33957551318771223], [6.645994545918491, -0.29113618948104514, 0.5513865692088675], [1, 0.356335241925027, 0.7478313119929196], [1, -0.5, 1], [1, -0.5, 0.9603731418304976], [9.954317563149136, 0.40749910203034956, 0.5265092408396259], [7.5603368095038235, -0.018025368463924663, 1], [7.238370098318624, -0.044833524254361476, 1], [2.365957923924726, 0.08910111512496147, 1], [6.056298490251839, -0.02846934066948348, 0.9524568988132435]]",42.17503397941589
34,34,0.9910455845978169,"[[3.409235041998239, -0.5, 0.33957551318771223], [6.645994545918491, -0.29113618948104514, 0.5513865692088675], [1, 0.356335241925027, 0.7478313119929196], [1, -0.5, 1], [1, -0.5, 0.9603731418304976], [9.954317563149136, 0.40749910203034956, 0.5265092408396259], [7.5603368095038235, -0.018025368463924663, 1], [7.238370098318624, -0.044833524254361476, 1], [2.365957923924726, 0.08910111512496147, 1], [6.056298490251839, -0.02846934066948348, 0.9524568988132435]]",43.41547615528107
35,35,0.9910455845978169,"[[3.409235041998239, -0.5, 0.33957551318771223], [6.645994545918491, -0.29113618948104514, 0.5513865692088675], [1, 0.356335241925027, 0.7478313119929196], [1, -0.5, 1], [1, -0.5, 0.9603731418304976], [9.954317563149136, 0.40749910203034956, 0.5265092408396259], [7.5603368095038235, -0.018025368463924663, 1], [7.238370098318624, -0.044833524254361476, 1], [2.365957923924726, 0.08910111512496147, 1], [6.056298490251839, -0.02846934066948348, 0.9524568988132435]]",44.65591833114624
36,36,1.002704044494401,"[[3.409235041998239, -0.42966665748350297, 0.33957551318771223], [1, 0.0753869157937538, 0.5484050449190877], [2.8186264706040625, -0.4886822181755589, 1], [2.7155226672687576, -0.5, 0.6647189329276082], [5.082381302444454, -0.024867233232774538, 1], [4.1753537928501725, 0.353013378214581, 0.7233868588107932], [7.5603368095038235, -0.018025368463924663, 1], [7.897318810425958, -0.008387264376590264, 1], [1, 0.18354456212463136, 1], [9.612569219124167, 0.5, 0.927270563724632]]",45.896360507011416
37,37,1.002704044494401,"[[3.409235041998239, -0.42966665748350297, 0.33957551318771223], [1, 0.0753869157937538, 0.5484050449190877], [2.8186264706040625, -0.4886822181755589, 1], [2.7155226672687576, -0.5, 0.6647189329276082], [5.082381302444454, -0.024867233232774538, 1], [4.1753537928501725, 0.353013378214581, 0.7233868588107932], [7.5603368095038235, -0.018025368463924663, 1], [7.897318810425958, -0.008387264376590264, 1], [1, 0.18354456212463136, 1], [9.612569219124167, 0.5, 0.927270563724632]]",47.136802682876585
38,38,1.002704044494401,"[[3.409235041998239, -0.42966665748350297, 0.33957551318771223], [1, 0.0753869157937538, 0.5484050449190877], [2.8186264706040625, -0.4886822181755589, 1], [2.7155226672687576, -0.5, 0.6647189329276082], [5.082381302444454, -0.024867233232774538, 1], [4.1753537928501725, 0.353013378214581, 0.7233868588107932], [7.5603368095038235, -0.018025368463924663, 1], [7.897318810425958, -0.008387264376590264, 1], [1, 0.18354456212463136, 1], [9.612569219124167, 0.5, 0.927270563724632]]",48.37724485874176
39,39,1.002704044494401,"[[3.409235041998239, -0.42966665748350297, 0.33957551318771223], [1, 0.0753869157937538, 0.5484050449190877], [2.8186264706040625, -0.4886822181755589, 1], [2.7155226672687576, -0.5, 0.6647189329276082], [5.082381302444454, -0.024867233232774538, 1], [4.1753537928501725, 0.353013378214581, 0.7233868588107932], [7.5603368095038235, -0.018025368463924663, 1], [7.897318810425958, -0.008387264376590264, 1], [1, 0.18354456212463136, 1], [9.612569219124167, 0.5, 0.927270563724632]]",49.61768703460693
40,40,1.002704044494401,"[[3.409235041998239, -0.42966665748350297, 0.33957551318771223], [1, 0.0753869157937538, 0.5484050449190877], [2.8186264706040625, -0.4886822181755589, 1], [2.7155226672687576, -0.5, 0.6647189329276082], [5.082381302444454, -0.024867233232774538, 1], [4.1753537928501725, 0.353013378214581, 0.7233868588107932], [7.5603368095038235, -0.018025368463924663, 1], [7.897318810425958, -0.008387264376590264, 1], [1, 0.18354456212463136, 1], [9.612569219124167, 0.5, 0.927270563724632]]",50.85812921047211
41,41,1.002704044494401,"[[3.409235041998239, -0.42966665748350297, 0.33957551318771223], [1, 0.0753869157937538, 0.5484050449190877], [2.8186264706040625, -0.4886822181755589, 1], [2.7155226672687576, -0.5, 0.6647189329276082], [5.082381302444454, -0.024867233232774538, 1], [4.1753537928501725, 0.353013378214581, 0.7233868588107932], [7.5603368095038235, -0.018025368463924663, 1], [7.897318810425958, -0.008387264376590264, 1], [1, 0.18354456212463136, 1], [9.612569219124167, 0.5, 0.927270563724632]]",52.098571386337284
42,42,1.002704044494401,"[[3.409235041998239, -0.42966665748350297, 0.33957551318771223], [1, 0.0753869157937538, 0.5484050449190877], [2.8186264706040625, -0.4886822181755589, 1], [2.7155226672687576, -0.5, 0.6647189329276082], [5.082381302444454, -0.024867233232774538, 1], [4.1753537928501725, 0.353013378214581, 0.7233868588107932], [7.5603368095038235, -0.018025368463924663, 1], [7.897318810425958, -0.008387264376590264, 1], [1, 0.18354456212463136, 1], [9.612569219124167, 0.5, 0.927270563724632]]",53.33901356220245
43,43,1.002704044494401,"[[3.409235041998239, -0.42966665748350297, 0.33957551318771223], [1, 0.0753869157937538, 0.5484050449190877], [2.8186264706040625, -0.4886822181755589, 1], [2.7155226672687576, -0.5, 0.6647189329276082], [5.082381302444454, -0.024867233232774538, 1], [4.1753537928501725, 0.353013378214581, 0.7233868588107932], [7.5603368095038235, -0.018025368463924663, 1], [7.897318810425958, -0.008387264376590264, 1], [1, 0.18354456212463136, 1], [9.612569219124167, 0.5, 0.927270563724632]]",54.57945573806763
44,44,1.002704044494401,"[[3.409235041998239, -0.42966665748350297, 0.33957551318771223], [1, 0.0753869157937538, 0.5484050449190877], [2.8186264706040625, -0.4886822181755589, 1], [2.7155226672687576, -0.5, 0.6647189329276082], [5.082381302444454, -0.024867233232774538, 1], [4.1753537928501725, 0.353013378214581, 0.7233868588107932], [7.5603368095038235, -0.018025368463924663, 1], [7.897318810425958, -0.008387264376590264, 1], [1, 0.18354456212463136, 1], [9.612569219124167, 0.5, 0.927270563724632]]",55.8198979139328
45,45,1.002704044494401,"[[3.409235041998239, -0.42966665748350297, 0.33957551318771223], [1, 0.0753869157937538, 0.5484050449190877], [2.8186264706040625, -0.4886822181755589, 1], [2.7155226672687576, -0.5, 0.6647189329276082], [5.082381302444454, -0.024867233232774538, 1], [4.1753537928501725, 0.353013378214581, 0.7233868588107932], [7.5603368095038235, -0.018025368463924663, 1], [7.897318810425958, -0.008387264376590264, 1], [1, 0.18354456212463136, 1], [9.612569219124167, 0.5, 0.927270563724632]]",57.060340089797975
46,46,1.002704044494401,"[[3.409235041998239, -0.42966665748350297, 0.33957551318771223], [1, 0.0753869157937538, 0.5484050449190877], [2.8186264706040625, -0.4886822181755589, 1], [2.7155226672687576, -0.5, 0.6647189329276082], [5.082381302444454, -0.024867233232774538, 1], [4.1753537928501725, 0.353013378214581, 0.7233868588107932], [7.5603368095038235, -0.018025368463924663, 1], [7.897318810425958, -0.008387264376590264, 1], [1, 0.18354456212463136, 1], [9.612569219124167, 0.5, 0.927270563724632]]",58.300782265663145
47,47,1.002704044494401,"[[3.409235041998239, -0.42966665748350297, 0.33957551318771223], [1, 0.0753869157937538, 0.5484050449190877], [2.8186264706040625, -0.4886822181755589, 1], [2.7155226672687576, -0.5, 0.6647189329276082], [5.082381302444454, -0.024867233232774538, 1], [4.1753537928501725, 0.353013378214581, 0.7233868588107932], [7.5603368095038235, -0.018025368463924663, 1], [7.897318810425958, -0.008387264376590264, 1], [1, 0.18354456212463136, 1], [9.612569219124167, 0.5, 0.927270563724632]]",59.54122444152832
48,48,1.002704044494401,"[[3.409235041998239, -0.42966665748350297, 0.33957551318771223], [1, 0.0753869157937538, 0.5484050449190877], [2.8186264706040625, -0.4886822181755589, 1], [2.7155226672687576, -0.5, 0.6647189329276082], [5.082381302444454, -0.024867233232774538, 1], [4.1753537928501725, 0.353013378214581, 0.7233868588107932], [7.5603368095038235, -0.018025368463924663, 1], [7.897318810425958, -0.008387264376590264, 1], [1, 0.18354456212463136, 1], [9.612569219124167, 0.5, 0.927270563724632]]",60.78166661739349
49,49,1.002704044494401,"[[3.409235041998239, -0.42966665748350297, 0.33957551318771223], [1, 0.0753869157937538, 0.5484050449190877], [2.8186264706040625, -0.4886822181755589, 1], [2.7155226672687576, -0.5, 0.6647189329276082], [5.082381302444454, -0.024867233232774538, 1], [4.1753537928501725, 0.353013378214581, 0.7233868588107932], [7.5603368095038235, -0.018025368463924663, 1], [7.897318810425958, -0.008387264376590264, 1], [1, 0.18354456212463136, 1], [9.612569219124167, 0.5, 0.927270563724632]]",62.02210879325867
50,50,1.002704044494401,"[[3.409235041998239, -0.42966665748350297, 0.33957551318771223], [1, 0.0753869157937538, 0.5484050449190877], [2.8186264706040625, -0.4886822181755589, 1], [2.7155226672687576, -0.5, 0.6647189329276082], [5.082381302444454, -0.024867233232774538, 1], [4.1753537928501725, 0.353013378214581, 0.7233868588107932], [7.5603368095038235, -0.018025368463924663, 1], [7.897318810425958, -0.008387264376590264, 1], [1, 0.18354456212463136, 1], [9.612569219124167, 0.5, 0.927270563724632]]",63.26255096912384
51,51,1.0034664136166545,"[[3.409235041998239, -0.5, 0.6938728385630983], [2.18063121016639, -0.5, 0.7243755130540612], [3.0634414866601976, -0.3361718380298996, 0.3187853505031949], [4.8330772105006545, 0.5, 1], [3.1327064898525507, -0.28218752644102474, 0.8512817977130573], [1, -0.22725571167963896, 1], [3.665488473411468, -0.48454461113729147, 1], [1, 0.18401121446410845, 1], [1, 0.18354456212463136, 1], [6.056298490251839, -0.02846934066948348, 0.9524568988132435]]",64.50299314498902
52,52,1.0034664136166545,"[[3.409235041998239, -0.5, 0.6938728385630983], [2.18063121016639, -0.5, 0.7243755130540612], [3.0634414866601976, -0.3361718380298996, 0.3187853505031949], [4.8330772105006545, 0.5, 1], [3.1327064898525507, -0.28218752644102474, 0.8512817977130573], [1, -0.22725571167963896, 1], [3.665488473411468, -0.48454461113729147, 1], [1, 0.18401121446410845, 1], [1, 0.18354456212463136, 1], [6.056298490251839, -0.02846934066948348, 0.9524568988132435]]",65.74343532085419
53,53,1.0034664136166545,"[[3.409235041998239, -0.5, 0.6938728385630983], [2.18063121016639, -0.5, 0.7243755130540612], [3.0634414866601976, -0.3361718380298996, 0.3187853505031949], [4.8330772105006545, 0.5, 1], [3.1327064898525507, -0.28218752644102474, 0.8512817977130573], [1, -0.22725571167963896, 1], [3.665488473411468, -0.48454461113729147, 1], [1, 0.18401121446410845, 1], [1, 0.18354456212463136, 1], [6.056298490251839, -0.02846934066948348, 0.9524568988132435]]",66.98387749671936
54,54,1.0034664136166545,"[[3.409235041998239, -0.5, 0.6938728385630983], [2.18063121016639, -0.5, 0.7243755130540612], [3.0634414866601976, -0.3361718380298996, 0.3187853505031949], [4.8330772105006545, 0.5, 1], [3.1327064898525507, -0.28218752644102474, 0.8512817977130573], [1, -0.22725571167963896, 1], [3.665488473411468, -0.48454461113729147, 1], [1, 0.18401121446410845, 1], [1, 0.18354456212463136, 1], [6.056298490251839, -0.02846934066948348, 0.9524568988132435]]",68.22431967258453
55,55,1.0034664136166545,"[[3.409235041998239, -0.5, 0.6938728385630983], [2.18063121016639, -0.5, 0.7243755130540612], [3.0634414866601976, -0.3361718380298996, 0.3187853505031949], [4.8330772105006545, 0.5, 1], [3.1327064898525507, -0.28218752644102474, 0.8512817977130573], [1, -0.22725571167963896, 1], [3.665488473411468, -0.48454461113729147, 1], [1, 0.18401121446410845, 1], [1, 0.18354456212463136, 1], [6.056298490251839, -0.02846934066948348, 0.9524568988132435]]",69.46476184844971
56,56,1.0034664136166545,"[[3.409235041998239, -0.5, 0.6938728385630983], [2.18063121016639, -0.5, 0.7243755130540612], [3.0634414866601976, -0.3361718380298996, 0.3187853505031949], [4.8330772105006545, 0.5, 1], [3.1327064898525507, -0.28218752644102474, 0.8512817977130573], [1, -0.22725571167963896, 1], [3.665488473411468, -0.48454461113729147, 1], [1, 0.18401121446410845, 1], [1, 0.18354456212463136, 1], [6.056298490251839, -0.02846934066948348, 0.9524568988132435]]",70.70520402431488
57,57,1.0034664136166545,"[[3.409235041998239, -0.5, 0.6938728385630983], [2.18063121016639, -0.5, 0.7243755130540612], [3.0634414866601976, -0.3361718380298996, 0.3187853505031949], [4.8330772105006545, 0.5, 1], [3.1327064898525507, -0.28218752644102474, 0.8512817977130573], [1, -0.22725571167963896, 1], [3.665488473411468, -0.48454461113729147, 1], [1, 0.18401121446410845, 1], [1, 0.18354456212463136, 1], [6.056298490251839, -0.02846934066948348, 0.9524568988132435]]",71.94564620018005
58,58,1.0034664136166545,"[[3.409235041998239, -0.5, 0.6938728385630983], [2.18063121016639, -0.5, 0.7243755130540612], [3.0634414866601976, -0.3361718380298996, 0.3187853505031949], [4.8330772105006545, 0.5, 1], [3.1327064898525507, -0.28218752644102474, 0.8512817977130573], [1, -0.22725571167963896, 1], [3.665488473411468, -0.48454461113729147, 1], [1, 0.18401121446410845, 1], [1, 0.18354456212463136, 1], [6.056298490251839, -0.02846934066948348, 0.9524568988132435]]",73.18608837604523
59,59,1.024149442807852,"[[8.974589087749258, -0.3830334374347587, 0.17519974901698687], [6.645994545918491, -0.29113618948104514, 0.5513865692088675], [3.6871513755711165, -0.34282460636742734, 0.8410846759823222], [4.8330772105006545, -0.02722673969227873, 1], [4.732294049490708, -0.02061605068467559, 0.9523378596087142], [9.954317563149136, 0.1605607226949254, 0.6839474279368918], [8.07239244451133, 0.5, 1], [7.238370098318624, -0.044833524254361476, 1], [7.188131604632641, -0.007436619628861885, 1], [6.056298490251839, -0.02846934066948348, 0.9524568988132435]]",74.4265305519104
60,60,1.024149442807852,"[[8.974589087749258, -0.3830334374347587, 0.17519974901698687], [6.645994545918491, -0.29113618948104514, 0.5513865692088675], [3.6871513755711165, -0.34282460636742734, 0.8410846759823222], [4.8330772105006545, -0.02722673969227873, 1], [4.732294049490708, -0.02061605068467559, 0.9523378596087142], [9.954317563149136, 0.1605607226949254, 0.6839474279368918], [8.07239244451133, 0.5, 1], [7.238370098318624, -0.044833524254361476, 1], [7.188131604632641, -0.007436619628861885, 1], [6.056298490251839, -0.02846934066948348, 0.9524568988132435]]",75.66697272777557
61,61,1.024149442807852,"[[8.974589087749258, -0.3830334374347587, 0.17519974901698687], [6.645994545918491, -0.29113618948104514, 0.5513865692088675], [3.6871513755711165, -0.34282460636742734, 0.8410846759823222], [4.8330772105006545, -0.02722673969227873, 1], [4.732294049490708, -0.02061605068467559, 0.9523378596087142], [9.954317563149136, 0.1605607226949254, 0.6839474279368918], [8.07239244451133, 0.5, 1], [7.238370098318624, -0.044833524254361476, 1], [7.188131604632641, -0.007436619628861885, 1], [6.056298490251839, -0.02846934066948348, 0.9524568988132435]]",76.90741490364074
62,62,1.024149442807852,"[[8.974589087749258, -0.3830334374347587, 0.17519974901698687], [6.645994545918491, -0.29113618948104514, 0.5513865692088675], [3.6871513755711165, -0.34282460636742734, 0.8410846759823222], [4.8330772105006545, -0.02722673969227873, 1], [4.732294049490708, -0.02061605068467559, 0.9523378596087142], [9.954317563149136, 0.1605607226949254, 0.6839474279368918], [8.07239244451133, 0.5, 1], [7.238370098318624, -0.044833524254361476, 1], [7.188131604632641, -0.007436619628861885, 1], [6.056298490251839, -0.02846934066948348, 0.9524568988132435]]",78.14785707950593
63,63,1.024149442807852,"[[8.974589087749258, -0.3830334374347587, 0.17519974901698687], [6.645994545918491, -0.29113618948104514, 0.5513865692088675], [3.6871513755711165, -0.34282460636742734, 0.8410846759823222], [4.8330772105006545, -0.02722673969227873, 1], [4.732294049490708, -0.02061605068467559, 0.9523378596087142], [9.954317563149136, 0.1605607226949254, 0.6839474279368918], [8.07239244451133, 0.5, 1], [7.238370098318624, -0.044833524254361476, 1], [7.188131604632641, -0.007436619628861885, 1], [6.056298490251839, -0.02846934066948348, 0.9524568988132435]]",79.3882992553711
64,64,1.0300383684025043,"[[9.23107247580953, -0.3574730631118753, 0.23661247766448884], [4.41020963126946, -0.029610171543684616, 0.9831717323031122], [1, 0.2839016851161121, 1], [2.7034122669864518, -0.4429685607313901, 0.6621087188936757], [4.321329714574878, -0.5, 0.6887026777545446], [4.1753537928501725, 0.353013378214581, 0.7233868588107932], [7.5603368095038235, -0.018025368463924663, 0.9738301690022335], [4.955949118236257, 0.5, 1], [1, 0.3861977693392471, 1], [7.557620487848782, -0.037700542771495316, 1]]",80.62874143123626
65,65,1.0458006430233597,"[[1.520542700139221, -0.3596890133071263, 0.5054634275719883], [4.41020963126946, -0.029610171543684616, 1], [1, 0.2839016851161121, 1], [1, -0.5, 1], [4.732294049490708, -0.02061605068467559, 0.9523378596087142], [1, 0.36983037887575976, 1], [7.5603368095038235, -0.018025368463924663, 0.9738301690022335], [7.238370098318624, -0.044833524254361476, 1], [2.559179056994517, 0.22413307226047915, 0.9719166775088721], [3.2131494259049607, -0.4946032956296283, 1]]",81.86918360710143
66,66,1.0458006430233597,"[[1.520542700139221, -0.3596890133071263, 0.5054634275719883], [4.41020963126946, -0.029610171543684616, 1], [1, 0.2839016851161121, 1], [1, -0.5, 1], [4.732294049490708, -0.02061605068467559, 0.9523378596087142], [1, 0.36983037887575976, 1], [7.5603368095038235, -0.018025368463924663, 0.9738301690022335], [7.238370098318624, -0.044833524254361476, 1], [2.559179056994517, 0.22413307226047915, 0.9719166775088721], [3.2131494259049607, -0.4946032956296283, 1]]",83.10962578296662
67,67,1.0458006430233597,"[[1.520542700139221, -0.3596890133071263, 0.5054634275719883], [4.41020963126946, -0.029610171543684616, 1], [1, 0.2839016851161121, 1], [1, -0.5, 1], [4.732294049490708, -0.02061605068467559, 0.9523378596087142], [1, 0.36983037887575976, 1], [7.5603368095038235, -0.018025368463924663, 0.9738301690022335], [7.238370098318624, -0.044833524254361476, 1], [2.559179056994517, 0.22413307226047915, 0.9719166775088721], [3.2131494259049607, -0.4946032956296283, 1]]",84.35006795883179
68,68,1.0458006430233597,"[[1.520542700139221, -0.3596890133071263, 0.5054634275719883], [4.41020963126946, -0.029610171543684616, 1], [1, 0.2839016851161121, 1], [1, -0.5, 1], [4.732294049490708, -0.02061605068467559, 0.9523378596087142], [1, 0.36983037887575976, 1], [7.5603368095038235, -0.018025368463924663, 0.9738301690022335], [7.238370098318624, -0.044833524254361476, 1], [2.559179056994517, 0.22413307226047915, 0.9719166775088721], [3.2131494259049607, -0.4946032956296283, 1]]",85.59051013469696
69,69,1.0458006430233597,"[[1.520542700139221, -0.3596890133071263, 0.5054634275719883], [4.41020963126946, -0.029610171543684616, 1], [1, 0.2839016851161121, 1], [1, -0.5, 1], [4.732294049490708, -0.02061605068467559, 0.9523378596087142], [1, 0.36983037887575976, 1], [7.5603368095038235, -0.018025368463924663, 0.9738301690022335], [7.238370098318624, -0.044833524254361476, 1], [2.559179056994517, 0.22413307226047915, 0.9719166775088721], [3.2131494259049607, -0.4946032956296283, 1]]",86.83095231056214
70,70,1.0458006430233597,"[[1.520542700139221, -0.3596890133071263, 0.5054634275719883], [4.41020963126946, -0.029610171543684616, 1], [1, 0.2839016851161121, 1], [1, -0.5, 1], [4.732294049490708, -0.02061605068467559, 0.9523378596087142], [1, 0.36983037887575976, 1], [7.5603368095038235, -0.018025368463924663, 0.9738301690022335], [7.238370098318624, -0.044833524254361476, 1], [2.559179056994517, 0.22413307226047915, 0.9719166775088721], [3.2131494259049607, -0.4946032956296283, 1]]",88.07139448642731
71,71,1.0458006430233597,"[[1.520542700139221, -0.3596890133071263, 0.5054634275719883], [4.41020963126946, -0.029610171543684616, 1], [1, 0.2839016851161121, 1], [1, -0.5, 1], [4.732294049490708, -0.02061605068467559, 0.9523378596087142], [1, 0.36983037887575976, 1], [7.5603368095038235, -0.018025368463924663, 0.9738301690022335], [7.238370098318624, -0.044833524254361476, 1], [2.559179056994517, 0.22413307226047915, 0.9719166775088721], [3.2131494259049607, -0.4946032956296283, 1]]",89.31183666229248
72,72,1.0458006430233597,"[[1.520542700139221, -0.3596890133071263, 0.5054634275719883], [4.41020963126946, -0.029610171543684616, 1], [1, 0.2839016851161121, 1], [1, -0.5, 1], [4.732294049490708, -0.02061605068467559, 0.9523378596087142], [1, 0.36983037887575976, 1], [7.5603368095038235, -0.018025368463924663, 0.9738301690022335], [7.238370098318624, -0.044833524254361476, 1], [2.559179056994517, 0.22413307226047915, 0.9719166775088721], [3.2131494259049607, -0.4946032956296283, 1]]",90.55227883815765
73,73,1.0458006430233597,"[[1.520542700139221, -0.3596890133071263, 0.5054634275719883], [4.41020963126946, -0.029610171543684616, 1], [1, 0.2839016851161121, 1], [1, -0.5, 1], [4.732294049490708, -0.02061605068467559, 0.9523378596087142], [1, 0.36983037887575976, 1], [7.5603368095038235, -0.018025368463924663, 0.9738301690022335], [7.238370098318624, -0.044833524254361476, 1], [2.559179056994517, 0.22413307226047915, 0.9719166775088721], [3.2131494259049607, -0.4946032956296283, 1]]",91.79272101402283
74,74,1.0458006430233597,"[[1.520542700139221, -0.3596890133071263, 0.5054634275719883], [4.41020963126946, -0.029610171543684616, 1], [1, 0.2839016851161121, 1], [1, -0.5, 1], [4.732294049490708, -0.02061605068467559, 0.9523378596087142], [1, 0.36983037887575976, 1], [7.5603368095038235, -0.018025368463924663, 0.9738301690022335], [7.238370098318624, -0.044833524254361476, 1], [2.559179056994517, 0.22413307226047915, 0.9719166775088721], [3.2131494259049607, -0.4946032956296283, 1]]",93.033163189888
75,75,1.0458006430233597,"[[1.520542700139221, -0.3596890133071263, 0.5054634275719883], [4.41020963126946, -0.029610171543684616, 1], [1, 0.2839016851161121, 1], [1, -0.5, 1], [4.732294049490708, -0.02061605068467559, 0.9523378596087142], [1, 0.36983037887575976, 1], [7.5603368095038235, -0.018025368463924663, 0.9738301690022335], [7.238370098318624, -0.044833524254361476, 1], [2.559179056994517, 0.22413307226047915, 0.9719166775088721], [3.2131494259049607, -0.4946032956296283, 1]]",94.27360536575317
76,76,1.0458006430233597,"[[1.520542700139221, -0.3596890133071263, 0.5054634275719883], [4.41020963126946, -0.029610171543684616, 1], [1, 0.2839016851161121, 1], [1, -0.5, 1], [4.732294049490708, -0.02061605068467559, 0.9523378596087142], [1, 0.36983037887575976, 1], [7.5603368095038235, -0.018025368463924663, 0.9738301690022335], [7.238370098318624, -0.044833524254361476, 1], [2.559179056994517, 0.22413307226047915, 0.9719166775088721], [3.2131494259049607, -0.4946032956296283, 1]]",95.51404754161835
77,77,1.0458006430233597,"[[1.520542700139221, -0.3596890133071263, 0.5054634275719883], [4.41020963126946, -0.029610171543684616, 1], [1, 0.2839016851161121, 1], [1, -0.5, 1], [4.732294049490708, -0.02061605068467559, 0.9523378596087142], [1, 0.36983037887575976, 1], [7.5603368095038235, -0.018025368463924663, 0.9738301690022335], [7.238370098318624, -0.044833524254361476, 1], [2.559179056994517, 0.22413307226047915, 0.9719166775088721], [3.2131494259049607, -0.4946032956296283, 1]]",96.75448971748352
78,78,1.053381988730531,"[[3.409235041998239, -0.42966665748350297, 0.33957551318771223], [5.036040285902198, -0.029610171543684616, 1], [1.175070696578366, -0.22203457697022017, 0.9583319525268577], [1, -0.4297021604095026, 1], [2.404054918574084, -0.5, 1], [1, -0.22725571167963896, 0.920288592379396], [7.893737620614859, -0.018025368463924663, 1], [6.769046626753915, 0.5, 1], [2.365957923924726, 0.08910111512496147, 1], [6.056298490251839, -0.02846934066948348, 1]]",97.99493189334869
79,79,1.087897633464986,"[[5.130657173165788, -0.022031893144532966, 1], [4.41020963126946, -0.029610171543684616, 1], [1, -0.38242457857101725, 0.4771804366617145], [4.8330772105006545, 0.5, 0.7765364750230184], [5.082381302444454, -0.024867233232774538, 1], [6.634038980280906, -0.4291742340566209, 0.9391005288107571], [7.5603368095038235, -0.018025368463924663, 0.9738301690022335], [7.238370098318624, -0.044833524254361476, 1], [1, 0.18354456212463136, 1], [6.056298490251839, -0.02846934066948348, 1]]",99.23537406921386
80,80,1.087897633464986,"[[5.130657173165788, -0.022031893144532966, 1], [4.41020963126946, -0.029610171543684616, 1], [1, -0.38242457857101725, 0.4771804366617145], [4.8330772105006545, 0.5, 0.7765364750230184], [5.082381302444454, -0.024867233232774538, 1], [6.634038980280906, -0.4291742340566209, 0.9391005288107571], [7.5603368095038235, -0.018025368463924663, 0.9738301690022335], [7.238370098318624, -0.044833524254361476, 1], [1, 0.18354456212463136, 1], [6.056298490251839, -0.02846934066948348, 1]]",100.47581624507905
81,81,1.087897633464986,"[[5.130657173165788, -0.022031893144532966, 1], [4.41020963126946, -0.029610171543684616, 1], [1, -0.38242457857101725, 0.4771804366617145], [4.8330772105006545, 0.5, 0.7765364750230184], [5.082381302444454, -0.024867233232774538, 1], [6.634038980280906, -0.4291742340566209, 0.9391005288107571], [7.5603368095038235, -0.018025368463924663, 0.9738301690022335], [7.238370098318624, -0.044833524254361476, 1], [1, 0.18354456212463136, 1], [6.056298490251839, -0.02846934066948348, 1]]",101.71625842094421
82,82,1.087897633464986,"[[5.130657173165788, -0.022031893144532966, 1], [4.41020963126946, -0.029610171543684616, 1], [1, -0.38242457857101725, 0.4771804366617145], [4.8330772105006545, 0.5, 0.7765364750230184], [5.082381302444454, -0.024867233232774538, 1], [6.634038980280906, -0.4291742340566209, 0.9391005288107571], [7.5603368095038235, -0.018025368463924663, 0.9738301690022335], [7.238370098318624, -0.044833524254361476, 1], [1, 0.18354456212463136, 1], [6.056298490251839, -0.02846934066948348, 1]]",102.95670059680938
83,83,1.087897633464986,"[[5.130657173165788, -0.022031893144532966, 1], [4.41020963126946, -0.029610171543684616, 1], [1, -0.38242457857101725, 0.4771804366617145], [4.8330772105006545, 0.5, 0.7765364750230184], [5.082381302444454, -0.024867233232774538, 1], [6.634038980280906, -0.4291742340566209, 0.9391005288107571], [7.5603368095038235, -0.018025368463924663, 0.9738301690022335], [7.238370098318624, -0.044833524254361476, 1], [1, 0.18354456212463136, 1], [6.056298490251839, -0.02846934066948348, 1]]",104.19714277267457
84,84,1.087897633464986,"[[5.130657173165788, -0.022031893144532966, 1], [4.41020963126946, -0.029610171543684616, 1], [1, -0.38242457857101725, 0.4771804366617145], [4.8330772105006545, 0.5, 0.7765364750230184], [5.082381302444454, -0.024867233232774538, 1], [6.634038980280906, -0.4291742340566209, 0.9391005288107571], [7.5603368095038235, -0.018025368463924663, 0.9738301690022335], [7.238370098318624, -0.044833524254361476, 1], [1, 0.18354456212463136, 1], [6.056298490251839, -0.02846934066948348, 1]]",105.43758494853974
85,85,1.0962144409072028,"[[2.3405934404310766, -0.4596251085535546, 0.9954585931249151], [4.41020963126946, -0.029610171543684616, 1], [4.4652312823432, 0.2839016851161121, 0.925242527640659], [4.8330772105006545, 0.5, 0.994676010966181], [4.732294049490708, -0.02061605068467559, 0.9523378596087142], [1, 0.08463090729803693, 1], [2.7856684199158055, 0.3128392530942091, 1], [1.3567261163566449, 0.3424830255837549, 1], [1, -0.2039598911608552, 0.8727150664129145], [7.557620487848782, -0.037700542771495316, 0.9365073962318688]]",106.6780271244049
86,86,1.0962144409072028,"[[2.3405934404310766, -0.4596251085535546, 0.9954585931249151], [4.41020963126946, -0.029610171543684616, 1], [4.4652312823432, 0.2839016851161121, 0.925242527640659], [4.8330772105006545, 0.5, 0.994676010966181], [4.732294049490708, -0.02061605068467559, 0.9523378596087142], [1, 0.08463090729803693, 1], [2.7856684199158055, 0.3128392530942091, 1], [1.3567261163566449, 0.3424830255837549, 1], [1, -0.2039598911608552, 0.8727150664129145], [7.557620487848782, -0.037700542771495316, 0.9365073962318688]]",107.91846930027008
87,87,1.0962144409072028,"[[2.3405934404310766, -0.4596251085535546, 0.9954585931249151], [4.41020963126946, -0.029610171543684616, 1], [4.4652312823432, 0.2839016851161121, 0.925242527640659], [4.8330772105006545, 0.5, 0.994676010966181], [4.732294049490708, -0.02061605068467559, 0.9523378596087142], [1, 0.08463090729803693, 1], [2.7856684199158055, 0.3128392530942091, 1], [1.3567261163566449, 0.3424830255837549, 1], [1, -0.2039598911608552, 0.8727150664129145], [7.557620487848782, -0.037700542771495316, 0.9365073962318688]]",109.15891147613526
88,88,1.0962144409072028,"[[2.3405934404310766, -0.4596251085535546, 0.9954585931249151], [4.41020963126946, -0.029610171543684616, 1], [4.4652312823432, 0.2839016851161121, 0.925242527640659], [4.8330772105006545, 0.5, 0.994676010966181], [4.732294049490708, -0.02061605068467559, 0.9523378596087142], [1, 0.08463090729803693, 1], [2.7856684199158055, 0.3128392530942091, 1], [1.3567261163566449, 0.3424830255837549, 1], [1, -0.2039598911608552, 0.8727150664129145], [7.557620487848782, -0.037700542771495316, 0.9365073962318688]]",110.39935365200043
89,89,1.0962144409072028,"[[2.3405934404310766, -0.4596251085535546, 0.9954585931249151], [4.41020963126946, -0.029610171543684616, 1], [4.4652312823432, 0.2839016851161121, 0.925242527640659], [4.8330772105006545, 0.5, 0.994676010966181], [4.732294049490708, -0.02061605068467559, 0.9523378596087142], [1, 0.08463090729803693, 1], [2.7856684199158055, 0.3128392530942091, 1], [1.3567261163566449, 0.3424830255837549, 1], [1, -0.2039598911608552, 0.8727150664129145], [7.557620487848782, -0.037700542771495316, 0.9365073962318688]]",111.6397958278656
90,90,1.125600930367719,"[[5.130657173165788, -0.022031893144532966, 1], [4.41020963126946, -0.029610171543684616, 1], [5.896616526511789, -0.013681814868120645, 0.9612943770675298], [4.8330772105006545, 0.5, 1], [4.732294049490708, -0.02061605068467559, 0.9523378596087142], [1, 0.08463090729803693, 1], [7.5603368095038235, -0.018025368463924663, 0.9738301690022335], [7.238370098318624, 0.48332967746445366, 1], [6.614567947256379, 0.291358579446085, 0.9520672745199493], [7.557620487848782, -0.037700542771495316, 0.9914110064838607]]",112.88023800373077
91,91,1.125600930367719,"[[5.130657173165788, -0.022031893144532966, 1], [4.41020963126946, -0.029610171543684616, 1], [5.896616526511789, -0.013681814868120645, 0.9612943770675298], [4.8330772105006545, 0.5, 1], [4.732294049490708, -0.02061605068467559, 0.9523378596087142], [1, 0.08463090729803693, 1], [7.5603368095038235, -0.018025368463924663, 0.9738301690022335], [7.238370098318624, 0.48332967746445366, 1], [6.614567947256379, 0.291358579446085, 0.9520672745199493], [7.557620487848782, -0.037700542771495316, 0.9914110064838607]]",114.12068017959595
92,92,1.125600930367719,"[[5.130657173165788, -0.022031893144532966, 1], [4.41020963126946, -0.029610171543684616, 1], [5.896616526511789, -0.013681814868120645, 0.9612943770675298], [4.8330772105006545, 0.5, 1], [4.732294049490708, -0.02061605068467559, 0.9523378596087142], [1, 0.08463090729803693, 1], [7.5603368095038235, -0.018025368463924663, 0.9738301690022335], [7.238370098318624, 0.48332967746445366, 1], [6.614567947256379, 0.291358579446085, 0.9520672745199493], [7.557620487848782, -0.037700542771495316, 0.9914110064838607]]",115.36112235546112
93,93,1.125600930367719,"[[5.130657173165788, -0.022031893144532966, 1], [4.41020963126946, -0.029610171543684616, 1], [5.896616526511789, -0.013681814868120645, 0.9612943770675298], [4.8330772105006545, 0.5, 1], [4.732294049490708, -0.02061605068467559, 0.9523378596087142], [1, 0.08463090729803693, 1], [7.5603368095038235, -0.018025368463924663, 0.9738301690022335], [7.238370098318624, 0.48332967746445366, 1], [6.614567947256379, 0.291358579446085, 0.9520672745199493], [7.557620487848782, -0.037700542771495316, 0.9914110064838607]]",116.60156453132629
94,94,1.125600930367719,"[[5.130657173165788, -0.022031893144532966, 1], [4.41020963126946, -0.029610171543684616, 1], [5.896616526511789, -0.013681814868120645, 0.9612943770675298], [4.8330772105006545, 0.5, 1], [4.732294049490708, -0.02061605068467559, 0.9523378596087142], [1, 0.08463090729803693, 1], [7.5603368095038235, -0.018025368463924663, 0.9738301690022335], [7.238370098318624, 0.48332967746445366, 1], [6.614567947256379, 0.291358579446085, 0.9520672745199493], [7.557620487848782, -0.037700542771495316, 0.9914110064838607]]",117.84200670719147
95,95,1.125600930367719,"[[5.130657173165788, -0.022031893144532966, 1], [4.41020963126946, -0.029610171543684616, 1], [5.896616526511789, -0.013681814868120645, 0.9612943770675298], [4.8330772105006545, 0.5, 1], [4.732294049490708, -0.02061605068467559, 0.9523378596087142], [1, 0.08463090729803693, 1], [7.5603368095038235, -0.018025368463924663, 0.9738301690022335], [7.238370098318624, 0.48332967746445366, 1], [6.614567947256379, 0.291358579446085, 0.9520672745199493], [7.557620487848782, -0.037700542771495316, 0.9914110064838607]]",119.08244888305664
96,96,1.125600930367719,"[[5.130657173165788, -0.022031893144532966, 1], [4.41020963126946, -0.029610171543684616, 1], [5.896616526511789, -0.013681814868120645, 0.9612943770675298], [4.8330772105006545, 0.5, 1], [4.732294049490708, -0.02061605068467559, 0.9523378596087142], [1, 0.08463090729803693, 1], [7.5603368095038235, -0.018025368463924663, 0.9738301690022335], [7.238370098318624, 0.48332967746445366, 1], [6.614567947256379, 0.291358579446085, 0.9520672745199493], [7.557620487848782, -0.037700542771495316, 0.9914110064838607]]",120.32289105892181
97,97,1.125600930367719,"[[5.130657173165788, -0.022031893144532966, 1], [4.41020963126946, -0.029610171543684616, 1], [5.896616526511789, -0.013681814868120645, 0.9612943770675298], [4.8330772105006545, 0.5, 1], [4.732294049490708, -0.02061605068467559, 0.9523378596087142], [1, 0.08463090729803693, 1], [7.5603368095038235, -0.018025368463924663, 0.9738301690022335], [7.238370098318624, 0.48332967746445366, 1], [6.614567947256379, 0.291358579446085, 0.9520672745199493], [7.557620487848782, -0.037700542771495316, 0.9914110064838607]]",121.56333323478698
98,98,1.125600930367719,"[[5.130657173165788, -0.022031893144532966, 1], [4.41020963126946, -0.029610171543684616, 1], [5.896616526511789, -0.013681814868120645, 0.9612943770675298], [4.8330772105006545, 0.5, 1], [4.732294049490708, -0.02061605068467559, 0.9523378596087142], [1, 0.08463090729803693, 1], [7.5603368095038235, -0.018025368463924663, 0.9738301690022335], [7.238370098318624, 0.48332967746445366, 1], [6.614567947256379, 0.291358579446085, 0.9520672745199493], [7.557620487848782, -0.037700542771495316, 0.9914110064838607]]",122.80377541065216
99,99,1.125600930367719,"[[5.130657173165788, -0.022031893144532966, 1], [4.41020963126946, -0.029610171543684616, 1], [5.896616526511789, -0.013681814868120645, 0.9612943770675298], [4.8330772105006545, 0.5, 1], [4.732294049490708, -0.02061605068467559, 0.9523378596087142], [1, 0.08463090729803693, 1], [7.5603368095038235, -0.018025368463924663, 0.9738301690022335], [7.238370098318624, 0.48332967746445366, 1], [6.614567947256379, 0.291358579446085, 0.9520672745199493], [7.557620487848782, -0.037700542771495316, 0.9914110064838607]]",124.04421758651733
