,Generations,CCEA Fitness Values,Best_Sol,time
0,0,0.7278231470854399,"[[8.825746436033532, 0.12873695194988405, 0.728868500730598], [8.128091383148337, -0.42096306239175607, 1], [5.463302596637564, -0.04860277308196409, 0.11090750695127494], [8.365508842232703, -0.5, 0.5630165235577376], [6.615062068248218, -0.5, 0.30240233067975114], [20, 0.016926792413124225, 0.42013069551056553], [3.629756335904496, 0.35349968220543515, 0.5611056848122512], [3.2475631325298284, -0.463753213833475, 0.010104518642626459], [1.6162549705906222, -0.09793085334219703, 0.7833786808774126], [4.10164417808322, -0.5, 0.7105806450280643]]",1.3641009640693664
1,1,0.741717768433352,"[[4.374707203289625, 0.049911554392658375, 0.7523415083944069], [4.696935374160387, -0.2910699929368227, 0.12382447724477119], [13.741456630140116, -0.5, 0], [9.290847647583265, -0.4377436442609508, 0.5506811225038702], [5.27940027552188, 0.5, 0.9270144490117347], [1.4732335541038397, 0.5, 1], [8.709120924001793, -0.22543239840589813, 0.4161942362575385], [3.2475631325298284, -0.463753213833475, 0.010104518642626459], [20, 0.055498699366645865, 0.604618435343813], [7.026181793930124, -0.1592102561363009, 0.6677553597332083]]",2.728201928138733
2,2,0.7548601175501986,"[[9.176951332427091, 0.5, 0.48245292492373515], [1.7260885487040687, -0.4392114252313397, 0.9263434068731281], [12.93185797606596, -0.3101271050059587, 0.02191599900229052], [1, 0.10349546946202536, 0.8801706982217836], [19.319988735019166, 0.03287515227275102, 0.147676664896194], [6.323429087362915, -0.4316672415296153, 0.21482864256616047], [1.632954092950802, 0.5, 0.233512476845828], [1.1032101431372388, -0.15298404225075135, 0.5777278221465139], [1.1134463925055589, 0.023119654122965017, 0.24228271396214135], [4.10164417808322, -0.5, 0.7105806450280643]]",4.0923028922080995
3,3,0.7704224721310444,"[[9.63648527971338, 0.049911554392658375, 0.6748218428706767], [20, -0.5, 1], [10.949858255965193, -0.12983596471946757, 0.2300461446291364], [7.8454191314714645, 0.33061280988226227, 0.7550953547267787], [12.46300995433239, -0.08470439911843851, 0.964794022673934], [1, -0.5, 0.920422091346986], [6.68443344924301, 0.4292807545055748, 0.5262143549242508], [6.065725939653494, 0.20434060584346847, 0.9253306443828087], [8.700195646340099, 0.15161390756597676, 0.010183694880879446], [14.832701417023669, 0.5, 0]]",5.456403856277466
4,4,0.7967344887743759,"[[20, -0.0010975284242921001, 0], [7.286589576044746, 0.0718259100186068, 0.21930393698750833], [8.38704961587456, -0.4740339820255151, 0], [6.964138425243056, -0.23921960520702035, 0.9055435579805485], [6.615062068248218, -0.5, 0.30240233067975114], [9.606775459703622, -0.22868777897389442, 0.36691332899894585], [6.256012840120612, 0.39755029646256723, 0.06787298075078119], [8.936883812380124, 0.5, 1], [1, -0.09793085334219703, 0.7833786808774126], [5.020244290621959, -0.23154610289718847, 0.9654623286565923]]",6.820504820346832
5,5,0.7967344887743759,"[[20, -0.0010975284242921001, 0], [7.286589576044746, 0.0718259100186068, 0.21930393698750833], [8.38704961587456, -0.4740339820255151, 0], [6.964138425243056, -0.23921960520702035, 0.9055435579805485], [6.615062068248218, -0.5, 0.30240233067975114], [9.606775459703622, -0.22868777897389442, 0.36691332899894585], [6.256012840120612, 0.39755029646256723, 0.06787298075078119], [8.936883812380124, 0.5, 1], [1, -0.09793085334219703, 0.7833786808774126], [5.020244290621959, -0.23154610289718847, 0.9654623286565923]]",8.184605784416199
6,6,0.7967344887743759,"[[20, -0.0010975284242921001, 0], [7.286589576044746, 0.0718259100186068, 0.21930393698750833], [8.38704961587456, -0.4740339820255151, 0], [6.964138425243056, -0.23921960520702035, 0.9055435579805485], [6.615062068248218, -0.5, 0.30240233067975114], [9.606775459703622, -0.22868777897389442, 0.36691332899894585], [6.256012840120612, 0.39755029646256723, 0.06787298075078119], [8.936883812380124, 0.5, 1], [1, -0.09793085334219703, 0.7833786808774126], [5.020244290621959, -0.23154610289718847, 0.9654623286565923]]",9.548706748485564
7,7,0.8018975717499199,"[[3.2684204064889615, 0.21953233085847673, 0.5239565882331011], [8.138823987852497, -0.25765980423254625, 1], [8.717286387065938, 0.5, 0.005622059906082388], [7.445881286110879, 0.09005521607406608, 0.4167811416613857], [5.37060891767265, -0.36731409878729404, 0.09448602117716548], [9.606775459703622, -0.22868777897389442, 0.36691332899894585], [10.462119396048594, -0.2708187059969598, 0.3647233858576658], [8.936883812380124, 0.5, 1], [1, -0.5, 1], [20, -0.5, 0.778481224386855]]",10.912807712554931
8,8,0.8018975717499199,"[[3.2684204064889615, 0.21953233085847673, 0.5239565882331011], [8.138823987852497, -0.25765980423254625, 1], [8.717286387065938, 0.5, 0.005622059906082388], [7.445881286110879, 0.09005521607406608, 0.4167811416613857], [5.37060891767265, -0.36731409878729404, 0.09448602117716548], [9.606775459703622, -0.22868777897389442, 0.36691332899894585], [10.462119396048594, -0.2708187059969598, 0.3647233858576658], [8.936883812380124, 0.5, 1], [1, -0.5, 1], [20, -0.5, 0.778481224386855]]",12.276908676624299
9,9,0.8018975717499199,"[[3.2684204064889615, 0.21953233085847673, 0.5239565882331011], [8.138823987852497, -0.25765980423254625, 1], [8.717286387065938, 0.5, 0.005622059906082388], [7.445881286110879, 0.09005521607406608, 0.4167811416613857], [5.37060891767265, -0.36731409878729404, 0.09448602117716548], [9.606775459703622, -0.22868777897389442, 0.36691332899894585], [10.462119396048594, -0.2708187059969598, 0.3647233858576658], [8.936883812380124, 0.5, 1], [1, -0.5, 1], [20, -0.5, 0.778481224386855]]",13.641009640693664
10,10,0.8018975717499199,"[[3.2684204064889615, 0.21953233085847673, 0.5239565882331011], [8.138823987852497, -0.25765980423254625, 1], [8.717286387065938, 0.5, 0.005622059906082388], [7.445881286110879, 0.09005521607406608, 0.4167811416613857], [5.37060891767265, -0.36731409878729404, 0.09448602117716548], [9.606775459703622, -0.22868777897389442, 0.36691332899894585], [10.462119396048594, -0.2708187059969598, 0.3647233858576658], [8.936883812380124, 0.5, 1], [1, -0.5, 1], [20, -0.5, 0.778481224386855]]",15.005110604763031
11,11,0.8018975717499199,"[[3.2684204064889615, 0.21953233085847673, 0.5239565882331011], [8.138823987852497, -0.25765980423254625, 1], [8.717286387065938, 0.5, 0.005622059906082388], [7.445881286110879, 0.09005521607406608, 0.4167811416613857], [5.37060891767265, -0.36731409878729404, 0.09448602117716548], [9.606775459703622, -0.22868777897389442, 0.36691332899894585], [10.462119396048594, -0.2708187059969598, 0.3647233858576658], [8.936883812380124, 0.5, 1], [1, -0.5, 1], [20, -0.5, 0.778481224386855]]",16.369211568832398
12,12,0.8018975717499199,"[[3.2684204064889615, 0.21953233085847673, 0.5239565882331011], [8.138823987852497, -0.25765980423254625, 1], [8.717286387065938, 0.5, 0.005622059906082388], [7.445881286110879, 0.09005521607406608, 0.4167811416613857], [5.37060891767265, -0.36731409878729404, 0.09448602117716548], [9.606775459703622, -0.22868777897389442, 0.36691332899894585], [10.462119396048594, -0.2708187059969598, 0.3647233858576658], [8.936883812380124, 0.5, 1], [1, -0.5, 1], [20, -0.5, 0.778481224386855]]",17.733312532901763
13,13,0.8080921556135965,"[[6.883127976992491, 0.1328586266621913, 0.3196022324628517], [8.24840092900602, -0.023281553509543862, 0.17757859714424729], [19.752418980492536, -0.13267229537056224, 0.5770253262354264], [7.445881286110879, -0.007587739423039502, 0.9738812626827568], [7.12276873339407, -0.3896688713018651, 0.7258047137777439], [5.552331994606202, -0.2502994393998492, 0.8215164092644486], [6.68443344924301, 0.4292807545055748, 0.7956455554079206], [6.4587115495488, 0.49982574500840626, 0.953739401955349], [1, -0.16685316960399726, 0.49478855429347324], [6.303004392563912, -0.36848058194032607, 0.129396923714939]]",19.09741349697113
14,14,0.8080921556135965,"[[6.883127976992491, 0.1328586266621913, 0.3196022324628517], [8.24840092900602, -0.023281553509543862, 0.17757859714424729], [19.752418980492536, -0.13267229537056224, 0.5770253262354264], [7.445881286110879, -0.007587739423039502, 0.9738812626827568], [7.12276873339407, -0.3896688713018651, 0.7258047137777439], [5.552331994606202, -0.2502994393998492, 0.8215164092644486], [6.68443344924301, 0.4292807545055748, 0.7956455554079206], [6.4587115495488, 0.49982574500840626, 0.953739401955349], [1, -0.16685316960399726, 0.49478855429347324], [6.303004392563912, -0.36848058194032607, 0.129396923714939]]",20.461514461040498
15,15,0.8080921556135965,"[[6.883127976992491, 0.1328586266621913, 0.3196022324628517], [8.24840092900602, -0.023281553509543862, 0.17757859714424729], [19.752418980492536, -0.13267229537056224, 0.5770253262354264], [7.445881286110879, -0.007587739423039502, 0.9738812626827568], [7.12276873339407, -0.3896688713018651, 0.7258047137777439], [5.552331994606202, -0.2502994393998492, 0.8215164092644486], [6.68443344924301, 0.4292807545055748, 0.7956455554079206], [6.4587115495488, 0.49982574500840626, 0.953739401955349], [1, -0.16685316960399726, 0.49478855429347324], [6.303004392563912, -0.36848058194032607, 0.129396923714939]]",21.825615425109863
16,16,0.8080921556135965,"[[6.883127976992491, 0.1328586266621913, 0.3196022324628517], [8.24840092900602, -0.023281553509543862, 0.17757859714424729], [19.752418980492536, -0.13267229537056224, 0.5770253262354264], [7.445881286110879, -0.007587739423039502, 0.9738812626827568], [7.12276873339407, -0.3896688713018651, 0.7258047137777439], [5.552331994606202, -0.2502994393998492, 0.8215164092644486], [6.68443344924301, 0.4292807545055748, 0.7956455554079206], [6.4587115495488, 0.49982574500840626, 0.953739401955349], [1, -0.16685316960399726, 0.49478855429347324], [6.303004392563912, -0.36848058194032607, 0.129396923714939]]",23.189716389179228
17,17,0.8080921556135965,"[[6.883127976992491, 0.1328586266621913, 0.3196022324628517], [8.24840092900602, -0.023281553509543862, 0.17757859714424729], [19.752418980492536, -0.13267229537056224, 0.5770253262354264], [7.445881286110879, -0.007587739423039502, 0.9738812626827568], [7.12276873339407, -0.3896688713018651, 0.7258047137777439], [5.552331994606202, -0.2502994393998492, 0.8215164092644486], [6.68443344924301, 0.4292807545055748, 0.7956455554079206], [6.4587115495488, 0.49982574500840626, 0.953739401955349], [1, -0.16685316960399726, 0.49478855429347324], [6.303004392563912, -0.36848058194032607, 0.129396923714939]]",24.553817353248597
18,18,0.8080921556135965,"[[6.883127976992491, 0.1328586266621913, 0.3196022324628517], [8.24840092900602, -0.023281553509543862, 0.17757859714424729], [19.752418980492536, -0.13267229537056224, 0.5770253262354264], [7.445881286110879, -0.007587739423039502, 0.9738812626827568], [7.12276873339407, -0.3896688713018651, 0.7258047137777439], [5.552331994606202, -0.2502994393998492, 0.8215164092644486], [6.68443344924301, 0.4292807545055748, 0.7956455554079206], [6.4587115495488, 0.49982574500840626, 0.953739401955349], [1, -0.16685316960399726, 0.49478855429347324], [6.303004392563912, -0.36848058194032607, 0.129396923714939]]",25.917918317317962
19,19,0.8080921556135965,"[[6.883127976992491, 0.1328586266621913, 0.3196022324628517], [8.24840092900602, -0.023281553509543862, 0.17757859714424729], [19.752418980492536, -0.13267229537056224, 0.5770253262354264], [7.445881286110879, -0.007587739423039502, 0.9738812626827568], [7.12276873339407, -0.3896688713018651, 0.7258047137777439], [5.552331994606202, -0.2502994393998492, 0.8215164092644486], [6.68443344924301, 0.4292807545055748, 0.7956455554079206], [6.4587115495488, 0.49982574500840626, 0.953739401955349], [1, -0.16685316960399726, 0.49478855429347324], [6.303004392563912, -0.36848058194032607, 0.129396923714939]]",27.282019281387328
20,20,0.8080921556135965,"[[6.883127976992491, 0.1328586266621913, 0.3196022324628517], [8.24840092900602, -0.023281553509543862, 0.17757859714424729], [19.752418980492536, -0.13267229537056224, 0.5770253262354264], [7.445881286110879, -0.007587739423039502, 0.9738812626827568], [7.12276873339407, -0.3896688713018651, 0.7258047137777439], [5.552331994606202, -0.2502994393998492, 0.8215164092644486], [6.68443344924301, 0.4292807545055748, 0.7956455554079206], [6.4587115495488, 0.49982574500840626, 0.953739401955349], [1, -0.16685316960399726, 0.49478855429347324], [6.303004392563912, -0.36848058194032607, 0.129396923714939]]",28.646120245456697
21,21,0.8080921556135965,"[[6.883127976992491, 0.1328586266621913, 0.3196022324628517], [8.24840092900602, -0.023281553509543862, 0.17757859714424729], [19.752418980492536, -0.13267229537056224, 0.5770253262354264], [7.445881286110879, -0.007587739423039502, 0.9738812626827568], [7.12276873339407, -0.3896688713018651, 0.7258047137777439], [5.552331994606202, -0.2502994393998492, 0.8215164092644486], [6.68443344924301, 0.4292807545055748, 0.7956455554079206], [6.4587115495488, 0.49982574500840626, 0.953739401955349], [1, -0.16685316960399726, 0.49478855429347324], [6.303004392563912, -0.36848058194032607, 0.129396923714939]]",30.010221209526062
22,22,0.8080921556135965,"[[6.883127976992491, 0.1328586266621913, 0.3196022324628517], [8.24840092900602, -0.023281553509543862, 0.17757859714424729], [19.752418980492536, -0.13267229537056224, 0.5770253262354264], [7.445881286110879, -0.007587739423039502, 0.9738812626827568], [7.12276873339407, -0.3896688713018651, 0.7258047137777439], [5.552331994606202, -0.2502994393998492, 0.8215164092644486], [6.68443344924301, 0.4292807545055748, 0.7956455554079206], [6.4587115495488, 0.49982574500840626, 0.953739401955349], [1, -0.16685316960399726, 0.49478855429347324], [6.303004392563912, -0.36848058194032607, 0.129396923714939]]",31.374322173595427
23,23,0.8080921556135965,"[[6.883127976992491, 0.1328586266621913, 0.3196022324628517], [8.24840092900602, -0.023281553509543862, 0.17757859714424729], [19.752418980492536, -0.13267229537056224, 0.5770253262354264], [7.445881286110879, -0.007587739423039502, 0.9738812626827568], [7.12276873339407, -0.3896688713018651, 0.7258047137777439], [5.552331994606202, -0.2502994393998492, 0.8215164092644486], [6.68443344924301, 0.4292807545055748, 0.7956455554079206], [6.4587115495488, 0.49982574500840626, 0.953739401955349], [1, -0.16685316960399726, 0.49478855429347324], [6.303004392563912, -0.36848058194032607, 0.129396923714939]]",32.738423137664796
24,24,0.8080921556135965,"[[6.883127976992491, 0.1328586266621913, 0.3196022324628517], [8.24840092900602, -0.023281553509543862, 0.17757859714424729], [19.752418980492536, -0.13267229537056224, 0.5770253262354264], [7.445881286110879, -0.007587739423039502, 0.9738812626827568], [7.12276873339407, -0.3896688713018651, 0.7258047137777439], [5.552331994606202, -0.2502994393998492, 0.8215164092644486], [6.68443344924301, 0.4292807545055748, 0.7956455554079206], [6.4587115495488, 0.49982574500840626, 0.953739401955349], [1, -0.16685316960399726, 0.49478855429347324], [6.303004392563912, -0.36848058194032607, 0.129396923714939]]",34.10252410173416
25,25,0.8080921556135965,"[[6.883127976992491, 0.1328586266621913, 0.3196022324628517], [8.24840092900602, -0.023281553509543862, 0.17757859714424729], [19.752418980492536, -0.13267229537056224, 0.5770253262354264], [7.445881286110879, -0.007587739423039502, 0.9738812626827568], [7.12276873339407, -0.3896688713018651, 0.7258047137777439], [5.552331994606202, -0.2502994393998492, 0.8215164092644486], [6.68443344924301, 0.4292807545055748, 0.7956455554079206], [6.4587115495488, 0.49982574500840626, 0.953739401955349], [1, -0.16685316960399726, 0.49478855429347324], [6.303004392563912, -0.36848058194032607, 0.129396923714939]]",35.46662506580353
26,26,0.8080921556135965,"[[6.883127976992491, 0.1328586266621913, 0.3196022324628517], [8.24840092900602, -0.023281553509543862, 0.17757859714424729], [19.752418980492536, -0.13267229537056224, 0.5770253262354264], [7.445881286110879, -0.007587739423039502, 0.9738812626827568], [7.12276873339407, -0.3896688713018651, 0.7258047137777439], [5.552331994606202, -0.2502994393998492, 0.8215164092644486], [6.68443344924301, 0.4292807545055748, 0.7956455554079206], [6.4587115495488, 0.49982574500840626, 0.953739401955349], [1, -0.16685316960399726, 0.49478855429347324], [6.303004392563912, -0.36848058194032607, 0.129396923714939]]",36.83072602987289
27,27,0.8080921556135965,"[[6.883127976992491, 0.1328586266621913, 0.3196022324628517], [8.24840092900602, -0.023281553509543862, 0.17757859714424729], [19.752418980492536, -0.13267229537056224, 0.5770253262354264], [7.445881286110879, -0.007587739423039502, 0.9738812626827568], [7.12276873339407, -0.3896688713018651, 0.7258047137777439], [5.552331994606202, -0.2502994393998492, 0.8215164092644486], [6.68443344924301, 0.4292807545055748, 0.7956455554079206], [6.4587115495488, 0.49982574500840626, 0.953739401955349], [1, -0.16685316960399726, 0.49478855429347324], [6.303004392563912, -0.36848058194032607, 0.129396923714939]]",38.19482699394226
28,28,0.8080921556135965,"[[6.883127976992491, 0.1328586266621913, 0.3196022324628517], [8.24840092900602, -0.023281553509543862, 0.17757859714424729], [19.752418980492536, -0.13267229537056224, 0.5770253262354264], [7.445881286110879, -0.007587739423039502, 0.9738812626827568], [7.12276873339407, -0.3896688713018651, 0.7258047137777439], [5.552331994606202, -0.2502994393998492, 0.8215164092644486], [6.68443344924301, 0.4292807545055748, 0.7956455554079206], [6.4587115495488, 0.49982574500840626, 0.953739401955349], [1, -0.16685316960399726, 0.49478855429347324], [6.303004392563912, -0.36848058194032607, 0.129396923714939]]",39.55892795801163
29,29,0.8080921556135965,"[[6.883127976992491, 0.1328586266621913, 0.3196022324628517], [8.24840092900602, -0.023281553509543862, 0.17757859714424729], [19.752418980492536, -0.13267229537056224, 0.5770253262354264], [7.445881286110879, -0.007587739423039502, 0.9738812626827568], [7.12276873339407, -0.3896688713018651, 0.7258047137777439], [5.552331994606202, -0.2502994393998492, 0.8215164092644486], [6.68443344924301, 0.4292807545055748, 0.7956455554079206], [6.4587115495488, 0.49982574500840626, 0.953739401955349], [1, -0.16685316960399726, 0.49478855429347324], [6.303004392563912, -0.36848058194032607, 0.129396923714939]]",40.923028922080995
30,30,0.8080921556135965,"[[6.883127976992491, 0.1328586266621913, 0.3196022324628517], [8.24840092900602, -0.023281553509543862, 0.17757859714424729], [19.752418980492536, -0.13267229537056224, 0.5770253262354264], [7.445881286110879, -0.007587739423039502, 0.9738812626827568], [7.12276873339407, -0.3896688713018651, 0.7258047137777439], [5.552331994606202, -0.2502994393998492, 0.8215164092644486], [6.68443344924301, 0.4292807545055748, 0.7956455554079206], [6.4587115495488, 0.49982574500840626, 0.953739401955349], [1, -0.16685316960399726, 0.49478855429347324], [6.303004392563912, -0.36848058194032607, 0.129396923714939]]",42.28712988615036
31,31,0.8080921556135965,"[[6.883127976992491, 0.1328586266621913, 0.3196022324628517], [8.24840092900602, -0.023281553509543862, 0.17757859714424729], [19.752418980492536, -0.13267229537056224, 0.5770253262354264], [7.445881286110879, -0.007587739423039502, 0.9738812626827568], [7.12276873339407, -0.3896688713018651, 0.7258047137777439], [5.552331994606202, -0.2502994393998492, 0.8215164092644486], [6.68443344924301, 0.4292807545055748, 0.7956455554079206], [6.4587115495488, 0.49982574500840626, 0.953739401955349], [1, -0.16685316960399726, 0.49478855429347324], [6.303004392563912, -0.36848058194032607, 0.129396923714939]]",43.651230850219726
32,32,0.811581597187761,"[[7.355931693466272, -0.15142344837602345, 0.3709188287984368], [8.24840092900602, -0.5, 1], [5.596683064557107, 0.08529596694810578, 0.1807850420603464], [3.789088564856377, 0.11629857824861115, 0.31209467088907505], [6.615062068248218, -0.5, 0.20042954090210102], [10.042753816793402, 0.46556039106883473, 0.5179141377601828], [1, -0.2195813541960306, 1], [6.065725939653494, 0.20434060584346847, 1], [20, 0.5, 0.07791518086280724], [5.020244290621959, -0.23154610289718847, 0.9654623286565923]]",45.01533181428909
33,33,0.811581597187761,"[[7.355931693466272, -0.15142344837602345, 0.3709188287984368], [8.24840092900602, -0.5, 1], [5.596683064557107, 0.08529596694810578, 0.1807850420603464], [3.789088564856377, 0.11629857824861115, 0.31209467088907505], [6.615062068248218, -0.5, 0.20042954090210102], [10.042753816793402, 0.46556039106883473, 0.5179141377601828], [1, -0.2195813541960306, 1], [6.065725939653494, 0.20434060584346847, 1], [20, 0.5, 0.07791518086280724], [5.020244290621959, -0.23154610289718847, 0.9654623286565923]]",46.379432778358456
34,34,0.811581597187761,"[[7.355931693466272, -0.15142344837602345, 0.3709188287984368], [8.24840092900602, -0.5, 1], [5.596683064557107, 0.08529596694810578, 0.1807850420603464], [3.789088564856377, 0.11629857824861115, 0.31209467088907505], [6.615062068248218, -0.5, 0.20042954090210102], [10.042753816793402, 0.46556039106883473, 0.5179141377601828], [1, -0.2195813541960306, 1], [6.065725939653494, 0.20434060584346847, 1], [20, 0.5, 0.07791518086280724], [5.020244290621959, -0.23154610289718847, 0.9654623286565923]]",47.74353374242783
35,35,0.811581597187761,"[[7.355931693466272, -0.15142344837602345, 0.3709188287984368], [8.24840092900602, -0.5, 1], [5.596683064557107, 0.08529596694810578, 0.1807850420603464], [3.789088564856377, 0.11629857824861115, 0.31209467088907505], [6.615062068248218, -0.5, 0.20042954090210102], [10.042753816793402, 0.46556039106883473, 0.5179141377601828], [1, -0.2195813541960306, 1], [6.065725939653494, 0.20434060584346847, 1], [20, 0.5, 0.07791518086280724], [5.020244290621959, -0.23154610289718847, 0.9654623286565923]]",49.107634706497194
36,36,0.811581597187761,"[[7.355931693466272, -0.15142344837602345, 0.3709188287984368], [8.24840092900602, -0.5, 1], [5.596683064557107, 0.08529596694810578, 0.1807850420603464], [3.789088564856377, 0.11629857824861115, 0.31209467088907505], [6.615062068248218, -0.5, 0.20042954090210102], [10.042753816793402, 0.46556039106883473, 0.5179141377601828], [1, -0.2195813541960306, 1], [6.065725939653494, 0.20434060584346847, 1], [20, 0.5, 0.07791518086280724], [5.020244290621959, -0.23154610289718847, 0.9654623286565923]]",50.47173567056656
37,37,0.811581597187761,"[[7.355931693466272, -0.15142344837602345, 0.3709188287984368], [8.24840092900602, -0.5, 1], [5.596683064557107, 0.08529596694810578, 0.1807850420603464], [3.789088564856377, 0.11629857824861115, 0.31209467088907505], [6.615062068248218, -0.5, 0.20042954090210102], [10.042753816793402, 0.46556039106883473, 0.5179141377601828], [1, -0.2195813541960306, 1], [6.065725939653494, 0.20434060584346847, 1], [20, 0.5, 0.07791518086280724], [5.020244290621959, -0.23154610289718847, 0.9654623286565923]]",51.835836634635925
38,38,0.811581597187761,"[[7.355931693466272, -0.15142344837602345, 0.3709188287984368], [8.24840092900602, -0.5, 1], [5.596683064557107, 0.08529596694810578, 0.1807850420603464], [3.789088564856377, 0.11629857824861115, 0.31209467088907505], [6.615062068248218, -0.5, 0.20042954090210102], [10.042753816793402, 0.46556039106883473, 0.5179141377601828], [1, -0.2195813541960306, 1], [6.065725939653494, 0.20434060584346847, 1], [20, 0.5, 0.07791518086280724], [5.020244290621959, -0.23154610289718847, 0.9654623286565923]]",53.19993759870529
39,39,0.811581597187761,"[[7.355931693466272, -0.15142344837602345, 0.3709188287984368], [8.24840092900602, -0.5, 1], [5.596683064557107, 0.08529596694810578, 0.1807850420603464], [3.789088564856377, 0.11629857824861115, 0.31209467088907505], [6.615062068248218, -0.5, 0.20042954090210102], [10.042753816793402, 0.46556039106883473, 0.5179141377601828], [1, -0.2195813541960306, 1], [6.065725939653494, 0.20434060584346847, 1], [20, 0.5, 0.07791518086280724], [5.020244290621959, -0.23154610289718847, 0.9654623286565923]]",54.564038562774655
40,40,0.811581597187761,"[[7.355931693466272, -0.15142344837602345, 0.3709188287984368], [8.24840092900602, -0.5, 1], [5.596683064557107, 0.08529596694810578, 0.1807850420603464], [3.789088564856377, 0.11629857824861115, 0.31209467088907505], [6.615062068248218, -0.5, 0.20042954090210102], [10.042753816793402, 0.46556039106883473, 0.5179141377601828], [1, -0.2195813541960306, 1], [6.065725939653494, 0.20434060584346847, 1], [20, 0.5, 0.07791518086280724], [5.020244290621959, -0.23154610289718847, 0.9654623286565923]]",55.92813952684403
41,41,0.811581597187761,"[[7.355931693466272, -0.15142344837602345, 0.3709188287984368], [8.24840092900602, -0.5, 1], [5.596683064557107, 0.08529596694810578, 0.1807850420603464], [3.789088564856377, 0.11629857824861115, 0.31209467088907505], [6.615062068248218, -0.5, 0.20042954090210102], [10.042753816793402, 0.46556039106883473, 0.5179141377601828], [1, -0.2195813541960306, 1], [6.065725939653494, 0.20434060584346847, 1], [20, 0.5, 0.07791518086280724], [5.020244290621959, -0.23154610289718847, 0.9654623286565923]]",57.29224049091339
42,42,0.8151105937198188,"[[6.016540256306511, 0.32072034026817, 0.8858919592638024], [20, -0.07349243545518641, 0.6500799766788339], [4.981427179736168, -0.13267229537056224, 0.5770253262354264], [9.251858914227602, -0.494458701605743, 1], [6.849878833827936, -0.4426600741067736, 0.09940354854746807], [5.552331994606202, -0.2502994393998492, 0.8215164092644486], [5.085433298402861, -0.5, 0.9068247787882051], [6.695820513892036, 0.5, 1], [1, -0.5, 1], [5.291854140138751, 0.2940683920645288, 0.42615159731361557]]",58.65634145498276
43,43,0.8151105937198188,"[[6.016540256306511, 0.32072034026817, 0.8858919592638024], [20, -0.07349243545518641, 0.6500799766788339], [4.981427179736168, -0.13267229537056224, 0.5770253262354264], [9.251858914227602, -0.494458701605743, 1], [6.849878833827936, -0.4426600741067736, 0.09940354854746807], [5.552331994606202, -0.2502994393998492, 0.8215164092644486], [5.085433298402861, -0.5, 0.9068247787882051], [6.695820513892036, 0.5, 1], [1, -0.5, 1], [5.291854140138751, 0.2940683920645288, 0.42615159731361557]]",60.020442419052124
44,44,0.8151105937198188,"[[6.016540256306511, 0.32072034026817, 0.8858919592638024], [20, -0.07349243545518641, 0.6500799766788339], [4.981427179736168, -0.13267229537056224, 0.5770253262354264], [9.251858914227602, -0.494458701605743, 1], [6.849878833827936, -0.4426600741067736, 0.09940354854746807], [5.552331994606202, -0.2502994393998492, 0.8215164092644486], [5.085433298402861, -0.5, 0.9068247787882051], [6.695820513892036, 0.5, 1], [1, -0.5, 1], [5.291854140138751, 0.2940683920645288, 0.42615159731361557]]",61.38454338312149
45,45,0.8151105937198188,"[[6.016540256306511, 0.32072034026817, 0.8858919592638024], [20, -0.07349243545518641, 0.6500799766788339], [4.981427179736168, -0.13267229537056224, 0.5770253262354264], [9.251858914227602, -0.494458701605743, 1], [6.849878833827936, -0.4426600741067736, 0.09940354854746807], [5.552331994606202, -0.2502994393998492, 0.8215164092644486], [5.085433298402861, -0.5, 0.9068247787882051], [6.695820513892036, 0.5, 1], [1, -0.5, 1], [5.291854140138751, 0.2940683920645288, 0.42615159731361557]]",62.748644347190854
46,46,0.8151105937198188,"[[6.016540256306511, 0.32072034026817, 0.8858919592638024], [20, -0.07349243545518641, 0.6500799766788339], [4.981427179736168, -0.13267229537056224, 0.5770253262354264], [9.251858914227602, -0.494458701605743, 1], [6.849878833827936, -0.4426600741067736, 0.09940354854746807], [5.552331994606202, -0.2502994393998492, 0.8215164092644486], [5.085433298402861, -0.5, 0.9068247787882051], [6.695820513892036, 0.5, 1], [1, -0.5, 1], [5.291854140138751, 0.2940683920645288, 0.42615159731361557]]",64.11274531126023
47,47,0.8151105937198188,"[[6.016540256306511, 0.32072034026817, 0.8858919592638024], [20, -0.07349243545518641, 0.6500799766788339], [4.981427179736168, -0.13267229537056224, 0.5770253262354264], [9.251858914227602, -0.494458701605743, 1], [6.849878833827936, -0.4426600741067736, 0.09940354854746807], [5.552331994606202, -0.2502994393998492, 0.8215164092644486], [5.085433298402861, -0.5, 0.9068247787882051], [6.695820513892036, 0.5, 1], [1, -0.5, 1], [5.291854140138751, 0.2940683920645288, 0.42615159731361557]]",65.47684627532959
48,48,0.8151105937198188,"[[6.016540256306511, 0.32072034026817, 0.8858919592638024], [20, -0.07349243545518641, 0.6500799766788339], [4.981427179736168, -0.13267229537056224, 0.5770253262354264], [9.251858914227602, -0.494458701605743, 1], [6.849878833827936, -0.4426600741067736, 0.09940354854746807], [5.552331994606202, -0.2502994393998492, 0.8215164092644486], [5.085433298402861, -0.5, 0.9068247787882051], [6.695820513892036, 0.5, 1], [1, -0.5, 1], [5.291854140138751, 0.2940683920645288, 0.42615159731361557]]",66.84094723939896
49,49,0.8151105937198188,"[[6.016540256306511, 0.32072034026817, 0.8858919592638024], [20, -0.07349243545518641, 0.6500799766788339], [4.981427179736168, -0.13267229537056224, 0.5770253262354264], [9.251858914227602, -0.494458701605743, 1], [6.849878833827936, -0.4426600741067736, 0.09940354854746807], [5.552331994606202, -0.2502994393998492, 0.8215164092644486], [5.085433298402861, -0.5, 0.9068247787882051], [6.695820513892036, 0.5, 1], [1, -0.5, 1], [5.291854140138751, 0.2940683920645288, 0.42615159731361557]]",68.20504820346832
50,50,0.8151105937198188,"[[6.016540256306511, 0.32072034026817, 0.8858919592638024], [20, -0.07349243545518641, 0.6500799766788339], [4.981427179736168, -0.13267229537056224, 0.5770253262354264], [9.251858914227602, -0.494458701605743, 1], [6.849878833827936, -0.4426600741067736, 0.09940354854746807], [5.552331994606202, -0.2502994393998492, 0.8215164092644486], [5.085433298402861, -0.5, 0.9068247787882051], [6.695820513892036, 0.5, 1], [1, -0.5, 1], [5.291854140138751, 0.2940683920645288, 0.42615159731361557]]",69.56914916753769
51,51,0.8151105937198188,"[[6.016540256306511, 0.32072034026817, 0.8858919592638024], [20, -0.07349243545518641, 0.6500799766788339], [4.981427179736168, -0.13267229537056224, 0.5770253262354264], [9.251858914227602, -0.494458701605743, 1], [6.849878833827936, -0.4426600741067736, 0.09940354854746807], [5.552331994606202, -0.2502994393998492, 0.8215164092644486], [5.085433298402861, -0.5, 0.9068247787882051], [6.695820513892036, 0.5, 1], [1, -0.5, 1], [5.291854140138751, 0.2940683920645288, 0.42615159731361557]]",70.93325013160705
52,52,0.8151105937198188,"[[6.016540256306511, 0.32072034026817, 0.8858919592638024], [20, -0.07349243545518641, 0.6500799766788339], [4.981427179736168, -0.13267229537056224, 0.5770253262354264], [9.251858914227602, -0.494458701605743, 1], [6.849878833827936, -0.4426600741067736, 0.09940354854746807], [5.552331994606202, -0.2502994393998492, 0.8215164092644486], [5.085433298402861, -0.5, 0.9068247787882051], [6.695820513892036, 0.5, 1], [1, -0.5, 1], [5.291854140138751, 0.2940683920645288, 0.42615159731361557]]",72.29735109567642
53,53,0.8151105937198188,"[[6.016540256306511, 0.32072034026817, 0.8858919592638024], [20, -0.07349243545518641, 0.6500799766788339], [4.981427179736168, -0.13267229537056224, 0.5770253262354264], [9.251858914227602, -0.494458701605743, 1], [6.849878833827936, -0.4426600741067736, 0.09940354854746807], [5.552331994606202, -0.2502994393998492, 0.8215164092644486], [5.085433298402861, -0.5, 0.9068247787882051], [6.695820513892036, 0.5, 1], [1, -0.5, 1], [5.291854140138751, 0.2940683920645288, 0.42615159731361557]]",73.66145205974578
54,54,0.8151105937198188,"[[6.016540256306511, 0.32072034026817, 0.8858919592638024], [20, -0.07349243545518641, 0.6500799766788339], [4.981427179736168, -0.13267229537056224, 0.5770253262354264], [9.251858914227602, -0.494458701605743, 1], [6.849878833827936, -0.4426600741067736, 0.09940354854746807], [5.552331994606202, -0.2502994393998492, 0.8215164092644486], [5.085433298402861, -0.5, 0.9068247787882051], [6.695820513892036, 0.5, 1], [1, -0.5, 1], [5.291854140138751, 0.2940683920645288, 0.42615159731361557]]",75.02555302381515
55,55,0.8207784303862734,"[[6.883127976992491, 0.1328586266621913, 0.3196022324628517], [6.659230865485776, -0.5, 1], [7.290440708364946, 0.09961748794374695, 0.6137654449438164], [7.445881286110879, -0.23513839482246102, 0.22516325781765423], [6.028755570939989, -0.5, 0.2892721021298232], [3.933175081319727, 0.4295135576188415, 1], [9.460398040993827, 0.5, 1], [6.065725939653494, -0.4466439700302321, 1], [1, 0.5, 0.7018061476358523], [20, -0.5, 0.778481224386855]]",76.38965398788451
56,56,0.8207784303862734,"[[6.883127976992491, 0.1328586266621913, 0.3196022324628517], [6.659230865485776, -0.5, 1], [7.290440708364946, 0.09961748794374695, 0.6137654449438164], [7.445881286110879, -0.23513839482246102, 0.22516325781765423], [6.028755570939989, -0.5, 0.2892721021298232], [3.933175081319727, 0.4295135576188415, 1], [9.460398040993827, 0.5, 1], [6.065725939653494, -0.4466439700302321, 1], [1, 0.5, 0.7018061476358523], [20, -0.5, 0.778481224386855]]",77.7537549519539
57,57,0.8207784303862734,"[[6.883127976992491, 0.1328586266621913, 0.3196022324628517], [6.659230865485776, -0.5, 1], [7.290440708364946, 0.09961748794374695, 0.6137654449438164], [7.445881286110879, -0.23513839482246102, 0.22516325781765423], [6.028755570939989, -0.5, 0.2892721021298232], [3.933175081319727, 0.4295135576188415, 1], [9.460398040993827, 0.5, 1], [6.065725939653494, -0.4466439700302321, 1], [1, 0.5, 0.7018061476358523], [20, -0.5, 0.778481224386855]]",79.11785591602326
58,58,0.8207784303862734,"[[6.883127976992491, 0.1328586266621913, 0.3196022324628517], [6.659230865485776, -0.5, 1], [7.290440708364946, 0.09961748794374695, 0.6137654449438164], [7.445881286110879, -0.23513839482246102, 0.22516325781765423], [6.028755570939989, -0.5, 0.2892721021298232], [3.933175081319727, 0.4295135576188415, 1], [9.460398040993827, 0.5, 1], [6.065725939653494, -0.4466439700302321, 1], [1, 0.5, 0.7018061476358523], [20, -0.5, 0.778481224386855]]",80.48195688009262
59,59,0.8207784303862734,"[[6.883127976992491, 0.1328586266621913, 0.3196022324628517], [6.659230865485776, -0.5, 1], [7.290440708364946, 0.09961748794374695, 0.6137654449438164], [7.445881286110879, -0.23513839482246102, 0.22516325781765423], [6.028755570939989, -0.5, 0.2892721021298232], [3.933175081319727, 0.4295135576188415, 1], [9.460398040993827, 0.5, 1], [6.065725939653494, -0.4466439700302321, 1], [1, 0.5, 0.7018061476358523], [20, -0.5, 0.778481224386855]]",81.84605784416199
60,60,0.8207784303862734,"[[6.883127976992491, 0.1328586266621913, 0.3196022324628517], [6.659230865485776, -0.5, 1], [7.290440708364946, 0.09961748794374695, 0.6137654449438164], [7.445881286110879, -0.23513839482246102, 0.22516325781765423], [6.028755570939989, -0.5, 0.2892721021298232], [3.933175081319727, 0.4295135576188415, 1], [9.460398040993827, 0.5, 1], [6.065725939653494, -0.4466439700302321, 1], [1, 0.5, 0.7018061476358523], [20, -0.5, 0.778481224386855]]",83.21015880823136
61,61,0.8207784303862734,"[[6.883127976992491, 0.1328586266621913, 0.3196022324628517], [6.659230865485776, -0.5, 1], [7.290440708364946, 0.09961748794374695, 0.6137654449438164], [7.445881286110879, -0.23513839482246102, 0.22516325781765423], [6.028755570939989, -0.5, 0.2892721021298232], [3.933175081319727, 0.4295135576188415, 1], [9.460398040993827, 0.5, 1], [6.065725939653494, -0.4466439700302321, 1], [1, 0.5, 0.7018061476358523], [20, -0.5, 0.778481224386855]]",84.57425977230072
62,62,0.8207784303862734,"[[6.883127976992491, 0.1328586266621913, 0.3196022324628517], [6.659230865485776, -0.5, 1], [7.290440708364946, 0.09961748794374695, 0.6137654449438164], [7.445881286110879, -0.23513839482246102, 0.22516325781765423], [6.028755570939989, -0.5, 0.2892721021298232], [3.933175081319727, 0.4295135576188415, 1], [9.460398040993827, 0.5, 1], [6.065725939653494, -0.4466439700302321, 1], [1, 0.5, 0.7018061476358523], [20, -0.5, 0.778481224386855]]",85.93836073637009
63,63,0.8207784303862734,"[[6.883127976992491, 0.1328586266621913, 0.3196022324628517], [6.659230865485776, -0.5, 1], [7.290440708364946, 0.09961748794374695, 0.6137654449438164], [7.445881286110879, -0.23513839482246102, 0.22516325781765423], [6.028755570939989, -0.5, 0.2892721021298232], [3.933175081319727, 0.4295135576188415, 1], [9.460398040993827, 0.5, 1], [6.065725939653494, -0.4466439700302321, 1], [1, 0.5, 0.7018061476358523], [20, -0.5, 0.778481224386855]]",87.30246170043945
64,64,0.8207784303862734,"[[6.883127976992491, 0.1328586266621913, 0.3196022324628517], [6.659230865485776, -0.5, 1], [7.290440708364946, 0.09961748794374695, 0.6137654449438164], [7.445881286110879, -0.23513839482246102, 0.22516325781765423], [6.028755570939989, -0.5, 0.2892721021298232], [3.933175081319727, 0.4295135576188415, 1], [9.460398040993827, 0.5, 1], [6.065725939653494, -0.4466439700302321, 1], [1, 0.5, 0.7018061476358523], [20, -0.5, 0.778481224386855]]",88.66656266450882
65,65,0.8207784303862734,"[[6.883127976992491, 0.1328586266621913, 0.3196022324628517], [6.659230865485776, -0.5, 1], [7.290440708364946, 0.09961748794374695, 0.6137654449438164], [7.445881286110879, -0.23513839482246102, 0.22516325781765423], [6.028755570939989, -0.5, 0.2892721021298232], [3.933175081319727, 0.4295135576188415, 1], [9.460398040993827, 0.5, 1], [6.065725939653494, -0.4466439700302321, 1], [1, 0.5, 0.7018061476358523], [20, -0.5, 0.778481224386855]]",90.03066362857818
66,66,0.8225861992066597,"[[9.176951332427091, 0.5, 1], [8.24840092900602, -0.5, 1], [6.345842252254509, -0.13095040745279996, 0.08763288338085622], [4.4730242574483565, -0.23138079235488226, 0], [7.509055345028604, -0.5, 0.20379649491449814], [3.933175081319727, 0.4295135576188415, 1], [20, 0.07264168358286435, 0.7661239136413784], [5.925172915316088, -0.4475206565872899, 1], [1, 0.5, 0.6620134921323279], [5.020244290621959, 0.4979883288992578, 0.5946227931411598]]",91.39476459264755
67,67,0.8310860539072916,"[[6.016540256306511, 0.5, 0.7207635604960433], [6.659230865485776, -0.5, 1], [6.345842252254509, -0.13095040745279996, 0.10615144260807091], [4.4730242574483565, -0.23138079235488226, 0], [6.89734088209837, -0.5, 0.7218081006551565], [3.933175081319727, 0.4295135576188415, 1], [5.085433298402861, -0.5, 0.9068247787882051], [7.65034712829525, 0.44713084907716394, 0.5629930930637904], [1, -0.5, 1], [20, -0.30768311870055204, 0]]",92.75886555671691
68,68,0.8310860539072916,"[[6.016540256306511, 0.5, 0.7207635604960433], [6.659230865485776, -0.5, 1], [6.345842252254509, -0.13095040745279996, 0.10615144260807091], [4.4730242574483565, -0.23138079235488226, 0], [6.89734088209837, -0.5, 0.7218081006551565], [3.933175081319727, 0.4295135576188415, 1], [5.085433298402861, -0.5, 0.9068247787882051], [7.65034712829525, 0.44713084907716394, 0.5629930930637904], [1, -0.5, 1], [20, -0.30768311870055204, 0]]",94.12296652078629
69,69,0.8310860539072916,"[[6.016540256306511, 0.5, 0.7207635604960433], [6.659230865485776, -0.5, 1], [6.345842252254509, -0.13095040745279996, 0.10615144260807091], [4.4730242574483565, -0.23138079235488226, 0], [6.89734088209837, -0.5, 0.7218081006551565], [3.933175081319727, 0.4295135576188415, 1], [5.085433298402861, -0.5, 0.9068247787882051], [7.65034712829525, 0.44713084907716394, 0.5629930930637904], [1, -0.5, 1], [20, -0.30768311870055204, 0]]",95.48706748485566
70,70,0.8310860539072916,"[[6.016540256306511, 0.5, 0.7207635604960433], [6.659230865485776, -0.5, 1], [6.345842252254509, -0.13095040745279996, 0.10615144260807091], [4.4730242574483565, -0.23138079235488226, 0], [6.89734088209837, -0.5, 0.7218081006551565], [3.933175081319727, 0.4295135576188415, 1], [5.085433298402861, -0.5, 0.9068247787882051], [7.65034712829525, 0.44713084907716394, 0.5629930930637904], [1, -0.5, 1], [20, -0.30768311870055204, 0]]",96.85116844892502
71,71,0.8310860539072916,"[[6.016540256306511, 0.5, 0.7207635604960433], [6.659230865485776, -0.5, 1], [6.345842252254509, -0.13095040745279996, 0.10615144260807091], [4.4730242574483565, -0.23138079235488226, 0], [6.89734088209837, -0.5, 0.7218081006551565], [3.933175081319727, 0.4295135576188415, 1], [5.085433298402861, -0.5, 0.9068247787882051], [7.65034712829525, 0.44713084907716394, 0.5629930930637904], [1, -0.5, 1], [20, -0.30768311870055204, 0]]",98.21526941299439
72,72,0.8310860539072916,"[[6.016540256306511, 0.5, 0.7207635604960433], [6.659230865485776, -0.5, 1], [6.345842252254509, -0.13095040745279996, 0.10615144260807091], [4.4730242574483565, -0.23138079235488226, 0], [6.89734088209837, -0.5, 0.7218081006551565], [3.933175081319727, 0.4295135576188415, 1], [5.085433298402861, -0.5, 0.9068247787882051], [7.65034712829525, 0.44713084907716394, 0.5629930930637904], [1, -0.5, 1], [20, -0.30768311870055204, 0]]",99.57937037706375
73,73,0.8310860539072916,"[[6.016540256306511, 0.5, 0.7207635604960433], [6.659230865485776, -0.5, 1], [6.345842252254509, -0.13095040745279996, 0.10615144260807091], [4.4730242574483565, -0.23138079235488226, 0], [6.89734088209837, -0.5, 0.7218081006551565], [3.933175081319727, 0.4295135576188415, 1], [5.085433298402861, -0.5, 0.9068247787882051], [7.65034712829525, 0.44713084907716394, 0.5629930930637904], [1, -0.5, 1], [20, -0.30768311870055204, 0]]",100.94347134113312
74,74,0.8310860539072916,"[[6.016540256306511, 0.5, 0.7207635604960433], [6.659230865485776, -0.5, 1], [6.345842252254509, -0.13095040745279996, 0.10615144260807091], [4.4730242574483565, -0.23138079235488226, 0], [6.89734088209837, -0.5, 0.7218081006551565], [3.933175081319727, 0.4295135576188415, 1], [5.085433298402861, -0.5, 0.9068247787882051], [7.65034712829525, 0.44713084907716394, 0.5629930930637904], [1, -0.5, 1], [20, -0.30768311870055204, 0]]",102.30757230520248
75,75,0.8310860539072916,"[[6.016540256306511, 0.5, 0.7207635604960433], [6.659230865485776, -0.5, 1], [6.345842252254509, -0.13095040745279996, 0.10615144260807091], [4.4730242574483565, -0.23138079235488226, 0], [6.89734088209837, -0.5, 0.7218081006551565], [3.933175081319727, 0.4295135576188415, 1], [5.085433298402861, -0.5, 0.9068247787882051], [7.65034712829525, 0.44713084907716394, 0.5629930930637904], [1, -0.5, 1], [20, -0.30768311870055204, 0]]",103.67167326927185
76,76,0.8310860539072916,"[[6.016540256306511, 0.5, 0.7207635604960433], [6.659230865485776, -0.5, 1], [6.345842252254509, -0.13095040745279996, 0.10615144260807091], [4.4730242574483565, -0.23138079235488226, 0], [6.89734088209837, -0.5, 0.7218081006551565], [3.933175081319727, 0.4295135576188415, 1], [5.085433298402861, -0.5, 0.9068247787882051], [7.65034712829525, 0.44713084907716394, 0.5629930930637904], [1, -0.5, 1], [20, -0.30768311870055204, 0]]",105.03577423334121
77,77,0.8310860539072916,"[[6.016540256306511, 0.5, 0.7207635604960433], [6.659230865485776, -0.5, 1], [6.345842252254509, -0.13095040745279996, 0.10615144260807091], [4.4730242574483565, -0.23138079235488226, 0], [6.89734088209837, -0.5, 0.7218081006551565], [3.933175081319727, 0.4295135576188415, 1], [5.085433298402861, -0.5, 0.9068247787882051], [7.65034712829525, 0.44713084907716394, 0.5629930930637904], [1, -0.5, 1], [20, -0.30768311870055204, 0]]",106.39987519741058
78,78,0.8310860539072916,"[[6.016540256306511, 0.5, 0.7207635604960433], [6.659230865485776, -0.5, 1], [6.345842252254509, -0.13095040745279996, 0.10615144260807091], [4.4730242574483565, -0.23138079235488226, 0], [6.89734088209837, -0.5, 0.7218081006551565], [3.933175081319727, 0.4295135576188415, 1], [5.085433298402861, -0.5, 0.9068247787882051], [7.65034712829525, 0.44713084907716394, 0.5629930930637904], [1, -0.5, 1], [20, -0.30768311870055204, 0]]",107.76397616147995
79,79,0.8310860539072916,"[[6.016540256306511, 0.5, 0.7207635604960433], [6.659230865485776, -0.5, 1], [6.345842252254509, -0.13095040745279996, 0.10615144260807091], [4.4730242574483565, -0.23138079235488226, 0], [6.89734088209837, -0.5, 0.7218081006551565], [3.933175081319727, 0.4295135576188415, 1], [5.085433298402861, -0.5, 0.9068247787882051], [7.65034712829525, 0.44713084907716394, 0.5629930930637904], [1, -0.5, 1], [20, -0.30768311870055204, 0]]",109.12807712554931
80,80,0.8310860539072916,"[[6.016540256306511, 0.5, 0.7207635604960433], [6.659230865485776, -0.5, 1], [6.345842252254509, -0.13095040745279996, 0.10615144260807091], [4.4730242574483565, -0.23138079235488226, 0], [6.89734088209837, -0.5, 0.7218081006551565], [3.933175081319727, 0.4295135576188415, 1], [5.085433298402861, -0.5, 0.9068247787882051], [7.65034712829525, 0.44713084907716394, 0.5629930930637904], [1, -0.5, 1], [20, -0.30768311870055204, 0]]",110.49217808961868
81,81,0.8310860539072916,"[[6.016540256306511, 0.5, 0.7207635604960433], [6.659230865485776, -0.5, 1], [6.345842252254509, -0.13095040745279996, 0.10615144260807091], [4.4730242574483565, -0.23138079235488226, 0], [6.89734088209837, -0.5, 0.7218081006551565], [3.933175081319727, 0.4295135576188415, 1], [5.085433298402861, -0.5, 0.9068247787882051], [7.65034712829525, 0.44713084907716394, 0.5629930930637904], [1, -0.5, 1], [20, -0.30768311870055204, 0]]",111.85627905368806
82,82,0.8310860539072916,"[[6.016540256306511, 0.5, 0.7207635604960433], [6.659230865485776, -0.5, 1], [6.345842252254509, -0.13095040745279996, 0.10615144260807091], [4.4730242574483565, -0.23138079235488226, 0], [6.89734088209837, -0.5, 0.7218081006551565], [3.933175081319727, 0.4295135576188415, 1], [5.085433298402861, -0.5, 0.9068247787882051], [7.65034712829525, 0.44713084907716394, 0.5629930930637904], [1, -0.5, 1], [20, -0.30768311870055204, 0]]",113.22038001775742
83,83,0.8310860539072916,"[[6.016540256306511, 0.5, 0.7207635604960433], [6.659230865485776, -0.5, 1], [6.345842252254509, -0.13095040745279996, 0.10615144260807091], [4.4730242574483565, -0.23138079235488226, 0], [6.89734088209837, -0.5, 0.7218081006551565], [3.933175081319727, 0.4295135576188415, 1], [5.085433298402861, -0.5, 0.9068247787882051], [7.65034712829525, 0.44713084907716394, 0.5629930930637904], [1, -0.5, 1], [20, -0.30768311870055204, 0]]",114.58448098182679
84,84,0.8310860539072916,"[[6.016540256306511, 0.5, 0.7207635604960433], [6.659230865485776, -0.5, 1], [6.345842252254509, -0.13095040745279996, 0.10615144260807091], [4.4730242574483565, -0.23138079235488226, 0], [6.89734088209837, -0.5, 0.7218081006551565], [3.933175081319727, 0.4295135576188415, 1], [5.085433298402861, -0.5, 0.9068247787882051], [7.65034712829525, 0.44713084907716394, 0.5629930930637904], [1, -0.5, 1], [20, -0.30768311870055204, 0]]",115.94858194589615
85,85,0.8310860539072916,"[[6.016540256306511, 0.5, 0.7207635604960433], [6.659230865485776, -0.5, 1], [6.345842252254509, -0.13095040745279996, 0.10615144260807091], [4.4730242574483565, -0.23138079235488226, 0], [6.89734088209837, -0.5, 0.7218081006551565], [3.933175081319727, 0.4295135576188415, 1], [5.085433298402861, -0.5, 0.9068247787882051], [7.65034712829525, 0.44713084907716394, 0.5629930930637904], [1, -0.5, 1], [20, -0.30768311870055204, 0]]",117.31268290996552
86,86,0.8310860539072916,"[[6.016540256306511, 0.5, 0.7207635604960433], [6.659230865485776, -0.5, 1], [6.345842252254509, -0.13095040745279996, 0.10615144260807091], [4.4730242574483565, -0.23138079235488226, 0], [6.89734088209837, -0.5, 0.7218081006551565], [3.933175081319727, 0.4295135576188415, 1], [5.085433298402861, -0.5, 0.9068247787882051], [7.65034712829525, 0.44713084907716394, 0.5629930930637904], [1, -0.5, 1], [20, -0.30768311870055204, 0]]",118.67678387403488
87,87,0.8310860539072916,"[[6.016540256306511, 0.5, 0.7207635604960433], [6.659230865485776, -0.5, 1], [6.345842252254509, -0.13095040745279996, 0.10615144260807091], [4.4730242574483565, -0.23138079235488226, 0], [6.89734088209837, -0.5, 0.7218081006551565], [3.933175081319727, 0.4295135576188415, 1], [5.085433298402861, -0.5, 0.9068247787882051], [7.65034712829525, 0.44713084907716394, 0.5629930930637904], [1, -0.5, 1], [20, -0.30768311870055204, 0]]",120.04088483810425
88,88,0.8310860539072916,"[[6.016540256306511, 0.5, 0.7207635604960433], [6.659230865485776, -0.5, 1], [6.345842252254509, -0.13095040745279996, 0.10615144260807091], [4.4730242574483565, -0.23138079235488226, 0], [6.89734088209837, -0.5, 0.7218081006551565], [3.933175081319727, 0.4295135576188415, 1], [5.085433298402861, -0.5, 0.9068247787882051], [7.65034712829525, 0.44713084907716394, 0.5629930930637904], [1, -0.5, 1], [20, -0.30768311870055204, 0]]",121.40498580217361
89,89,0.8310860539072916,"[[6.016540256306511, 0.5, 0.7207635604960433], [6.659230865485776, -0.5, 1], [6.345842252254509, -0.13095040745279996, 0.10615144260807091], [4.4730242574483565, -0.23138079235488226, 0], [6.89734088209837, -0.5, 0.7218081006551565], [3.933175081319727, 0.4295135576188415, 1], [5.085433298402861, -0.5, 0.9068247787882051], [7.65034712829525, 0.44713084907716394, 0.5629930930637904], [1, -0.5, 1], [20, -0.30768311870055204, 0]]",122.76908676624298
90,90,0.8310860539072916,"[[6.016540256306511, 0.5, 0.7207635604960433], [6.659230865485776, -0.5, 1], [6.345842252254509, -0.13095040745279996, 0.10615144260807091], [4.4730242574483565, -0.23138079235488226, 0], [6.89734088209837, -0.5, 0.7218081006551565], [3.933175081319727, 0.4295135576188415, 1], [5.085433298402861, -0.5, 0.9068247787882051], [7.65034712829525, 0.44713084907716394, 0.5629930930637904], [1, -0.5, 1], [20, -0.30768311870055204, 0]]",124.13318773031234
91,91,0.8310860539072916,"[[6.016540256306511, 0.5, 0.7207635604960433], [6.659230865485776, -0.5, 1], [6.345842252254509, -0.13095040745279996, 0.10615144260807091], [4.4730242574483565, -0.23138079235488226, 0], [6.89734088209837, -0.5, 0.7218081006551565], [3.933175081319727, 0.4295135576188415, 1], [5.085433298402861, -0.5, 0.9068247787882051], [7.65034712829525, 0.44713084907716394, 0.5629930930637904], [1, -0.5, 1], [20, -0.30768311870055204, 0]]",125.49728869438171
92,92,0.8310860539072916,"[[6.016540256306511, 0.5, 0.7207635604960433], [6.659230865485776, -0.5, 1], [6.345842252254509, -0.13095040745279996, 0.10615144260807091], [4.4730242574483565, -0.23138079235488226, 0], [6.89734088209837, -0.5, 0.7218081006551565], [3.933175081319727, 0.4295135576188415, 1], [5.085433298402861, -0.5, 0.9068247787882051], [7.65034712829525, 0.44713084907716394, 0.5629930930637904], [1, -0.5, 1], [20, -0.30768311870055204, 0]]",126.86138965845107
93,93,0.8310860539072916,"[[6.016540256306511, 0.5, 0.7207635604960433], [6.659230865485776, -0.5, 1], [6.345842252254509, -0.13095040745279996, 0.10615144260807091], [4.4730242574483565, -0.23138079235488226, 0], [6.89734088209837, -0.5, 0.7218081006551565], [3.933175081319727, 0.4295135576188415, 1], [5.085433298402861, -0.5, 0.9068247787882051], [7.65034712829525, 0.44713084907716394, 0.5629930930637904], [1, -0.5, 1], [20, -0.30768311870055204, 0]]",128.22549062252045
94,94,0.8310860539072916,"[[6.016540256306511, 0.5, 0.7207635604960433], [6.659230865485776, -0.5, 1], [6.345842252254509, -0.13095040745279996, 0.10615144260807091], [4.4730242574483565, -0.23138079235488226, 0], [6.89734088209837, -0.5, 0.7218081006551565], [3.933175081319727, 0.4295135576188415, 1], [5.085433298402861, -0.5, 0.9068247787882051], [7.65034712829525, 0.44713084907716394, 0.5629930930637904], [1, -0.5, 1], [20, -0.30768311870055204, 0]]",129.58959158658982
95,95,0.8310860539072916,"[[6.016540256306511, 0.5, 0.7207635604960433], [6.659230865485776, -0.5, 1], [6.345842252254509, -0.13095040745279996, 0.10615144260807091], [4.4730242574483565, -0.23138079235488226, 0], [6.89734088209837, -0.5, 0.7218081006551565], [3.933175081319727, 0.4295135576188415, 1], [5.085433298402861, -0.5, 0.9068247787882051], [7.65034712829525, 0.44713084907716394, 0.5629930930637904], [1, -0.5, 1], [20, -0.30768311870055204, 0]]",130.95369255065918
96,96,0.8310860539072916,"[[6.016540256306511, 0.5, 0.7207635604960433], [6.659230865485776, -0.5, 1], [6.345842252254509, -0.13095040745279996, 0.10615144260807091], [4.4730242574483565, -0.23138079235488226, 0], [6.89734088209837, -0.5, 0.7218081006551565], [3.933175081319727, 0.4295135576188415, 1], [5.085433298402861, -0.5, 0.9068247787882051], [7.65034712829525, 0.44713084907716394, 0.5629930930637904], [1, -0.5, 1], [20, -0.30768311870055204, 0]]",132.31779351472855
97,97,0.8310860539072916,"[[6.016540256306511, 0.5, 0.7207635604960433], [6.659230865485776, -0.5, 1], [6.345842252254509, -0.13095040745279996, 0.10615144260807091], [4.4730242574483565, -0.23138079235488226, 0], [6.89734088209837, -0.5, 0.7218081006551565], [3.933175081319727, 0.4295135576188415, 1], [5.085433298402861, -0.5, 0.9068247787882051], [7.65034712829525, 0.44713084907716394, 0.5629930930637904], [1, -0.5, 1], [20, -0.30768311870055204, 0]]",133.68189447879791
98,98,0.8310860539072916,"[[6.016540256306511, 0.5, 0.7207635604960433], [6.659230865485776, -0.5, 1], [6.345842252254509, -0.13095040745279996, 0.10615144260807091], [4.4730242574483565, -0.23138079235488226, 0], [6.89734088209837, -0.5, 0.7218081006551565], [3.933175081319727, 0.4295135576188415, 1], [5.085433298402861, -0.5, 0.9068247787882051], [7.65034712829525, 0.44713084907716394, 0.5629930930637904], [1, -0.5, 1], [20, -0.30768311870055204, 0]]",135.04599544286728
99,99,0.8310860539072916,"[[6.016540256306511, 0.5, 0.7207635604960433], [6.659230865485776, -0.5, 1], [6.345842252254509, -0.13095040745279996, 0.10615144260807091], [4.4730242574483565, -0.23138079235488226, 0], [6.89734088209837, -0.5, 0.7218081006551565], [3.933175081319727, 0.4295135576188415, 1], [5.085433298402861, -0.5, 0.9068247787882051], [7.65034712829525, 0.44713084907716394, 0.5629930930637904], [1, -0.5, 1], [20, -0.30768311870055204, 0]]",136.41009640693665
