,Generations,CCEA Fitness Values,Best_Sol,time
0,0,1.0924472048617098,"[[11.608547605083604, 0.13527291692165516, 0.5], [7.210204874604491, 0.49965859362144993, 0.09814567608501434], [5.136775473477927, 0.34942631137000135, -0.5], [3.680929045521981, 0.6825479182881959, 0.5], [18.333896254005282, 0, 0.12020368596023179], [0.887179042951427, 0.950461050325834, 0.49984945830557836], [2.9912729120991113, 0.16089632636445672, -0.2960104259789655], [4.440595337667423, 0.8846893573435921, -0.004987322826144322], [13.268134354211803, 1, 0.12508232884433593], [10.783732504319268, 0.8832130323178856, 0.31627834367991]]",1.3121260166168214
1,1,1.1066016244477863,"[[20, 1, 0.008823924928383292], [10.190550620274022, 0, -0.13995327777562366], [1.2155228402583984, 0.04737190880354673, -0.0204791011045002], [0.9863443010919449, 0.5580772454836205, -0.15430983056132092], [5.005530857532723, 1, -0.08552690948416825], [0.4538170230310181, 0.6902196687320139, 0.19097748945711096], [14.622843544648003, 0.2838379047343421, 0.37956878363297153], [4.440595337667423, 0.8846893573435921, -0.004987322826144322], [10.853410618630349, 0.4214306382069185, -0.3254531974827204], [0, 0.9094159424663335, -0.10423037612973356]]",2.6242520332336428
2,2,1.1150870071693073,"[[10.336630947786027, 0.46566534240838975, 0.409066646727573], [20, 0.8134985008800284, 0.20979174490678498], [7.972802297340328, 0.34203436869672366, 0.0577246766542224], [5.338122302973255, 0.9500145105806046, 0.13986378825735624], [20, 0.3902073311155947, -0.20572439859622127], [4.258522680096992, 0.6641532775100313, -0.04035264696099694], [15.654682959325836, 0.9014957781776038, -0.01810747574028875], [4.440595337667423, 0.8846893573435921, -0.004987322826144322], [1.9536304004345362, 1, -0.296858477731773], [0, 1, 0.2016448634697451]]",3.9363780498504637
3,3,1.156251979048553,"[[10.336630947786027, 0.46566534240838975, 0.409066646727573], [5.734788162668142, 0.24194241514413176, -0.2430442409033194], [6.5429155296946675, 0.18467712114443935, -0.5], [6.310489337952497, 0.325136320510387, 0.13986378825735624], [7.228239902053389, 1, -0.024903063425694066], [1.108808228383257, 0.5216193646326412, 0.24157058064249787], [6.512621531201996, 0.8161526119724118, -0.26203264655632114], [3.3464458168747213, 0.6061496352608405, 0.05121730098442581], [18.878436846836728, 0.7058543503613518, 0.5], [1.5859023276182445, 0.8670767080673701, -0.5]]",5.2485040664672855
4,4,1.156251979048553,"[[10.336630947786027, 0.46566534240838975, 0.409066646727573], [5.734788162668142, 0.24194241514413176, -0.2430442409033194], [6.5429155296946675, 0.18467712114443935, -0.5], [6.310489337952497, 0.325136320510387, 0.13986378825735624], [7.228239902053389, 1, -0.024903063425694066], [1.108808228383257, 0.5216193646326412, 0.24157058064249787], [6.512621531201996, 0.8161526119724118, -0.26203264655632114], [3.3464458168747213, 0.6061496352608405, 0.05121730098442581], [18.878436846836728, 0.7058543503613518, 0.5], [1.5859023276182445, 0.8670767080673701, -0.5]]",6.5606300830841064
5,5,1.1685958513076535,"[[4.587299056938739, 0.8890505808095156, -0.1538612082083914], [5.734788162668142, 0.24194241514413176, -0.2430442409033194], [5.136775473477927, 0.34942631137000135, -0.5], [0, 0.6857814913449289, -0.18547106366359545], [7.228239902053389, 1, -0.024903063425694066], [17.29142005467898, 0.792862395265185, 0.42984784399392617], [9.546007503874742, 1, -0.12242042850363422], [12.181323610658927, 0.631166761822206, -0.25704910569691763], [0.8952170908413584, 0.8271968509400898, 0.5], [7.60900892593385, 0.48947615213994033, 0.13124909102559648]]",7.872756099700927
6,6,1.183954983361128,"[[5.653540691106361, 0.3173976992087408, 0.19371335412290258], [6.24583939129584, 0.3726983355595487, -0.2964975194139735], [0, 0.9556468990397686, -0.2799278564234557], [0.9863443010919449, 0.5580772454836205, -0.15430983056132092], [19.821684938881603, 0, -0.19990514275111293], [16.184617381382758, 1, -0.5], [6.165408429748812, 0.36685319390212334, 0.3638342367384195], [4.218620266097477, 0.45907149462436475, 0.5], [12.355199492837592, 0.5236632680252535, 0.3718112724930144], [1.1995227230192431, 1, -0.010971232216843207]]",9.184882116317748
7,7,1.1867889335601531,"[[8.719974108160047, 0.2075486728902443, -0.18002877476438878], [6.394373805011177, 0.7565782216175935, -0.1603966496287027], [17.25879124099785, 0.08780781416587657, -0.3520045028199944], [4.760301906085635, 0.23009309660861962, 0.18845244701684283], [7.228239902053389, 1, -0.024903063425694066], [19.523200372632758, 0.1410527693481356, 0.4513609709332843], [2.9912729120991113, 0.16089632636445672, -0.2960104259789655], [4.586325857450196, 0.751593322639156, -0.09763138065865712], [6.496781084321358, 0.3904662128005305, 0.28745101699961007], [8.943393260517396, 0.6702056729676786, 0.28455519524877954]]",10.497008132934571
8,8,1.19767575776942,"[[4.587299056938739, 0.8890505808095156, -0.1538612082083914], [6.394373805011177, 0.7565782216175935, -0.1603966496287027], [1.4320285639412573, 1, -0.5], [0, 0.6857814913449289, -0.18547106366359545], [0, 1, -0.5], [17.44325197078146, 0, 0.4513609709332843], [0, 0.4080734316762279, -0.5], [2.3818285015928806, 0.5503180287235776, 0.5], [7.654299479113477, 1, -0.02195455016274772], [15.027112906768872, 0.12904072746956058, -0.5]]",11.809134149551392
9,9,1.2138942320887405,"[[4.587299056938739, 0.8890505808095156, -0.1538612082083914], [4.2802931532484685, 0.7979655563339432, -0.4127579091861945], [1.1251346758720575, 0.13014295432274325, -0.08139998460653529], [0, 0.6857814913449289, -0.18547106366359545], [0, 1, -0.5], [9.698231347583217, 0.9608804590398825, -0.5], [4.25890265636272, 0.10149190616586043, -0.11198335977404522], [4.218620266097477, 0.700715826520418, 0.5], [9.927673374330938, 1, -0.4227828280582402], [1.1995227230192431, 1, -0.010971232216843207]]",13.121260166168213
10,10,1.241931346412661,"[[11.671003768428152, 0.8108786996915908, 0.48495589679790574], [9.619426691164158, 0.5901156399337328, -0.3941642087794761], [0, 1, -0.5], [0, 0.6857814913449289, -0.18547106366359545], [7.228239902053389, 1, -0.024903063425694066], [16.184617381382758, 1, -0.5], [6.165408429748812, 0.36685319390212334, 0.3638342367384195], [5.782423205210689, 0.8446849958185748, 0.36404059731344696], [1.9536304004345362, 0.8779402557101765, 0.5], [11.932328600183745, 0.4653222808312222, 0.07039879904180579]]",14.433386182785034
11,11,1.241931346412661,"[[11.671003768428152, 0.8108786996915908, 0.48495589679790574], [9.619426691164158, 0.5901156399337328, -0.3941642087794761], [0, 1, -0.5], [0, 0.6857814913449289, -0.18547106366359545], [7.228239902053389, 1, -0.024903063425694066], [16.184617381382758, 1, -0.5], [6.165408429748812, 0.36685319390212334, 0.3638342367384195], [5.782423205210689, 0.8446849958185748, 0.36404059731344696], [1.9536304004345362, 0.8779402557101765, 0.5], [11.932328600183745, 0.4653222808312222, 0.07039879904180579]]",15.745512199401855
12,12,1.241931346412661,"[[11.671003768428152, 0.8108786996915908, 0.48495589679790574], [9.619426691164158, 0.5901156399337328, -0.3941642087794761], [0, 1, -0.5], [0, 0.6857814913449289, -0.18547106366359545], [7.228239902053389, 1, -0.024903063425694066], [16.184617381382758, 1, -0.5], [6.165408429748812, 0.36685319390212334, 0.3638342367384195], [5.782423205210689, 0.8446849958185748, 0.36404059731344696], [1.9536304004345362, 0.8779402557101765, 0.5], [11.932328600183745, 0.4653222808312222, 0.07039879904180579]]",17.057638216018677
13,13,1.2720167447594863,"[[7.098706938214472, 0.5330699614235044, -0.5], [7.421901094631391, 0.11317849038321041, -0.015669804608457683], [0, 1, -0.4327323600598713], [8.737609575702104, 0.32125861616645807, 0.14975652109669096], [7.695880482257566, 0.8451209826317851, 0.19990872026169815], [6.410147385277042, 0.4433979344247622, 0.25654501650209893], [6.165408429748812, 0.36685319390212334, 0.3638342367384195], [4.440595337667423, 0.8846893573435921, -0.004987322826144322], [9.927673374330938, 1, -0.4227828280582402], [0, 0.6212397517404331, -0.10642612641326599]]",18.369764232635497
14,14,1.3127522608831295,"[[20, 0.5330699614235044, -0.5], [0, 0.7619920808936915, 0.14756416665515476], [0, 1, -0.5], [0.9863443010919449, 0.5580772454836205, -0.2877767485867801], [0, 1, -0.5], [9.651859555646976, 0.7833021409795894, -0.23055421916135804], [1.3386249460015887, 0.5473974858980103, 0.20042523979128268], [1.6623737613299172, 0.6125051849966037, -0.18947848540788648], [5.908453418923619, 0.3659574969370555, 0.5], [1.1995227230192431, 1, -0.010971232216843207]]",19.68189024925232
15,15,1.3127522608831295,"[[20, 0.5330699614235044, -0.5], [0, 0.7619920808936915, 0.14756416665515476], [0, 1, -0.5], [0.9863443010919449, 0.5580772454836205, -0.2877767485867801], [0, 1, -0.5], [9.651859555646976, 0.7833021409795894, -0.23055421916135804], [1.3386249460015887, 0.5473974858980103, 0.20042523979128268], [1.6623737613299172, 0.6125051849966037, -0.18947848540788648], [5.908453418923619, 0.3659574969370555, 0.5], [1.1995227230192431, 1, -0.010971232216843207]]",20.994016265869142
16,16,1.3469988506703034,"[[20, 0.5330699614235044, -0.5], [6.394373805011177, 0.7565782216175935, -0.5], [0, 1, -0.08139998460653529], [0, 0.6857814913449289, -0.18547106366359545], [7.228239902053389, 1, -0.024903063425694066], [0, 0.4055259781068842, 0.477483125172657], [10.848547156635703, 0.5680783972123472, 0.5], [4.066940215431109, 0.8174145427320592, 0.37514657309933513], [9.927673374330938, 0.8111255511650821, -0.3539376021807703], [3.302021192471025, 0.9258584812119661, -0.5]]",22.30614228248596
17,17,1.3469988506703034,"[[20, 0.5330699614235044, -0.5], [6.394373805011177, 0.7565782216175935, -0.5], [0, 1, -0.08139998460653529], [0, 0.6857814913449289, -0.18547106366359545], [7.228239902053389, 1, -0.024903063425694066], [0, 0.4055259781068842, 0.477483125172657], [10.848547156635703, 0.5680783972123472, 0.5], [4.066940215431109, 0.8174145427320592, 0.37514657309933513], [9.927673374330938, 0.8111255511650821, -0.3539376021807703], [3.302021192471025, 0.9258584812119661, -0.5]]",23.618268299102784
18,18,1.4007870332870127,"[[5.545012800316876, 0.12998972143470416, 0.09941522853632527], [6.757961463014039, 0.3291747969105302, -0.5], [0.5689524406986306, 1, -0.014783360133952872], [7.5088454763131205, 0.6584343723523759, -0.3582340959508842], [7.228239902053389, 1, -0.024903063425694066], [4.968948866112938, 1, -0.2599485546714761], [10.848547156635703, 0.5680783972123472, 0.5], [5.726806145511023, 0.7842677374246726, 0.4018119992094306], [0, 1, -0.38702918628509897], [15.764547858316876, 0.7079737881019521, -0.15043953901239393]]",24.930394315719603
19,19,1.4047879804829866,"[[10.336630947786027, 0.46566534240838975, 0.409066646727573], [7.421901094631391, 0.11317849038321041, -0.015669804608457683], [1.264114823151465, 0.6279199543241301, -0.2854862136550512], [8.737609575702104, 0.8661916694314875, -0.35394316413502946], [1.860199818811201, 0, -0.4322726294373134], [4.258522680096992, 0.6641532775100313, -0.002152999251604004], [10.848547156635703, 0.5680783972123472, 0.5], [4.066940215431109, 0.8174145427320592, 0.37514657309933513], [5.908453418923619, 0.9220688529146757, -0.5], [3.6424796684975904, 0.9654248103418155, -0.47891990329174644]]",26.242520332336426
20,20,1.4047879804829866,"[[10.336630947786027, 0.46566534240838975, 0.409066646727573], [7.421901094631391, 0.11317849038321041, -0.015669804608457683], [1.264114823151465, 0.6279199543241301, -0.2854862136550512], [8.737609575702104, 0.8661916694314875, -0.35394316413502946], [1.860199818811201, 0, -0.4322726294373134], [4.258522680096992, 0.6641532775100313, -0.002152999251604004], [10.848547156635703, 0.5680783972123472, 0.5], [4.066940215431109, 0.8174145427320592, 0.37514657309933513], [5.908453418923619, 0.9220688529146757, -0.5], [3.6424796684975904, 0.9654248103418155, -0.47891990329174644]]",27.55464634895325
21,21,1.4047879804829866,"[[10.336630947786027, 0.46566534240838975, 0.409066646727573], [7.421901094631391, 0.11317849038321041, -0.015669804608457683], [1.264114823151465, 0.6279199543241301, -0.2854862136550512], [8.737609575702104, 0.8661916694314875, -0.35394316413502946], [1.860199818811201, 0, -0.4322726294373134], [4.258522680096992, 0.6641532775100313, -0.002152999251604004], [10.848547156635703, 0.5680783972123472, 0.5], [4.066940215431109, 0.8174145427320592, 0.37514657309933513], [5.908453418923619, 0.9220688529146757, -0.5], [3.6424796684975904, 0.9654248103418155, -0.47891990329174644]]",28.866772365570068
22,22,1.4047879804829866,"[[10.336630947786027, 0.46566534240838975, 0.409066646727573], [7.421901094631391, 0.11317849038321041, -0.015669804608457683], [1.264114823151465, 0.6279199543241301, -0.2854862136550512], [8.737609575702104, 0.8661916694314875, -0.35394316413502946], [1.860199818811201, 0, -0.4322726294373134], [4.258522680096992, 0.6641532775100313, -0.002152999251604004], [10.848547156635703, 0.5680783972123472, 0.5], [4.066940215431109, 0.8174145427320592, 0.37514657309933513], [5.908453418923619, 0.9220688529146757, -0.5], [3.6424796684975904, 0.9654248103418155, -0.47891990329174644]]",30.17889838218689
23,23,1.4047879804829866,"[[10.336630947786027, 0.46566534240838975, 0.409066646727573], [7.421901094631391, 0.11317849038321041, -0.015669804608457683], [1.264114823151465, 0.6279199543241301, -0.2854862136550512], [8.737609575702104, 0.8661916694314875, -0.35394316413502946], [1.860199818811201, 0, -0.4322726294373134], [4.258522680096992, 0.6641532775100313, -0.002152999251604004], [10.848547156635703, 0.5680783972123472, 0.5], [4.066940215431109, 0.8174145427320592, 0.37514657309933513], [5.908453418923619, 0.9220688529146757, -0.5], [3.6424796684975904, 0.9654248103418155, -0.47891990329174644]]",31.49102439880371
24,24,1.4047879804829866,"[[10.336630947786027, 0.46566534240838975, 0.409066646727573], [7.421901094631391, 0.11317849038321041, -0.015669804608457683], [1.264114823151465, 0.6279199543241301, -0.2854862136550512], [8.737609575702104, 0.8661916694314875, -0.35394316413502946], [1.860199818811201, 0, -0.4322726294373134], [4.258522680096992, 0.6641532775100313, -0.002152999251604004], [10.848547156635703, 0.5680783972123472, 0.5], [4.066940215431109, 0.8174145427320592, 0.37514657309933513], [5.908453418923619, 0.9220688529146757, -0.5], [3.6424796684975904, 0.9654248103418155, -0.47891990329174644]]",32.80315041542053
25,25,1.4047879804829866,"[[10.336630947786027, 0.46566534240838975, 0.409066646727573], [7.421901094631391, 0.11317849038321041, -0.015669804608457683], [1.264114823151465, 0.6279199543241301, -0.2854862136550512], [8.737609575702104, 0.8661916694314875, -0.35394316413502946], [1.860199818811201, 0, -0.4322726294373134], [4.258522680096992, 0.6641532775100313, -0.002152999251604004], [10.848547156635703, 0.5680783972123472, 0.5], [4.066940215431109, 0.8174145427320592, 0.37514657309933513], [5.908453418923619, 0.9220688529146757, -0.5], [3.6424796684975904, 0.9654248103418155, -0.47891990329174644]]",34.115276432037355
26,26,1.4047879804829866,"[[10.336630947786027, 0.46566534240838975, 0.409066646727573], [7.421901094631391, 0.11317849038321041, -0.015669804608457683], [1.264114823151465, 0.6279199543241301, -0.2854862136550512], [8.737609575702104, 0.8661916694314875, -0.35394316413502946], [1.860199818811201, 0, -0.4322726294373134], [4.258522680096992, 0.6641532775100313, -0.002152999251604004], [10.848547156635703, 0.5680783972123472, 0.5], [4.066940215431109, 0.8174145427320592, 0.37514657309933513], [5.908453418923619, 0.9220688529146757, -0.5], [3.6424796684975904, 0.9654248103418155, -0.47891990329174644]]",35.42740244865418
27,27,1.4047879804829866,"[[10.336630947786027, 0.46566534240838975, 0.409066646727573], [7.421901094631391, 0.11317849038321041, -0.015669804608457683], [1.264114823151465, 0.6279199543241301, -0.2854862136550512], [8.737609575702104, 0.8661916694314875, -0.35394316413502946], [1.860199818811201, 0, -0.4322726294373134], [4.258522680096992, 0.6641532775100313, -0.002152999251604004], [10.848547156635703, 0.5680783972123472, 0.5], [4.066940215431109, 0.8174145427320592, 0.37514657309933513], [5.908453418923619, 0.9220688529146757, -0.5], [3.6424796684975904, 0.9654248103418155, -0.47891990329174644]]",36.73952846527099
28,28,1.4047879804829866,"[[10.336630947786027, 0.46566534240838975, 0.409066646727573], [7.421901094631391, 0.11317849038321041, -0.015669804608457683], [1.264114823151465, 0.6279199543241301, -0.2854862136550512], [8.737609575702104, 0.8661916694314875, -0.35394316413502946], [1.860199818811201, 0, -0.4322726294373134], [4.258522680096992, 0.6641532775100313, -0.002152999251604004], [10.848547156635703, 0.5680783972123472, 0.5], [4.066940215431109, 0.8174145427320592, 0.37514657309933513], [5.908453418923619, 0.9220688529146757, -0.5], [3.6424796684975904, 0.9654248103418155, -0.47891990329174644]]",38.051654481887816
29,29,1.4047879804829866,"[[10.336630947786027, 0.46566534240838975, 0.409066646727573], [7.421901094631391, 0.11317849038321041, -0.015669804608457683], [1.264114823151465, 0.6279199543241301, -0.2854862136550512], [8.737609575702104, 0.8661916694314875, -0.35394316413502946], [1.860199818811201, 0, -0.4322726294373134], [4.258522680096992, 0.6641532775100313, -0.002152999251604004], [10.848547156635703, 0.5680783972123472, 0.5], [4.066940215431109, 0.8174145427320592, 0.37514657309933513], [5.908453418923619, 0.9220688529146757, -0.5], [3.6424796684975904, 0.9654248103418155, -0.47891990329174644]]",39.36378049850464
30,30,1.4047879804829866,"[[10.336630947786027, 0.46566534240838975, 0.409066646727573], [7.421901094631391, 0.11317849038321041, -0.015669804608457683], [1.264114823151465, 0.6279199543241301, -0.2854862136550512], [8.737609575702104, 0.8661916694314875, -0.35394316413502946], [1.860199818811201, 0, -0.4322726294373134], [4.258522680096992, 0.6641532775100313, -0.002152999251604004], [10.848547156635703, 0.5680783972123472, 0.5], [4.066940215431109, 0.8174145427320592, 0.37514657309933513], [5.908453418923619, 0.9220688529146757, -0.5], [3.6424796684975904, 0.9654248103418155, -0.47891990329174644]]",40.67590651512146
31,31,1.4047879804829866,"[[10.336630947786027, 0.46566534240838975, 0.409066646727573], [7.421901094631391, 0.11317849038321041, -0.015669804608457683], [1.264114823151465, 0.6279199543241301, -0.2854862136550512], [8.737609575702104, 0.8661916694314875, -0.35394316413502946], [1.860199818811201, 0, -0.4322726294373134], [4.258522680096992, 0.6641532775100313, -0.002152999251604004], [10.848547156635703, 0.5680783972123472, 0.5], [4.066940215431109, 0.8174145427320592, 0.37514657309933513], [5.908453418923619, 0.9220688529146757, -0.5], [3.6424796684975904, 0.9654248103418155, -0.47891990329174644]]",41.988032531738284
32,32,1.4051451958238583,"[[7.1792756428677444, 0.5503716114686192, -0.5], [5.624119668331616, 0.8576177374059276, 0.30403572400271883], [0, 0.8241011015663385, -0.27135465459833574], [8.737609575702104, 0.8661916694314875, -0.35394316413502946], [1.8309383159692496, 1, -0.024903063425694066], [8.57218599848398, 0.5791196719111011, -0.5], [10.848547156635703, 0.5680783972123472, 0.5], [4.440595337667423, 0.8846893573435921, -0.004987322826144322], [0, 1, -0.38702918628509897], [3.130958838483114, 0.9654248103418155, -0.47891990329174644]]",43.3001585483551
33,33,1.4096852634118797,"[[6.874935371775138, 0.7664449378813126, -0.5], [0, 0.5718892531394099, -0.37536716849915686], [1.585505784947955, 0.1460220535931026, -0.403421886957149], [3.0623247565432403, 0.4990466646833113, -0.027765171059400684], [7.228239902053389, 1, -0.024903063425694066], [4.396096935274053, 0.2641400281958003, -0.06316830931570731], [10.848547156635703, 0.5680783972123472, 0.5], [5.302059718559322, 0.34016146430308913, -0.22652510371628806], [0, 0.6181387798687653, -0.5], [0, 1, 0.17286095212637592]]",44.61228456497192
34,34,1.4096852634118797,"[[6.874935371775138, 0.7664449378813126, -0.5], [0, 0.5718892531394099, -0.37536716849915686], [1.585505784947955, 0.1460220535931026, -0.403421886957149], [3.0623247565432403, 0.4990466646833113, -0.027765171059400684], [7.228239902053389, 1, -0.024903063425694066], [4.396096935274053, 0.2641400281958003, -0.06316830931570731], [10.848547156635703, 0.5680783972123472, 0.5], [5.302059718559322, 0.34016146430308913, -0.22652510371628806], [0, 0.6181387798687653, -0.5], [0, 1, 0.17286095212637592]]",45.924410581588745
35,35,1.4096852634118797,"[[6.874935371775138, 0.7664449378813126, -0.5], [0, 0.5718892531394099, -0.37536716849915686], [1.585505784947955, 0.1460220535931026, -0.403421886957149], [3.0623247565432403, 0.4990466646833113, -0.027765171059400684], [7.228239902053389, 1, -0.024903063425694066], [4.396096935274053, 0.2641400281958003, -0.06316830931570731], [10.848547156635703, 0.5680783972123472, 0.5], [5.302059718559322, 0.34016146430308913, -0.22652510371628806], [0, 0.6181387798687653, -0.5], [0, 1, 0.17286095212637592]]",47.23653659820557
36,36,1.4096852634118797,"[[6.874935371775138, 0.7664449378813126, -0.5], [0, 0.5718892531394099, -0.37536716849915686], [1.585505784947955, 0.1460220535931026, -0.403421886957149], [3.0623247565432403, 0.4990466646833113, -0.027765171059400684], [7.228239902053389, 1, -0.024903063425694066], [4.396096935274053, 0.2641400281958003, -0.06316830931570731], [10.848547156635703, 0.5680783972123472, 0.5], [5.302059718559322, 0.34016146430308913, -0.22652510371628806], [0, 0.6181387798687653, -0.5], [0, 1, 0.17286095212637592]]",48.54866261482239
37,37,1.4428812808013043,"[[6.874935371775138, 0.7664449378813126, -0.5], [0, 0.9664747921763761, -0.09017837849084905], [0, 0.7742768998296052, -0.4035999731025328], [1.588436431592715, 0.66174983565372, 0.12537845111783869], [5.570271772212383, 1, -0.2997094094377614], [1.7373250437125582, 0.6964625218572815, 0.3277340169773852], [8.883104328707049, 0.7335934556608561, -0.1432617332089074], [5.302059718559322, 0.34016146430308913, -0.22652510371628806], [0.3030065041077547, 0.8111255511650821, -0.11591608372980783], [6.385400846923297, 1, -0.018920160072299616]]",49.860788631439206
38,38,1.4428812808013043,"[[6.874935371775138, 0.7664449378813126, -0.5], [0, 0.9664747921763761, -0.09017837849084905], [0, 0.7742768998296052, -0.4035999731025328], [1.588436431592715, 0.66174983565372, 0.12537845111783869], [5.570271772212383, 1, -0.2997094094377614], [1.7373250437125582, 0.6964625218572815, 0.3277340169773852], [8.883104328707049, 0.7335934556608561, -0.1432617332089074], [5.302059718559322, 0.34016146430308913, -0.22652510371628806], [0.3030065041077547, 0.8111255511650821, -0.11591608372980783], [6.385400846923297, 1, -0.018920160072299616]]",51.17291464805603
39,39,1.4428812808013043,"[[6.874935371775138, 0.7664449378813126, -0.5], [0, 0.9664747921763761, -0.09017837849084905], [0, 0.7742768998296052, -0.4035999731025328], [1.588436431592715, 0.66174983565372, 0.12537845111783869], [5.570271772212383, 1, -0.2997094094377614], [1.7373250437125582, 0.6964625218572815, 0.3277340169773852], [8.883104328707049, 0.7335934556608561, -0.1432617332089074], [5.302059718559322, 0.34016146430308913, -0.22652510371628806], [0.3030065041077547, 0.8111255511650821, -0.11591608372980783], [6.385400846923297, 1, -0.018920160072299616]]",52.48504066467285
40,40,1.4428812808013043,"[[6.874935371775138, 0.7664449378813126, -0.5], [0, 0.9664747921763761, -0.09017837849084905], [0, 0.7742768998296052, -0.4035999731025328], [1.588436431592715, 0.66174983565372, 0.12537845111783869], [5.570271772212383, 1, -0.2997094094377614], [1.7373250437125582, 0.6964625218572815, 0.3277340169773852], [8.883104328707049, 0.7335934556608561, -0.1432617332089074], [5.302059718559322, 0.34016146430308913, -0.22652510371628806], [0.3030065041077547, 0.8111255511650821, -0.11591608372980783], [6.385400846923297, 1, -0.018920160072299616]]",53.797166681289674
41,41,1.4428812808013043,"[[6.874935371775138, 0.7664449378813126, -0.5], [0, 0.9664747921763761, -0.09017837849084905], [0, 0.7742768998296052, -0.4035999731025328], [1.588436431592715, 0.66174983565372, 0.12537845111783869], [5.570271772212383, 1, -0.2997094094377614], [1.7373250437125582, 0.6964625218572815, 0.3277340169773852], [8.883104328707049, 0.7335934556608561, -0.1432617332089074], [5.302059718559322, 0.34016146430308913, -0.22652510371628806], [0.3030065041077547, 0.8111255511650821, -0.11591608372980783], [6.385400846923297, 1, -0.018920160072299616]]",55.1092926979065
42,42,1.4428812808013043,"[[6.874935371775138, 0.7664449378813126, -0.5], [0, 0.9664747921763761, -0.09017837849084905], [0, 0.7742768998296052, -0.4035999731025328], [1.588436431592715, 0.66174983565372, 0.12537845111783869], [5.570271772212383, 1, -0.2997094094377614], [1.7373250437125582, 0.6964625218572815, 0.3277340169773852], [8.883104328707049, 0.7335934556608561, -0.1432617332089074], [5.302059718559322, 0.34016146430308913, -0.22652510371628806], [0.3030065041077547, 0.8111255511650821, -0.11591608372980783], [6.385400846923297, 1, -0.018920160072299616]]",56.42141871452331
43,43,1.4428812808013043,"[[6.874935371775138, 0.7664449378813126, -0.5], [0, 0.9664747921763761, -0.09017837849084905], [0, 0.7742768998296052, -0.4035999731025328], [1.588436431592715, 0.66174983565372, 0.12537845111783869], [5.570271772212383, 1, -0.2997094094377614], [1.7373250437125582, 0.6964625218572815, 0.3277340169773852], [8.883104328707049, 0.7335934556608561, -0.1432617332089074], [5.302059718559322, 0.34016146430308913, -0.22652510371628806], [0.3030065041077547, 0.8111255511650821, -0.11591608372980783], [6.385400846923297, 1, -0.018920160072299616]]",57.733544731140135
44,44,1.4428812808013043,"[[6.874935371775138, 0.7664449378813126, -0.5], [0, 0.9664747921763761, -0.09017837849084905], [0, 0.7742768998296052, -0.4035999731025328], [1.588436431592715, 0.66174983565372, 0.12537845111783869], [5.570271772212383, 1, -0.2997094094377614], [1.7373250437125582, 0.6964625218572815, 0.3277340169773852], [8.883104328707049, 0.7335934556608561, -0.1432617332089074], [5.302059718559322, 0.34016146430308913, -0.22652510371628806], [0.3030065041077547, 0.8111255511650821, -0.11591608372980783], [6.385400846923297, 1, -0.018920160072299616]]",59.04567074775696
45,45,1.4524097607093847,"[[2.4245966020851313, 0.5330699614235044, -0.5], [0, 0.7620370251124104, -0.5], [0, 1, -0.33172564515635716], [4.429029497361418, 0.5580772454836205, -0.20829388401264493], [5.9102446075700055, 0.9317457871260151, -0.03162955388242694], [9.698231347583217, 0.9608804590398825, -0.5], [10.848547156635703, 0.5680783972123472, 0.5], [4.440595337667423, 0.8174145427320592, -0.41286901060357695], [7.695842681675978, 0.7496037675351528, -0.42633782182511015], [3.130958838483114, 0.9654248103418155, -0.47891990329174644]]",60.35779676437378
46,46,1.4524097607093847,"[[2.4245966020851313, 0.5330699614235044, -0.5], [0, 0.7620370251124104, -0.5], [0, 1, -0.33172564515635716], [4.429029497361418, 0.5580772454836205, -0.20829388401264493], [5.9102446075700055, 0.9317457871260151, -0.03162955388242694], [9.698231347583217, 0.9608804590398825, -0.5], [10.848547156635703, 0.5680783972123472, 0.5], [4.440595337667423, 0.8174145427320592, -0.41286901060357695], [7.695842681675978, 0.7496037675351528, -0.42633782182511015], [3.130958838483114, 0.9654248103418155, -0.47891990329174644]]",61.6699227809906
47,47,1.4524097607093847,"[[2.4245966020851313, 0.5330699614235044, -0.5], [0, 0.7620370251124104, -0.5], [0, 1, -0.33172564515635716], [4.429029497361418, 0.5580772454836205, -0.20829388401264493], [5.9102446075700055, 0.9317457871260151, -0.03162955388242694], [9.698231347583217, 0.9608804590398825, -0.5], [10.848547156635703, 0.5680783972123472, 0.5], [4.440595337667423, 0.8174145427320592, -0.41286901060357695], [7.695842681675978, 0.7496037675351528, -0.42633782182511015], [3.130958838483114, 0.9654248103418155, -0.47891990329174644]]",62.98204879760742
48,48,1.4524097607093847,"[[2.4245966020851313, 0.5330699614235044, -0.5], [0, 0.7620370251124104, -0.5], [0, 1, -0.33172564515635716], [4.429029497361418, 0.5580772454836205, -0.20829388401264493], [5.9102446075700055, 0.9317457871260151, -0.03162955388242694], [9.698231347583217, 0.9608804590398825, -0.5], [10.848547156635703, 0.5680783972123472, 0.5], [4.440595337667423, 0.8174145427320592, -0.41286901060357695], [7.695842681675978, 0.7496037675351528, -0.42633782182511015], [3.130958838483114, 0.9654248103418155, -0.47891990329174644]]",64.29417481422425
49,49,1.4524097607093847,"[[2.4245966020851313, 0.5330699614235044, -0.5], [0, 0.7620370251124104, -0.5], [0, 1, -0.33172564515635716], [4.429029497361418, 0.5580772454836205, -0.20829388401264493], [5.9102446075700055, 0.9317457871260151, -0.03162955388242694], [9.698231347583217, 0.9608804590398825, -0.5], [10.848547156635703, 0.5680783972123472, 0.5], [4.440595337667423, 0.8174145427320592, -0.41286901060357695], [7.695842681675978, 0.7496037675351528, -0.42633782182511015], [3.130958838483114, 0.9654248103418155, -0.47891990329174644]]",65.60630083084106
50,50,1.4524097607093847,"[[2.4245966020851313, 0.5330699614235044, -0.5], [0, 0.7620370251124104, -0.5], [0, 1, -0.33172564515635716], [4.429029497361418, 0.5580772454836205, -0.20829388401264493], [5.9102446075700055, 0.9317457871260151, -0.03162955388242694], [9.698231347583217, 0.9608804590398825, -0.5], [10.848547156635703, 0.5680783972123472, 0.5], [4.440595337667423, 0.8174145427320592, -0.41286901060357695], [7.695842681675978, 0.7496037675351528, -0.42633782182511015], [3.130958838483114, 0.9654248103418155, -0.47891990329174644]]",66.91842684745788
51,51,1.4524097607093847,"[[2.4245966020851313, 0.5330699614235044, -0.5], [0, 0.7620370251124104, -0.5], [0, 1, -0.33172564515635716], [4.429029497361418, 0.5580772454836205, -0.20829388401264493], [5.9102446075700055, 0.9317457871260151, -0.03162955388242694], [9.698231347583217, 0.9608804590398825, -0.5], [10.848547156635703, 0.5680783972123472, 0.5], [4.440595337667423, 0.8174145427320592, -0.41286901060357695], [7.695842681675978, 0.7496037675351528, -0.42633782182511015], [3.130958838483114, 0.9654248103418155, -0.47891990329174644]]",68.23055286407471
52,52,1.472377074240383,"[[9.662371146816223, 0.7389647473614253, -0.2112103535792989], [0, 0.5718892531394099, -0.37536716849915686], [0, 0.8121081665116328, -0.4881030052803776], [0.9863443010919449, 0.5580772454836205, -0.2877767485867801], [8.141599137454957, 0.6094111616217535, -0.5], [1.7373250437125582, 0.6964625218572815, 0.3277340169773852], [16.259265882266625, 0, -0.3850089424797652], [6.012366862100594, 0.3292633644010641, -0.11443312341204875], [0, 1, -0.38702918628509897], [6.385400846923297, 0.9654248103418155, -0.018920160072299616]]",69.54267888069153
53,53,1.472377074240383,"[[9.662371146816223, 0.7389647473614253, -0.2112103535792989], [0, 0.5718892531394099, -0.37536716849915686], [0, 0.8121081665116328, -0.4881030052803776], [0.9863443010919449, 0.5580772454836205, -0.2877767485867801], [8.141599137454957, 0.6094111616217535, -0.5], [1.7373250437125582, 0.6964625218572815, 0.3277340169773852], [16.259265882266625, 0, -0.3850089424797652], [6.012366862100594, 0.3292633644010641, -0.11443312341204875], [0, 1, -0.38702918628509897], [6.385400846923297, 0.9654248103418155, -0.018920160072299616]]",70.85480489730836
54,54,1.472377074240383,"[[9.662371146816223, 0.7389647473614253, -0.2112103535792989], [0, 0.5718892531394099, -0.37536716849915686], [0, 0.8121081665116328, -0.4881030052803776], [0.9863443010919449, 0.5580772454836205, -0.2877767485867801], [8.141599137454957, 0.6094111616217535, -0.5], [1.7373250437125582, 0.6964625218572815, 0.3277340169773852], [16.259265882266625, 0, -0.3850089424797652], [6.012366862100594, 0.3292633644010641, -0.11443312341204875], [0, 1, -0.38702918628509897], [6.385400846923297, 0.9654248103418155, -0.018920160072299616]]",72.16693091392517
55,55,1.502186014299231,"[[9.662371146816223, 0.7389647473614253, -0.2112103535792989], [0, 0.7840533797268643, -0.5], [0, 0.9917115927240304, -0.4389943174097307], [0, 1, -0.2748717465559706], [6.82761432371052, 0.9797533372614812, -0.06961188683913871], [1.7373250437125582, 0.6964625218572815, 0.3277340169773852], [0, 0.20500487905406972, -0.2904813020627909], [3.1051699490312066, 0.4310568192040021, 0.0728948312864804], [1.3466814964647869, 0.7562926500028018, -0.38475509597159896], [6.385400846923297, 1, -0.018920160072299616]]",73.47905693054199
56,56,1.502186014299231,"[[9.662371146816223, 0.7389647473614253, -0.2112103535792989], [0, 0.7840533797268643, -0.5], [0, 0.9917115927240304, -0.4389943174097307], [0, 1, -0.2748717465559706], [6.82761432371052, 0.9797533372614812, -0.06961188683913871], [1.7373250437125582, 0.6964625218572815, 0.3277340169773852], [0, 0.20500487905406972, -0.2904813020627909], [3.1051699490312066, 0.4310568192040021, 0.0728948312864804], [1.3466814964647869, 0.7562926500028018, -0.38475509597159896], [6.385400846923297, 1, -0.018920160072299616]]",74.79118294715882
57,57,1.502186014299231,"[[9.662371146816223, 0.7389647473614253, -0.2112103535792989], [0, 0.7840533797268643, -0.5], [0, 0.9917115927240304, -0.4389943174097307], [0, 1, -0.2748717465559706], [6.82761432371052, 0.9797533372614812, -0.06961188683913871], [1.7373250437125582, 0.6964625218572815, 0.3277340169773852], [0, 0.20500487905406972, -0.2904813020627909], [3.1051699490312066, 0.4310568192040021, 0.0728948312864804], [1.3466814964647869, 0.7562926500028018, -0.38475509597159896], [6.385400846923297, 1, -0.018920160072299616]]",76.10330896377563
58,58,1.502186014299231,"[[9.662371146816223, 0.7389647473614253, -0.2112103535792989], [0, 0.7840533797268643, -0.5], [0, 0.9917115927240304, -0.4389943174097307], [0, 1, -0.2748717465559706], [6.82761432371052, 0.9797533372614812, -0.06961188683913871], [1.7373250437125582, 0.6964625218572815, 0.3277340169773852], [0, 0.20500487905406972, -0.2904813020627909], [3.1051699490312066, 0.4310568192040021, 0.0728948312864804], [1.3466814964647869, 0.7562926500028018, -0.38475509597159896], [6.385400846923297, 1, -0.018920160072299616]]",77.41543498039246
59,59,1.502186014299231,"[[9.662371146816223, 0.7389647473614253, -0.2112103535792989], [0, 0.7840533797268643, -0.5], [0, 0.9917115927240304, -0.4389943174097307], [0, 1, -0.2748717465559706], [6.82761432371052, 0.9797533372614812, -0.06961188683913871], [1.7373250437125582, 0.6964625218572815, 0.3277340169773852], [0, 0.20500487905406972, -0.2904813020627909], [3.1051699490312066, 0.4310568192040021, 0.0728948312864804], [1.3466814964647869, 0.7562926500028018, -0.38475509597159896], [6.385400846923297, 1, -0.018920160072299616]]",78.72756099700928
60,60,1.502186014299231,"[[9.662371146816223, 0.7389647473614253, -0.2112103535792989], [0, 0.7840533797268643, -0.5], [0, 0.9917115927240304, -0.4389943174097307], [0, 1, -0.2748717465559706], [6.82761432371052, 0.9797533372614812, -0.06961188683913871], [1.7373250437125582, 0.6964625218572815, 0.3277340169773852], [0, 0.20500487905406972, -0.2904813020627909], [3.1051699490312066, 0.4310568192040021, 0.0728948312864804], [1.3466814964647869, 0.7562926500028018, -0.38475509597159896], [6.385400846923297, 1, -0.018920160072299616]]",80.0396870136261
61,61,1.502186014299231,"[[9.662371146816223, 0.7389647473614253, -0.2112103535792989], [0, 0.7840533797268643, -0.5], [0, 0.9917115927240304, -0.4389943174097307], [0, 1, -0.2748717465559706], [6.82761432371052, 0.9797533372614812, -0.06961188683913871], [1.7373250437125582, 0.6964625218572815, 0.3277340169773852], [0, 0.20500487905406972, -0.2904813020627909], [3.1051699490312066, 0.4310568192040021, 0.0728948312864804], [1.3466814964647869, 0.7562926500028018, -0.38475509597159896], [6.385400846923297, 1, -0.018920160072299616]]",81.35181303024292
62,62,1.502186014299231,"[[9.662371146816223, 0.7389647473614253, -0.2112103535792989], [0, 0.7840533797268643, -0.5], [0, 0.9917115927240304, -0.4389943174097307], [0, 1, -0.2748717465559706], [6.82761432371052, 0.9797533372614812, -0.06961188683913871], [1.7373250437125582, 0.6964625218572815, 0.3277340169773852], [0, 0.20500487905406972, -0.2904813020627909], [3.1051699490312066, 0.4310568192040021, 0.0728948312864804], [1.3466814964647869, 0.7562926500028018, -0.38475509597159896], [6.385400846923297, 1, -0.018920160072299616]]",82.66393904685974
63,63,1.502186014299231,"[[9.662371146816223, 0.7389647473614253, -0.2112103535792989], [0, 0.7840533797268643, -0.5], [0, 0.9917115927240304, -0.4389943174097307], [0, 1, -0.2748717465559706], [6.82761432371052, 0.9797533372614812, -0.06961188683913871], [1.7373250437125582, 0.6964625218572815, 0.3277340169773852], [0, 0.20500487905406972, -0.2904813020627909], [3.1051699490312066, 0.4310568192040021, 0.0728948312864804], [1.3466814964647869, 0.7562926500028018, -0.38475509597159896], [6.385400846923297, 1, -0.018920160072299616]]",83.97606506347657
64,64,1.502186014299231,"[[9.662371146816223, 0.7389647473614253, -0.2112103535792989], [0, 0.7840533797268643, -0.5], [0, 0.9917115927240304, -0.4389943174097307], [0, 1, -0.2748717465559706], [6.82761432371052, 0.9797533372614812, -0.06961188683913871], [1.7373250437125582, 0.6964625218572815, 0.3277340169773852], [0, 0.20500487905406972, -0.2904813020627909], [3.1051699490312066, 0.4310568192040021, 0.0728948312864804], [1.3466814964647869, 0.7562926500028018, -0.38475509597159896], [6.385400846923297, 1, -0.018920160072299616]]",85.28819108009338
65,65,1.502186014299231,"[[9.662371146816223, 0.7389647473614253, -0.2112103535792989], [0, 0.7840533797268643, -0.5], [0, 0.9917115927240304, -0.4389943174097307], [0, 1, -0.2748717465559706], [6.82761432371052, 0.9797533372614812, -0.06961188683913871], [1.7373250437125582, 0.6964625218572815, 0.3277340169773852], [0, 0.20500487905406972, -0.2904813020627909], [3.1051699490312066, 0.4310568192040021, 0.0728948312864804], [1.3466814964647869, 0.7562926500028018, -0.38475509597159896], [6.385400846923297, 1, -0.018920160072299616]]",86.6003170967102
66,66,1.502186014299231,"[[9.662371146816223, 0.7389647473614253, -0.2112103535792989], [0, 0.7840533797268643, -0.5], [0, 0.9917115927240304, -0.4389943174097307], [0, 1, -0.2748717465559706], [6.82761432371052, 0.9797533372614812, -0.06961188683913871], [1.7373250437125582, 0.6964625218572815, 0.3277340169773852], [0, 0.20500487905406972, -0.2904813020627909], [3.1051699490312066, 0.4310568192040021, 0.0728948312864804], [1.3466814964647869, 0.7562926500028018, -0.38475509597159896], [6.385400846923297, 1, -0.018920160072299616]]",87.91244311332703
67,67,1.502186014299231,"[[9.662371146816223, 0.7389647473614253, -0.2112103535792989], [0, 0.7840533797268643, -0.5], [0, 0.9917115927240304, -0.4389943174097307], [0, 1, -0.2748717465559706], [6.82761432371052, 0.9797533372614812, -0.06961188683913871], [1.7373250437125582, 0.6964625218572815, 0.3277340169773852], [0, 0.20500487905406972, -0.2904813020627909], [3.1051699490312066, 0.4310568192040021, 0.0728948312864804], [1.3466814964647869, 0.7562926500028018, -0.38475509597159896], [6.385400846923297, 1, -0.018920160072299616]]",89.22456912994384
68,68,1.502186014299231,"[[9.662371146816223, 0.7389647473614253, -0.2112103535792989], [0, 0.7840533797268643, -0.5], [0, 0.9917115927240304, -0.4389943174097307], [0, 1, -0.2748717465559706], [6.82761432371052, 0.9797533372614812, -0.06961188683913871], [1.7373250437125582, 0.6964625218572815, 0.3277340169773852], [0, 0.20500487905406972, -0.2904813020627909], [3.1051699490312066, 0.4310568192040021, 0.0728948312864804], [1.3466814964647869, 0.7562926500028018, -0.38475509597159896], [6.385400846923297, 1, -0.018920160072299616]]",90.53669514656067
69,69,1.502186014299231,"[[9.662371146816223, 0.7389647473614253, -0.2112103535792989], [0, 0.7840533797268643, -0.5], [0, 0.9917115927240304, -0.4389943174097307], [0, 1, -0.2748717465559706], [6.82761432371052, 0.9797533372614812, -0.06961188683913871], [1.7373250437125582, 0.6964625218572815, 0.3277340169773852], [0, 0.20500487905406972, -0.2904813020627909], [3.1051699490312066, 0.4310568192040021, 0.0728948312864804], [1.3466814964647869, 0.7562926500028018, -0.38475509597159896], [6.385400846923297, 1, -0.018920160072299616]]",91.84882116317749
70,70,1.502186014299231,"[[9.662371146816223, 0.7389647473614253, -0.2112103535792989], [0, 0.7840533797268643, -0.5], [0, 0.9917115927240304, -0.4389943174097307], [0, 1, -0.2748717465559706], [6.82761432371052, 0.9797533372614812, -0.06961188683913871], [1.7373250437125582, 0.6964625218572815, 0.3277340169773852], [0, 0.20500487905406972, -0.2904813020627909], [3.1051699490312066, 0.4310568192040021, 0.0728948312864804], [1.3466814964647869, 0.7562926500028018, -0.38475509597159896], [6.385400846923297, 1, -0.018920160072299616]]",93.1609471797943
71,71,1.502186014299231,"[[9.662371146816223, 0.7389647473614253, -0.2112103535792989], [0, 0.7840533797268643, -0.5], [0, 0.9917115927240304, -0.4389943174097307], [0, 1, -0.2748717465559706], [6.82761432371052, 0.9797533372614812, -0.06961188683913871], [1.7373250437125582, 0.6964625218572815, 0.3277340169773852], [0, 0.20500487905406972, -0.2904813020627909], [3.1051699490312066, 0.4310568192040021, 0.0728948312864804], [1.3466814964647869, 0.7562926500028018, -0.38475509597159896], [6.385400846923297, 1, -0.018920160072299616]]",94.47307319641114
72,72,1.502186014299231,"[[9.662371146816223, 0.7389647473614253, -0.2112103535792989], [0, 0.7840533797268643, -0.5], [0, 0.9917115927240304, -0.4389943174097307], [0, 1, -0.2748717465559706], [6.82761432371052, 0.9797533372614812, -0.06961188683913871], [1.7373250437125582, 0.6964625218572815, 0.3277340169773852], [0, 0.20500487905406972, -0.2904813020627909], [3.1051699490312066, 0.4310568192040021, 0.0728948312864804], [1.3466814964647869, 0.7562926500028018, -0.38475509597159896], [6.385400846923297, 1, -0.018920160072299616]]",95.78519921302795
73,73,1.502186014299231,"[[9.662371146816223, 0.7389647473614253, -0.2112103535792989], [0, 0.7840533797268643, -0.5], [0, 0.9917115927240304, -0.4389943174097307], [0, 1, -0.2748717465559706], [6.82761432371052, 0.9797533372614812, -0.06961188683913871], [1.7373250437125582, 0.6964625218572815, 0.3277340169773852], [0, 0.20500487905406972, -0.2904813020627909], [3.1051699490312066, 0.4310568192040021, 0.0728948312864804], [1.3466814964647869, 0.7562926500028018, -0.38475509597159896], [6.385400846923297, 1, -0.018920160072299616]]",97.09732522964478
74,74,1.502186014299231,"[[9.662371146816223, 0.7389647473614253, -0.2112103535792989], [0, 0.7840533797268643, -0.5], [0, 0.9917115927240304, -0.4389943174097307], [0, 1, -0.2748717465559706], [6.82761432371052, 0.9797533372614812, -0.06961188683913871], [1.7373250437125582, 0.6964625218572815, 0.3277340169773852], [0, 0.20500487905406972, -0.2904813020627909], [3.1051699490312066, 0.4310568192040021, 0.0728948312864804], [1.3466814964647869, 0.7562926500028018, -0.38475509597159896], [6.385400846923297, 1, -0.018920160072299616]]",98.4094512462616
75,75,1.502186014299231,"[[9.662371146816223, 0.7389647473614253, -0.2112103535792989], [0, 0.7840533797268643, -0.5], [0, 0.9917115927240304, -0.4389943174097307], [0, 1, -0.2748717465559706], [6.82761432371052, 0.9797533372614812, -0.06961188683913871], [1.7373250437125582, 0.6964625218572815, 0.3277340169773852], [0, 0.20500487905406972, -0.2904813020627909], [3.1051699490312066, 0.4310568192040021, 0.0728948312864804], [1.3466814964647869, 0.7562926500028018, -0.38475509597159896], [6.385400846923297, 1, -0.018920160072299616]]",99.72157726287841
76,76,1.502186014299231,"[[9.662371146816223, 0.7389647473614253, -0.2112103535792989], [0, 0.7840533797268643, -0.5], [0, 0.9917115927240304, -0.4389943174097307], [0, 1, -0.2748717465559706], [6.82761432371052, 0.9797533372614812, -0.06961188683913871], [1.7373250437125582, 0.6964625218572815, 0.3277340169773852], [0, 0.20500487905406972, -0.2904813020627909], [3.1051699490312066, 0.4310568192040021, 0.0728948312864804], [1.3466814964647869, 0.7562926500028018, -0.38475509597159896], [6.385400846923297, 1, -0.018920160072299616]]",101.03370327949524
77,77,1.502186014299231,"[[9.662371146816223, 0.7389647473614253, -0.2112103535792989], [0, 0.7840533797268643, -0.5], [0, 0.9917115927240304, -0.4389943174097307], [0, 1, -0.2748717465559706], [6.82761432371052, 0.9797533372614812, -0.06961188683913871], [1.7373250437125582, 0.6964625218572815, 0.3277340169773852], [0, 0.20500487905406972, -0.2904813020627909], [3.1051699490312066, 0.4310568192040021, 0.0728948312864804], [1.3466814964647869, 0.7562926500028018, -0.38475509597159896], [6.385400846923297, 1, -0.018920160072299616]]",102.34582929611206
78,78,1.502186014299231,"[[9.662371146816223, 0.7389647473614253, -0.2112103535792989], [0, 0.7840533797268643, -0.5], [0, 0.9917115927240304, -0.4389943174097307], [0, 1, -0.2748717465559706], [6.82761432371052, 0.9797533372614812, -0.06961188683913871], [1.7373250437125582, 0.6964625218572815, 0.3277340169773852], [0, 0.20500487905406972, -0.2904813020627909], [3.1051699490312066, 0.4310568192040021, 0.0728948312864804], [1.3466814964647869, 0.7562926500028018, -0.38475509597159896], [6.385400846923297, 1, -0.018920160072299616]]",103.65795531272889
79,79,1.502186014299231,"[[9.662371146816223, 0.7389647473614253, -0.2112103535792989], [0, 0.7840533797268643, -0.5], [0, 0.9917115927240304, -0.4389943174097307], [0, 1, -0.2748717465559706], [6.82761432371052, 0.9797533372614812, -0.06961188683913871], [1.7373250437125582, 0.6964625218572815, 0.3277340169773852], [0, 0.20500487905406972, -0.2904813020627909], [3.1051699490312066, 0.4310568192040021, 0.0728948312864804], [1.3466814964647869, 0.7562926500028018, -0.38475509597159896], [6.385400846923297, 1, -0.018920160072299616]]",104.9700813293457
80,80,1.502186014299231,"[[9.662371146816223, 0.7389647473614253, -0.2112103535792989], [0, 0.7840533797268643, -0.5], [0, 0.9917115927240304, -0.4389943174097307], [0, 1, -0.2748717465559706], [6.82761432371052, 0.9797533372614812, -0.06961188683913871], [1.7373250437125582, 0.6964625218572815, 0.3277340169773852], [0, 0.20500487905406972, -0.2904813020627909], [3.1051699490312066, 0.4310568192040021, 0.0728948312864804], [1.3466814964647869, 0.7562926500028018, -0.38475509597159896], [6.385400846923297, 1, -0.018920160072299616]]",106.28220734596252
81,81,1.502186014299231,"[[9.662371146816223, 0.7389647473614253, -0.2112103535792989], [0, 0.7840533797268643, -0.5], [0, 0.9917115927240304, -0.4389943174097307], [0, 1, -0.2748717465559706], [6.82761432371052, 0.9797533372614812, -0.06961188683913871], [1.7373250437125582, 0.6964625218572815, 0.3277340169773852], [0, 0.20500487905406972, -0.2904813020627909], [3.1051699490312066, 0.4310568192040021, 0.0728948312864804], [1.3466814964647869, 0.7562926500028018, -0.38475509597159896], [6.385400846923297, 1, -0.018920160072299616]]",107.59433336257935
82,82,1.502186014299231,"[[9.662371146816223, 0.7389647473614253, -0.2112103535792989], [0, 0.7840533797268643, -0.5], [0, 0.9917115927240304, -0.4389943174097307], [0, 1, -0.2748717465559706], [6.82761432371052, 0.9797533372614812, -0.06961188683913871], [1.7373250437125582, 0.6964625218572815, 0.3277340169773852], [0, 0.20500487905406972, -0.2904813020627909], [3.1051699490312066, 0.4310568192040021, 0.0728948312864804], [1.3466814964647869, 0.7562926500028018, -0.38475509597159896], [6.385400846923297, 1, -0.018920160072299616]]",108.90645937919616
83,83,1.502186014299231,"[[9.662371146816223, 0.7389647473614253, -0.2112103535792989], [0, 0.7840533797268643, -0.5], [0, 0.9917115927240304, -0.4389943174097307], [0, 1, -0.2748717465559706], [6.82761432371052, 0.9797533372614812, -0.06961188683913871], [1.7373250437125582, 0.6964625218572815, 0.3277340169773852], [0, 0.20500487905406972, -0.2904813020627909], [3.1051699490312066, 0.4310568192040021, 0.0728948312864804], [1.3466814964647869, 0.7562926500028018, -0.38475509597159896], [6.385400846923297, 1, -0.018920160072299616]]",110.218585395813
84,84,1.502186014299231,"[[9.662371146816223, 0.7389647473614253, -0.2112103535792989], [0, 0.7840533797268643, -0.5], [0, 0.9917115927240304, -0.4389943174097307], [0, 1, -0.2748717465559706], [6.82761432371052, 0.9797533372614812, -0.06961188683913871], [1.7373250437125582, 0.6964625218572815, 0.3277340169773852], [0, 0.20500487905406972, -0.2904813020627909], [3.1051699490312066, 0.4310568192040021, 0.0728948312864804], [1.3466814964647869, 0.7562926500028018, -0.38475509597159896], [6.385400846923297, 1, -0.018920160072299616]]",111.53071141242981
85,85,1.502186014299231,"[[9.662371146816223, 0.7389647473614253, -0.2112103535792989], [0, 0.7840533797268643, -0.5], [0, 0.9917115927240304, -0.4389943174097307], [0, 1, -0.2748717465559706], [6.82761432371052, 0.9797533372614812, -0.06961188683913871], [1.7373250437125582, 0.6964625218572815, 0.3277340169773852], [0, 0.20500487905406972, -0.2904813020627909], [3.1051699490312066, 0.4310568192040021, 0.0728948312864804], [1.3466814964647869, 0.7562926500028018, -0.38475509597159896], [6.385400846923297, 1, -0.018920160072299616]]",112.84283742904663
86,86,1.502186014299231,"[[9.662371146816223, 0.7389647473614253, -0.2112103535792989], [0, 0.7840533797268643, -0.5], [0, 0.9917115927240304, -0.4389943174097307], [0, 1, -0.2748717465559706], [6.82761432371052, 0.9797533372614812, -0.06961188683913871], [1.7373250437125582, 0.6964625218572815, 0.3277340169773852], [0, 0.20500487905406972, -0.2904813020627909], [3.1051699490312066, 0.4310568192040021, 0.0728948312864804], [1.3466814964647869, 0.7562926500028018, -0.38475509597159896], [6.385400846923297, 1, -0.018920160072299616]]",114.15496344566345
87,87,1.502186014299231,"[[9.662371146816223, 0.7389647473614253, -0.2112103535792989], [0, 0.7840533797268643, -0.5], [0, 0.9917115927240304, -0.4389943174097307], [0, 1, -0.2748717465559706], [6.82761432371052, 0.9797533372614812, -0.06961188683913871], [1.7373250437125582, 0.6964625218572815, 0.3277340169773852], [0, 0.20500487905406972, -0.2904813020627909], [3.1051699490312066, 0.4310568192040021, 0.0728948312864804], [1.3466814964647869, 0.7562926500028018, -0.38475509597159896], [6.385400846923297, 1, -0.018920160072299616]]",115.46708946228027
88,88,1.502186014299231,"[[9.662371146816223, 0.7389647473614253, -0.2112103535792989], [0, 0.7840533797268643, -0.5], [0, 0.9917115927240304, -0.4389943174097307], [0, 1, -0.2748717465559706], [6.82761432371052, 0.9797533372614812, -0.06961188683913871], [1.7373250437125582, 0.6964625218572815, 0.3277340169773852], [0, 0.20500487905406972, -0.2904813020627909], [3.1051699490312066, 0.4310568192040021, 0.0728948312864804], [1.3466814964647869, 0.7562926500028018, -0.38475509597159896], [6.385400846923297, 1, -0.018920160072299616]]",116.7792154788971
89,89,1.502186014299231,"[[9.662371146816223, 0.7389647473614253, -0.2112103535792989], [0, 0.7840533797268643, -0.5], [0, 0.9917115927240304, -0.4389943174097307], [0, 1, -0.2748717465559706], [6.82761432371052, 0.9797533372614812, -0.06961188683913871], [1.7373250437125582, 0.6964625218572815, 0.3277340169773852], [0, 0.20500487905406972, -0.2904813020627909], [3.1051699490312066, 0.4310568192040021, 0.0728948312864804], [1.3466814964647869, 0.7562926500028018, -0.38475509597159896], [6.385400846923297, 1, -0.018920160072299616]]",118.09134149551392
90,90,1.502186014299231,"[[9.662371146816223, 0.7389647473614253, -0.2112103535792989], [0, 0.7840533797268643, -0.5], [0, 0.9917115927240304, -0.4389943174097307], [0, 1, -0.2748717465559706], [6.82761432371052, 0.9797533372614812, -0.06961188683913871], [1.7373250437125582, 0.6964625218572815, 0.3277340169773852], [0, 0.20500487905406972, -0.2904813020627909], [3.1051699490312066, 0.4310568192040021, 0.0728948312864804], [1.3466814964647869, 0.7562926500028018, -0.38475509597159896], [6.385400846923297, 1, -0.018920160072299616]]",119.40346751213073
91,91,1.502186014299231,"[[9.662371146816223, 0.7389647473614253, -0.2112103535792989], [0, 0.7840533797268643, -0.5], [0, 0.9917115927240304, -0.4389943174097307], [0, 1, -0.2748717465559706], [6.82761432371052, 0.9797533372614812, -0.06961188683913871], [1.7373250437125582, 0.6964625218572815, 0.3277340169773852], [0, 0.20500487905406972, -0.2904813020627909], [3.1051699490312066, 0.4310568192040021, 0.0728948312864804], [1.3466814964647869, 0.7562926500028018, -0.38475509597159896], [6.385400846923297, 1, -0.018920160072299616]]",120.71559352874756
92,92,1.502186014299231,"[[9.662371146816223, 0.7389647473614253, -0.2112103535792989], [0, 0.7840533797268643, -0.5], [0, 0.9917115927240304, -0.4389943174097307], [0, 1, -0.2748717465559706], [6.82761432371052, 0.9797533372614812, -0.06961188683913871], [1.7373250437125582, 0.6964625218572815, 0.3277340169773852], [0, 0.20500487905406972, -0.2904813020627909], [3.1051699490312066, 0.4310568192040021, 0.0728948312864804], [1.3466814964647869, 0.7562926500028018, -0.38475509597159896], [6.385400846923297, 1, -0.018920160072299616]]",122.02771954536438
93,93,1.502186014299231,"[[9.662371146816223, 0.7389647473614253, -0.2112103535792989], [0, 0.7840533797268643, -0.5], [0, 0.9917115927240304, -0.4389943174097307], [0, 1, -0.2748717465559706], [6.82761432371052, 0.9797533372614812, -0.06961188683913871], [1.7373250437125582, 0.6964625218572815, 0.3277340169773852], [0, 0.20500487905406972, -0.2904813020627909], [3.1051699490312066, 0.4310568192040021, 0.0728948312864804], [1.3466814964647869, 0.7562926500028018, -0.38475509597159896], [6.385400846923297, 1, -0.018920160072299616]]",123.3398455619812
94,94,1.502186014299231,"[[9.662371146816223, 0.7389647473614253, -0.2112103535792989], [0, 0.7840533797268643, -0.5], [0, 0.9917115927240304, -0.4389943174097307], [0, 1, -0.2748717465559706], [6.82761432371052, 0.9797533372614812, -0.06961188683913871], [1.7373250437125582, 0.6964625218572815, 0.3277340169773852], [0, 0.20500487905406972, -0.2904813020627909], [3.1051699490312066, 0.4310568192040021, 0.0728948312864804], [1.3466814964647869, 0.7562926500028018, -0.38475509597159896], [6.385400846923297, 1, -0.018920160072299616]]",124.65197157859802
95,95,1.502186014299231,"[[9.662371146816223, 0.7389647473614253, -0.2112103535792989], [0, 0.7840533797268643, -0.5], [0, 0.9917115927240304, -0.4389943174097307], [0, 1, -0.2748717465559706], [6.82761432371052, 0.9797533372614812, -0.06961188683913871], [1.7373250437125582, 0.6964625218572815, 0.3277340169773852], [0, 0.20500487905406972, -0.2904813020627909], [3.1051699490312066, 0.4310568192040021, 0.0728948312864804], [1.3466814964647869, 0.7562926500028018, -0.38475509597159896], [6.385400846923297, 1, -0.018920160072299616]]",125.96409759521484
96,96,1.502186014299231,"[[9.662371146816223, 0.7389647473614253, -0.2112103535792989], [0, 0.7840533797268643, -0.5], [0, 0.9917115927240304, -0.4389943174097307], [0, 1, -0.2748717465559706], [6.82761432371052, 0.9797533372614812, -0.06961188683913871], [1.7373250437125582, 0.6964625218572815, 0.3277340169773852], [0, 0.20500487905406972, -0.2904813020627909], [3.1051699490312066, 0.4310568192040021, 0.0728948312864804], [1.3466814964647869, 0.7562926500028018, -0.38475509597159896], [6.385400846923297, 1, -0.018920160072299616]]",127.27622361183167
97,97,1.533858302521348,"[[6.798509978563475, 0.6516176017382004, -0.5], [0, 1, -0.338938754056686], [3.952853705466599, 0.9628415502130989, -0.5], [0, 0.9997721609596233, 0.39667116770668426], [8.806788240831052, 0.8387650483039268, -0.04828582441871737], [1.7373250437125582, 0.6964625218572815, 0.3277340169773852], [1.1503501244230936, 0.3337733212223888, -0.11831573916960741], [5.302059718559322, 0.34016146430308913, -0.22652510371628806], [7.695842681675978, 0.7496037675351528, -0.42633782182511015], [6.385400846923297, 0.9654248103418155, -0.018920160072299616]]",128.5883496284485
98,98,1.533858302521348,"[[6.798509978563475, 0.6516176017382004, -0.5], [0, 1, -0.338938754056686], [3.952853705466599, 0.9628415502130989, -0.5], [0, 0.9997721609596233, 0.39667116770668426], [8.806788240831052, 0.8387650483039268, -0.04828582441871737], [1.7373250437125582, 0.6964625218572815, 0.3277340169773852], [1.1503501244230936, 0.3337733212223888, -0.11831573916960741], [5.302059718559322, 0.34016146430308913, -0.22652510371628806], [7.695842681675978, 0.7496037675351528, -0.42633782182511015], [6.385400846923297, 0.9654248103418155, -0.018920160072299616]]",129.9004756450653
99,99,1.533858302521348,"[[6.798509978563475, 0.6516176017382004, -0.5], [0, 1, -0.338938754056686], [3.952853705466599, 0.9628415502130989, -0.5], [0, 0.9997721609596233, 0.39667116770668426], [8.806788240831052, 0.8387650483039268, -0.04828582441871737], [1.7373250437125582, 0.6964625218572815, 0.3277340169773852], [1.1503501244230936, 0.3337733212223888, -0.11831573916960741], [5.302059718559322, 0.34016146430308913, -0.22652510371628806], [7.695842681675978, 0.7496037675351528, -0.42633782182511015], [6.385400846923297, 0.9654248103418155, -0.018920160072299616]]",131.21260166168213
